Language model created by QuickLM on Tue Jul 30 00:17:47 EDT 2019
Copyright (c) 1996-2010 Carnegie Mellon University and Alexander I. Rudnicky

The model is in standard ARPA format, designed by Doug Paul while he was at MITRE.

The code that was used to produce this language model is available in Open Source.
Please visit http://www.speech.cs.cmu.edu/tools/ for more information

The (fixed) discount mass is 0.5. The backoffs are computed using the ratio method.
This model based on a corpus of 18 sentences and 16 words

\data\
ngram 1=16
ngram 2=32
ngram 3=39

\1-grams:
-0.9379 </s> -0.3010
-0.9379 <s> -0.2478
-1.8921 CALCULATOR -0.2478
-1.8921 CHROME -0.2478
-1.2389 CLOSE -0.2478
-1.8921 CONTROL -0.2954
-1.8921 EXCEL -0.2478
-1.8921 FILE -0.2954
-1.8921 MANAGER -0.2478
-1.8921 MUSIC -0.2478
-1.8921 NOTEPAD -0.2478
-1.2389 OPEN -0.2478
-1.8921 PANEL -0.2478
-1.8921 POINT -0.2478
-1.8921 POWER -0.2954
-1.8921 WORD -0.2478

\2-grams:
-0.6021 <s> CLOSE 0.0000
-0.6021 <s> OPEN 0.0000
-0.3010 CALCULATOR </s> -0.3010
-0.3010 CHROME </s> -0.3010
-1.2553 CLOSE CALCULATOR 0.0000
-1.2553 CLOSE CHROME 0.0000
-1.2553 CLOSE CONTROL 0.0000
-1.2553 CLOSE EXCEL 0.0000
-1.2553 CLOSE FILE 0.0000
-1.2553 CLOSE MUSIC 0.0000
-1.2553 CLOSE NOTEPAD 0.0000
-1.2553 CLOSE POWER 0.0000
-1.2553 CLOSE WORD 0.0000
-0.3010 CONTROL PANEL 0.0000
-0.3010 EXCEL </s> -0.3010
-0.3010 FILE MANAGER 0.0000
-0.3010 MANAGER </s> -0.3010
-0.3010 MUSIC </s> -0.3010
-0.3010 NOTEPAD </s> -0.3010
-1.2553 OPEN CALCULATOR 0.0000
-1.2553 OPEN CHROME 0.0000
-1.2553 OPEN CONTROL 0.0000
-1.2553 OPEN EXCEL 0.0000
-1.2553 OPEN FILE 0.0000
-1.2553 OPEN MUSIC 0.0000
-1.2553 OPEN NOTEPAD 0.0000
-1.2553 OPEN POWER 0.0000
-1.2553 OPEN WORD 0.0000
-0.3010 PANEL </s> -0.3010
-0.3010 POINT </s> -0.3010
-0.3010 POWER POINT 0.0000
-0.3010 WORD </s> -0.3010

\3-grams:
-1.2553 <s> CLOSE CALCULATOR
-1.2553 <s> CLOSE CHROME
-1.2553 <s> CLOSE CONTROL
-1.2553 <s> CLOSE EXCEL
-1.2553 <s> CLOSE FILE
-1.2553 <s> CLOSE MUSIC
-1.2553 <s> CLOSE NOTEPAD
-1.2553 <s> CLOSE POWER
-1.2553 <s> CLOSE WORD
-1.2553 <s> OPEN CALCULATOR
-1.2553 <s> OPEN CHROME
-1.2553 <s> OPEN CONTROL
-1.2553 <s> OPEN EXCEL
-1.2553 <s> OPEN FILE
-1.2553 <s> OPEN MUSIC
-1.2553 <s> OPEN NOTEPAD
-1.2553 <s> OPEN POWER
-1.2553 <s> OPEN WORD
-0.3010 CLOSE CALCULATOR </s>
-0.3010 CLOSE CHROME </s>
-0.3010 CLOSE CONTROL PANEL
-0.3010 CLOSE EXCEL </s>
-0.3010 CLOSE FILE MANAGER
-0.3010 CLOSE MUSIC </s>
-0.3010 CLOSE NOTEPAD </s>
-0.3010 CLOSE POWER POINT
-0.3010 CLOSE WORD </s>
-0.3010 CONTROL PANEL </s>
-0.3010 FILE MANAGER </s>
-0.3010 OPEN CALCULATOR </s>
-0.3010 OPEN CHROME </s>
-0.3010 OPEN CONTROL PANEL
-0.3010 OPEN EXCEL </s>
-0.3010 OPEN FILE MANAGER
-0.3010 OPEN MUSIC </s>
-0.3010 OPEN NOTEPAD </s>
-0.3010 OPEN POWER POINT
-0.3010 OPEN WORD </s>
-0.3010 POWER POINT </s>

\end\
