Language model created by QuickLM on Fri Aug  2 10:41:58 EDT 2019
Copyright (c) 1996-2010 Carnegie Mellon University and Alexander I. Rudnicky

The model is in standard ARPA format, designed by Doug Paul while he was at MITRE.

The code that was used to produce this language model is available in Open Source.
Please visit http://www.speech.cs.cmu.edu/tools/ for more information

The (fixed) discount mass is 0.5. The backoffs are computed using the ratio method.
This model based on a corpus of 5016 sentences and 4362 words

\data\
ngram 1=4362
ngram 2=8726
ngram 3=4382

\1-grams:
-0.7786 </s> -0.3010
-0.7786 <s> -0.2219
-4.1779 CALC -0.2219
-4.1779 CHROME -0.2219
-3.5759 CLOSE -0.3008
-4.1779 CONTROL -0.2219
-4.1779 EXCEL -0.2219
-4.1779 EXPLORER -0.2219
-4.1779 MUSIC -0.2219
-3.5759 OPEN -0.3008
-4.1779 POWER -0.2219
-4.4790 THE -0.2219
-4.1779 WORD -0.2219
-4.4790 A -0.2219
-4.4790 ABANDON -0.2219
-4.4790 ABILITY -0.2219
-4.4790 ABLE -0.2219
-4.4790 ABORTION -0.2219
-4.1779 ABOUT -0.2219
-4.1779 ABOVE -0.2219
-4.4790 ABROAD -0.2219
-4.4790 ABSENCE -0.2219
-4.4790 ABSOLUTE -0.2219
-4.4790 ABSOLUTELY -0.2219
-4.4790 ABSORB -0.2219
-4.4790 ABSTRACT -0.2219
-4.1779 ABUSE -0.2219
-4.4790 ACADEMIC -0.2219
-4.4790 ACCELERATE -0.2219
-4.4790 ACCENT -0.2219
-4.4790 ACCEPT -0.2219
-4.4790 ACCEPTABLE -0.2219
-4.4790 ACCEPTANCE -0.2219
-4.1779 ACCESS -0.2219
-4.4790 ACCESSIBLE -0.2219
-4.4790 ACCIDENT -0.2219
-4.4790 ACCOMMODATE -0.2219
-4.4790 ACCOMPANY -0.2219
-4.4790 ACCOMPLISH -0.2219
-4.4790 ACCOMPLISHMENT -0.2219
-4.4790 ACCORDING -0.2219
-4.1779 ACCOUNT -0.2219
-4.4790 ACCOUNTABILITY -0.2219
-4.4790 ACCOUNTING -0.2219
-4.4790 ACCURACY -0.2219
-4.4790 ACCURATE -0.2219
-4.4790 ACCURATELY -0.2219
-4.4790 ACCUSATION -0.2219
-4.4790 ACCUSE -0.2219
-4.4790 ACHIEVE -0.2219
-4.4790 ACHIEVEMENT -0.2219
-4.4790 ACID -0.2219
-4.4790 ACKNOWLEDGE -0.2219
-4.4790 ACQUIRE -0.2219
-4.4790 ACQUISITION -0.2219
-4.1779 ACROSS -0.2219
-4.1779 ACT -0.2219
-4.4790 ACTION -0.2219
-4.4790 ACTIVE -0.2219
-4.4790 ACTIVELY -0.2219
-4.4790 ACTIVIST -0.2219
-4.4790 ACTIVITY -0.2219
-4.4790 ACTOR -0.2219
-4.4790 ACTRESS -0.2219
-4.4790 ACTUAL -0.2219
-4.4790 ACTUALLY -0.2219
-4.4790 AD -0.2219
-4.4790 ADAPT -0.2219
-4.4790 ADD -0.2219
-4.4790 ADDED -0.2219
-4.1779 ADDITION -0.2219
-4.4790 ADDITIONAL -0.2219
-4.1779 ADDRESS -0.2219
-4.4790 ADEQUATE -0.2219
-4.4790 ADJUST -0.2219
-4.4790 ADJUSTMENT -0.2219
-4.4790 ADMINISTER -0.2219
-4.4790 ADMINISTRATION -0.2219
-4.4790 ADMINISTRATIVE -0.2219
-4.4790 ADMINISTRATOR -0.2219
-4.4790 ADMIRE -0.2219
-4.4790 ADMISSION -0.2219
-4.4790ADMIT -0.2219
-4.4790 ADOLESCENT -0.2219
-4.4790 ADOPT -0.2219
-4.4790 ADOPTION -0.2219
-4.4790    ADULT -0.2219
-4.1779    ADVANCE -0.2219
-4.4790    ADVANCED -0.2219
-4.4790    ADVANTAGE -0.2219
-4.4790    ADVENTURE -0.2219
-4.4790    ADVERTISING -0.2219
-4.4790    ADVICE -0.2219
-4.4790    ADVISE -0.2219
-4.4790    ADVISER -0.2219
-4.1779    ADVOCATE -0.2219
-4.4790    AESTHETIC -0.2219
-4.4790    AFFAIR -0.2219
-4.4790    AFFECT -0.2219
-4.4790    AFFORD -0.2219
-4.4790    AFRAID -0.2219
-4.4790    AFRICAN -0.2219
-4.4790    AFRICAN-AMERICAN -0.2219
-4.1779    AFTER -0.2219
-4.4790    AFTERNOON -0.2219
-4.4790    AFTERWARD -0.2219
-4.4790    AGAIN -0.2219
-4.4790    AGAINST -0.2219
-4.1779    AGE -0.2219
-4.4790    AGENCY -0.2219
-4.4790    AGENDA -0.2219
-4.4790    AGENT -0.2219
-4.4790    AGGRESSION -0.2219
-4.4790    AGGRESSIVE -0.2219
-4.4790    AGO -0.2219
-4.4790    AGREE -0.2219
-4.4790    AGREEMENT -0.2219
-4.4790    AGRICULTURAL -0.2219
-4.4790    AGRICULTURE -0.2219
-4.4790    AH -0.2219
-4.1779    AHEAD -0.2219
-4.1779    AID -0.2219
-4.4790    AIDE -0.2219
-4.4790    AIDS -0.2219
-4.1779    AIM -0.2219
-4.4790    AIR -0.2219
-4.4790    AIRCRAFT -0.2219
-4.4790    AIRLINE -0.2219
-4.4790    AIRPLANE -0.2219
-4.4790    AIRPORT -0.2219
-4.4790    AISLE -0.2219
-4.4790    ALARM -0.2219
-4.4790    ALBUM -0.2219
-4.4790    ALCOHOL -0.2219
-4.4790    ALIEN -0.2219
-4.4790    ALIKE -0.2219
-4.4790    ALIVE -0.2219
-4.1779    ALL -0.2219
-4.4790    ALLEGATION -0.2219
-4.4790    ALLEGED -0.2219
-4.4790    ALLEGEDLY -0.2219
-4.4790    ALLEY -0.2219
-4.4790    ALLIANCE -0.2219
-4.4790    ALLOW -0.2219
-4.4790    ALLY -0.2219
-4.4790    ALMOST -0.2219
-4.1779    ALONE -0.2219
-4.1779    ALONG -0.2219
-4.4790    ALONGSIDE -0.2219
-4.4790    ALREADY -0.2219
-4.4790    ALSO -0.2219
-4.4790    ALTER -0.2219
-4.1779    ALTERNATIVE -0.2219
-4.4790    ALTHOUGH -0.2219
-4.4790    ALTOGETHER -0.2219
-4.4790    ALUMINUM -0.2219
-4.4790    ALWAYS -0.2219
-4.4790    AM -0.2219
-4.4790    AMAZING -0.2219
-4.4790    AMBASSADOR -0.2219
-4.4790    AMBITION -0.2219
-4.4790    AMBITIOUS -0.2219
-4.4790    AMENDMENT -0.2219
-4.1779    AMERICAN -0.2219
-4.4790    AMID -0.2219
-4.4790    AMONG -0.2219
-4.4790    AMOUNT -0.2219
-4.4790    ANALYSIS -0.2219
-4.4790    ANALYST -0.2219
-4.4790    ANALYZE -0.2219
-4.4790    ANCESTOR -0.2219
-4.4790    ANCIENT -0.2219
-4.4790    AND -0.2219
-4.4790    AND/OR -0.2219
-4.4790    ANGEL -0.2219
-4.4790    ANGER -0.2219
-4.4790    ANGLE -0.2219
-4.4790    ANGRY -0.2219
-4.4790    ANIMAL -0.2219
-4.4790    ANKLE -0.2219
-4.4790    ANNIVERSARY -0.2219
-4.4790    ANNOUNCE -0.2219
-4.4790    ANNOUNCEMENT -0.2219
-4.4790    ANNUAL -0.2219
-4.4790    ANNUALLY -0.2219
-4.4790    ANONYMOUS -0.2219
-4.1779    ANOTHER -0.2219
-4.1779    ANSWER -0.2219
-4.4790    ANTICIPATE -0.2219
-4.4790    ANXIETY -0.2219
-4.4790    ANXIOUS -0.2219
-4.1779    ANY -0.2219
-4.4790    ANYBODY -0.2219
-4.4790    ANYMORE -0.2219
-4.4790    ANYONE -0.2219
-4.4790    ANYTHING -0.2219
-4.4790    ANYWAY -0.2219
-4.4790    ANYWHERE -0.2219
-4.1779    APART -0.2219
-4.4790    APARTMENT -0.2219
-4.4790    APOLOGIZE -0.2219
-4.4790    APOLOGY -0.2219
-4.4790    APPARENT -0.2219
-4.4790    APPARENTLY -0.2219
-4.1779    APPEAL -0.2219
-4.4790    APPEAR -0.2219
-4.4790    APPEARANCE -0.2219
-4.4790    APPLE -0.2219
-4.4790    APPLICATION -0.2219
-4.4790    APPLY -0.2219
-4.4790    APPOINT -0.2219
-4.4790    APPOINTMENT -0.2219
-4.4790    APPRECIATE -0.2219
-4.4790    APPRECIATION -0.2219
-4.1779    APPROACH -0.2219
-4.4790    APPROPRIATE -0.2219
-4.4790    APPROVAL -0.2219
-4.4790    APPROVE -0.2219
-4.4790    APPROXIMATELY -0.2219
-4.1779    ARAB -0.2219
-4.4790    ARCHITECT -0.2219
-4.4790    ARCHITECTURE -0.2219
-4.4790    AREA -0.2219
-4.4790    ARENA -0.2219
-4.4790    ARGUE -0.2219
-4.4790    ARGUMENT -0.2219
-4.4790    ARISE -0.2219
-4.1779    ARM -0.2219
-4.4790    ARMED -0.2219
-4.4790    ARMY -0.2219
-4.1779    AROUND -0.2219
-4.4790    ARRANGE -0.2219
-4.4790    ARRANGEMENT -0.2219
-4.4790    ARRAY -0.2219
-4.1779    ARREST -0.2219
-4.4790    ARRIVAL -0.2219
-4.4790    ARRIVE -0.2219
-4.4790    ARROW -0.2219
-4.4790    ART -0.2219
-4.4790    ARTICLE -0.2219
-4.4790    ARTICULATE -0.2219
-4.4790    ARTIFACT -0.2219
-4.4790    ARTIFICIAL -0.2219
-4.4790    ARTIST -0.2219
-4.4790    ARTISTIC -0.2219
-4.0018    AS -0.2219
-4.4790    ASH -0.2219
-4.4790    ASIAN -0.2219
-4.4790    ASIDE -0.2219
-4.4790    ASK -0.2219
-4.4790    ASLEEP -0.2219
-4.4790    ASPECT -0.2219
-4.4790    ASS -0.2219
-4.4790    ASSAULT -0.2219
-4.4790    ASSEMBLE -0.2219
-4.4790    ASSEMBLY -0.2219
-4.4790    ASSERT -0.2219
-4.4790    ASSESS -0.2219
-4.4790    ASSESSMENT -0.2219
-4.4790    ASSET -0.2219
-4.4790    ASSIGN -0.2219
-4.4790    ASSIGNMENT -0.2219
-4.4790    ASSIST -0.2219
-4.4790    ASSISTANCE -0.2219
-4.1779    ASSISTANT -0.2219
-4.0018    ASSOCIATE -0.2219
-4.4790    ASSOCIATED -0.2219
-4.4790    ASSOCIATION -0.2219
-4.4790    ASSUME -0.2219
-4.4790    ASSUMPTION -0.2219
-4.4790    ASSURE -0.2219
-4.4790    ASTRONOMER -0.2219
-4.4790    AT -0.2219
-4.4790    ATHLETE -0.2219
-4.4790    ATHLETIC -0.2219
-4.4790    ATMOSPHERE -0.2219
-4.4790    ATOP -0.2219
-4.4790    ATTACH -0.2219
-4.1779    ATTACK -0.2219
-4.1779    ATTEMPT -0.2219
-4.4790    ATTEND -0.2219
-4.4790    ATTENDANCE -0.2219
-4.4790    ATTENTION -0.2219
-4.4790    ATTITUDE -0.2219
-4.4790    ATTORNEY -0.2219
-4.4790    ATTRACT -0.2219
-4.4790    ATTRACTION -0.2219
-4.4790    ATTRACTIVE -0.2219
-4.4790    ATTRIBUTE -0.2219
-4.4790    AUCTION -0.2219
-4.4790    AUDIENCE -0.2219
-4.4790    AUNT -0.2219
-4.4790    AUTHOR -0.2219
-4.4790    AUTHORITY -0.2219
-4.4790    AUTHORIZE -0.2219
-4.4790    AUTO -0.2219
-4.4790    AUTOMATIC -0.2219
-4.4790    AUTOMATICALLY -0.2219
-4.4790    AUTOMOBILE -0.2219
-4.4790    AUTONOMY -0.2219
-4.4790    AVAILABILITY -0.2219
-4.4790    AVAILABLE -0.2219
-4.0018    AVERAGE -0.2219
-4.4790    AVOID -0.2219
-4.4790    AWAIT -0.2219
-4.4790    AWAKE -0.2219
-4.1779    AWARD -0.2219
-4.4790    AWARE -0.2219
-4.4790    AWARENESS -0.2219
-4.1779    AWAY -0.2219
-4.4790    AWFUL -0.2219
-4.4790    BABY -0.2219
-4.0018    BACK -0.2219
-4.4790    BACKGROUND -0.2219
-4.4790    BACKYARD -0.2219
-4.4790    BACTERIA -0.2219
-4.4790    BAD -0.2219
-4.4790    BADLY -0.2219
-4.4790    BAG -0.2219
-4.4790    BAKE -0.2219
-4.1779    BALANCE -0.2219
-4.4790    BALANCED -0.2219
-4.4790    BALL -0.2219
-4.4790    BALLOON -0.2219
-4.4790    BALLOT -0.2219
-4.1779    BAN -0.2219
-4.4790    BANANA -0.2219
-4.4790    BAND -0.2219
-4.4790    BANK -0.2219
-4.4790    BANKER -0.2219
-4.4790    BANKING -0.2219
-4.4790    BANKRUPTCY -0.2219
-4.4790    BAR -0.2219
-4.4790    BARE -0.2219
-4.4790    BARELY -0.2219
-4.4790    BARN -0.2219
-4.4790    BARREL -0.2219
-4.4790    BARRIER -0.2219
-4.1779    BASE -0.2219
-4.4790    BASEBALL -0.2219
-4.4790    BASEMENT -0.2219
-4.4790    BASIC -0.2219
-4.4790    BASICALLY -0.2219
-4.4790    BASIS -0.2219
-4.4790    BASKET -0.2219
-4.4790    BASKETBALL -0.2219
-4.4790    BAT -0.2219
-4.4790    BATH -0.2219
-4.4790    BATHROOM -0.2219
-4.4790    BATTERY -0.2219
-4.1779    BATTLE -0.2219
-4.4790    BAY -0.2219
-4.4790    BE -0.2219
-4.4790    BEACH -0.2219
-4.4790    BEAM -0.2219
-4.4790    BEAN -0.2219
-4.1779    BEAR -0.2219
-4.4790    BEARD -0.2219
-4.4790    BEAST -0.2219
-4.1779    BEAT -0.2219
-4.4790    BEAUTIFUL -0.2219
-4.4790    BEAUTY -0.2219
-4.1779    BECAUSE -0.2219
-4.4790    BECOME -0.2219
-4.4790    BED -0.2219
-4.4790    BEDROOM -0.2219
-4.4790    BEE -0.2219
-4.4790    BEEF -0.2219
-4.4790    BEER -0.2219
-4.0018    BEFORE -0.2219
-4.4790    BEG -0.2219
-4.4790    BEGIN -0.2219
-4.4790    BEGINNING -0.2219
-4.4790    BEHALF -0.2219
-4.4790    BEHAVE -0.2219
-4.4790    BEHAVIOR -0.2219
-4.4790    BEHAVIORAL -0.2219
-4.1779    BEHIND -0.2219
-4.4790    BEING -0.2219
-4.4790    BELIEF -0.2219
-4.4790    BELIEVE -0.2219
-4.4790    BELL -0.2219
-4.4790    BELLY -0.2219
-4.4790    BELONG -0.2219
-4.1779    BELOW -0.2219
-4.4790    BELT -0.2219
-4.4790    BENCH -0.2219
-4.4790    BEND -0.2219
-4.4790    BENEATH -0.2219
-4.1779    BENEFIT -0.2219
-4.4790    BESIDE -0.2219
-4.1779    BESIDES -0.2219
-4.1779    BEST -0.2219
-4.1779    BET -0.2219
-4.1779    BETTER -0.2219
-4.4790    BETWEEN -0.2219
-4.1779    BEYOND -0.2219
-4.4790    BIAS -0.2219
-4.4790    BIBLE -0.2219
-4.4790    BICYCLE -0.2219
-4.4790    BID -0.2219
-4.4790    BIG -0.2219
-4.4790    BIKE -0.2219
-4.4790    BILL -0.2219
-4.4790    BILLION -0.2219
-4.4790    BIND -0.2219
-4.4790    BIOGRAPHY -0.2219
-4.4790    BIOLOGICAL -0.2219
-4.4790    BIOLOGY -0.2219
-4.4790    BIRD -0.2219
-4.4790    BIRTH -0.2219
-4.4790    BIRTHDAY -0.2219
-4.4790    BISHOP -0.2219
-4.1779    BIT -0.2219
-4.1779    BITE -0.2219
-4.4790    BITTER -0.2219
-4.1779    BLACK -0.2219
-4.4790    BLADE -0.2219
-4.4790    BLAME -0.2219
-4.4790    BLANK -0.2219
-4.4790    BLANKET -0.2219
-4.4790    BLAST -0.2219
-4.4790    BLEND -0.2219
-4.4790    BLESS -0.2219
-4.4790    BLESSING -0.2219
-4.4790    BLIND -0.2219
-4.4790    BLINK -0.2219
-4.1779    BLOCK -0.2219
-4.4790    BLOND -0.2219
-4.4790    BLOOD -0.2219
-4.4790    BLOODY -0.2219
-4.1779    BLOW -0.2219
-4.1779    BLUE -0.2219
-4.4790    BOARD -0.2219
-4.4790    BOAST -0.2219
-4.4790    BOAT -0.2219
-4.4790    BODY -0.2219
-4.4790    BOIL -0.2219
-4.4790    BOLD -0.2219
-4.4790    BOLT -0.2219
-4.1779    BOMB -0.2219
-4.4790    BOMBING -0.2219
-4.4790    BOND -0.2219
-4.4790    BONE -0.2219
-4.4790    BONUS -0.2219
-4.4790    BOOK -0.2219
-4.4790    BOOM -0.2219
-4.4790    BOOST -0.2219
-4.4790    BOOT -0.2219
-4.4790    BOOTH -0.2219
-4.4790    BORDER -0.2219
-4.4790    BORING -0.2219
-4.4790    BORN -0.2219
-4.4790    BORROW -0.2219
-4.4790    BOSS -0.2219
-4.1779    BOTH -0.2219
-4.4790    BOTHER -0.2219
-4.4790    BOTTLE -0.2219
-4.1779    BOTTOM -0.2219
-4.4790    BOUNCE -0.2219
-4.4790    BOUNDARY -0.2219
-4.1779    BOW -0.2219
-4.4790    BOWL -0.2219
-4.4790    BOX -0.2219
-4.4790    BOY -0.2219
-4.4790    BOYFRIEND -0.2219
-4.4790    BRAIN -0.2219
-4.4790    BRAKE -0.2219
-4.4790    BRANCH -0.2219
-4.4790    BRAND -0.2219
-4.4790    BRAVE -0.2219
-4.4790    BREAD -0.2219
-4.1779    BREAK -0.2219
-4.4790    BREAKFAST -0.2219
-4.4790    BREAST -0.2219
-4.4790    BREATH -0.2219
-4.4790    BREATHE -0.2219
-4.4790    BREATHING -0.2219
-4.4790    BREEZE -0.2219
-4.4790    BRICK -0.2219
-4.4790    BRIDE -0.2219
-4.4790    BRIDGE -0.2219
-4.4790    BRIEF -0.2219
-4.4790    BRIEFLY -0.2219
-4.4790    BRIGHT -0.2219
-4.4790    BRILLIANT -0.2219
-4.4790    BRING -0.2219
-4.4790    BRITISH -0.2219
-4.4790    BROAD -0.2219
-4.1779    BROADCAST -0.2219
-4.4790    BROKEN -0.2219
-4.4790    BROKER -0.2219
-4.4790    BRONZE -0.2219
-4.4790    BROTHER -0.2219
-4.4790    BROWN -0.2219
-4.1779    BRUSH -0.2219
-4.4790    BRUTAL -0.2219
-4.4790    BUBBLE -0.2219
-4.4790    BUCK -0.2219
-4.4790    BUCKET -0.2219
-4.4790    BUDDY -0.2219
-4.4790    BUDGET -0.2219
-4.4790    BUG -0.2219
-4.4790    BUILD -0.2219
-4.4790    BUILDER -0.2219
-4.4790    BUILDING -0.2219
-4.4790    BULB -0.2219
-4.4790    BULK -0.2219
-4.4790    BULL -0.2219
-4.4790    BULLET -0.2219
-4.4790    BUNCH -0.2219
-4.4790    BURDEN -0.2219
-4.4790    BUREAU -0.2219
-4.4790    BURN -0.2219
-4.4790    BURNING -0.2219
-4.4790    BURST -0.2219
-4.4790    BURY -0.2219
-4.4790    BUS -0.2219
-4.4790    BUSH -0.2219
-4.4790    BUSINESS -0.2219
-4.4790    BUSINESSMAN -0.2219
-4.4790    BUSY -0.2219
-4.1779    BUT -0.2219
-4.4790    BUTT -0.2219
-4.4790    BUTTER -0.2219
-4.4790    BUTTERFLY -0.2219
-4.4790    BUTTON -0.2219
-4.4790    BUY -0.2219
-4.4790    BUYER -0.2219
-4.1779    BY -0.2219
-4.4790    CAB -0.2219
-4.4790    CABIN -0.2219
-4.4790    CABINET -0.2219
-4.4790    CABLE -0.2219
-4.4790    CAGE -0.2219
-4.4790    CAKE -0.2219
-4.4790    CALCULATE -0.2219
-4.4790    CALCULATION -0.2219
-4.4790    CALENDAR -0.2219
-4.1779    CALL -0.2219
-4.1779    CALM -0.2219
-4.4790    CAMERA -0.2219
-4.4790    CAMP -0.2219
-4.4790    CAMPAIGN -0.2219
-4.4790    CAMPUS -0.2219
-4.1779    CAN -0.2219
-4.4790    CANADIAN -0.2219
-4.4790    CANCEL -0.2219
-4.4790    CANCER -0.2219
-4.4790    CANDIDATE -0.2219
-4.4790    CANDLE -0.2219
-4.4790    CANDY -0.2219
-4.4790    CANVAS -0.2219
-4.4790    CAP -0.2219
-4.4790    CAPABILITY -0.2219
-4.4790    CAPABLE -0.2219
-4.4790    CAPACITY -0.2219
-4.4790    CAPITAL -0.2219
-4.4790    CAPTAIN -0.2219
-4.4790    CAPTURE -0.2219
-4.4790    CAR -0.2219
-4.4790    CARBOHYDRATE -0.2219
-4.4790    CARBON -0.2219
-4.4790    CARD -0.2219
-4.1779    CARE -0.2219
-4.4790    CAREER -0.2219
-4.4790    CAREFUL -0.2219
-4.4790    CAREFULLY -0.2219
-4.4790    CARGO -0.2219
-4.4790    CARPET -0.2219
-4.4790    CARRIER -0.2219
-4.4790    CARROT -0.2219
-4.4790    CARRY -0.2219
-4.4790    CART -0.2219
-4.4790    CARTOON -0.2219
-4.4790    CARVE -0.2219
-4.1779    CASE -0.2219
-4.4790    CASH -0.2219
-4.4790    CASINO -0.2219
-4.1779    CAST -0.2219
-4.4790    CASUAL -0.2219
-4.4790    CASUALTY -0.2219
-4.4790    CAT -0.2219
-4.4790    CATALOG -0.2219
-4.1779    CATCH -0.2219
-4.4790    CATEGORY -0.2219
-4.1779    CATHOLIC -0.2219
-4.4790    CATTLE -0.2219
-4.1779    CAUSE -0.2219
-4.4790    CAVE -0.2219
-4.4790    CEASE -0.2219
-4.4790    CEILING -0.2219
-4.4790    CELEBRATE -0.2219
-4.4790    CELEBRATION -0.2219
-4.4790    CELEBRITY -0.2219
-4.4790    CELL -0.2219
-4.4790    CEMETERY -0.2219
-4.4790    CENTER -0.2219
-4.4790    CENTRAL -0.2219
-4.4790    CENTURY -0.2219
-4.4790    CEO -0.2219
-4.4790    CEREMONY -0.2219
-4.4790    CERTAIN -0.2219
-4.4790    CERTAINLY -0.2219
-4.4790    CHAIN -0.2219
-4.4790    CHAIR -0.2219
-4.4790    CHAIRMAN -0.2219
-4.1779    CHALLENGE -0.2219
-4.4790    CHAMBER -0.2219
-4.4790    CHAMPION -0.2219
-4.4790    CHAMPIONSHIP -0.2219
-4.4790    CHANCE -0.2219
-4.1779    CHANGE -0.2219
-4.4790    CHANGING -0.2219
-4.4790    CHANNEL -0.2219
-4.4790    CHAOS -0.2219
-4.4790    CHAPTER -0.2219
-4.4790    CHARACTER -0.2219
-4.4790    CHARACTERISTIC -0.2219
-4.4790    CHARACTERIZE -0.2219
-4.0018    CHARGE -0.2219
-4.4790    CHARITY -0.2219
-4.4790    CHARM -0.2219
-4.4790    CHART -0.2219
-4.4790    CHARTER -0.2219
-4.4790    CHASE -0.2219
-4.4790    CHEAP -0.2219
-4.4790    CHEAT -0.2219
-4.1779    CHECK -0.2219
-4.4790    CHEEK -0.2219
-4.4790    CHEER -0.2219
-4.4790    CHEESE -0.2219
-4.4790    CHEF -0.2219
-4.1779    CHEMICAL -0.2219
-4.4790    CHEMISTRY -0.2219
-4.4790    CHEST -0.2219
-4.4790    CHEW -0.2219
-4.4790    CHICKEN -0.2219
-4.1779    CHIEF -0.2219
-4.4790    CHILD -0.2219
-4.4790    CHILDHOOD -0.2219
-4.4790    CHILL -0.2219
-4.4790    CHIN -0.2219
-4.4790    CHINESE -0.2219
-4.4790    CHIP -0.2219
-4.4790    CHOCOLATE -0.2219
-4.4790    CHOICE -0.2219
-4.4790    CHOLESTEROL -0.2219
-4.4790    CHOOSE -0.2219
-4.4790    CHOP -0.2219
-4.1779    CHRISTIAN -0.2219
-4.4790    CHRISTIANITY -0.2219
-4.4790    CHRISTMAS -0.2219
-4.4790    CHRONIC -0.2219
-4.4790    CHUNK -0.2219
-4.4790    CHURCH -0.2219
-4.4790    CIGARETTE -0.2219
-4.1779    CIRCLE -0.2219
-4.4790    CIRCUIT -0.2219
-4.4790    CIRCUMSTANCE -0.2219
-4.4790    CITE -0.2219
-4.4790    CITIZEN -0.2219
-4.4790    CITIZENSHIP -0.2219
-4.4790    CITY -0.2219
-4.4790    CIVIC -0.2219
-4.4790    CIVIL -0.2219
-4.1779    CIVILIAN -0.2219
-4.4790    CIVILIZATION -0.2219
-4.1779    CLAIM -0.2219
-4.4790    CLASS -0.2219
-4.4790    CLASSIC -0.2219
-4.4790    CLASSICAL -0.2219
-4.4790    CLASSIFY -0.2219
-4.4790    CLASSROOM -0.2219
-4.4790    CLAY -0.2219
-4.1779    CLEAN -0.2219
-4.1779    CLEAR -0.2219
-4.4790    CLEARLY -0.2219
-4.4790    CLERK -0.2219
-4.4790    CLICK -0.2219
-4.4790    CLIENT -0.2219
-4.4790    CLIFF -0.2219
-4.4790    CLIMATE -0.2219
-4.4790    CLIMB -0.2219
-4.4790    CLING -0.2219
-4.4790    CLINIC -0.2219
-4.4790    CLINICAL -0.2219
-4.4790    CLIP -0.2219
-4.4790    CLOCK -0.2219
-4.0018    CLOSE -0.2219
-4.4790    CLOSED -0.2219
-4.4790    CLOSELY -0.2219
-4.4790    CLOSER -0.2219
-4.4790    CLOSEST -0.2219
-4.4790    CLOSET -0.2219
-4.4790    CLOTH -0.2219
-4.4790    CLOTHES -0.2219
-4.4790    CLOTHING -0.2219
-4.4790    CLOUD -0.2219
-4.4790    CLUB -0.2219
-4.4790    CLUE -0.2219
-4.4790    CLUSTER -0.2219
-4.1779    COACH -0.2219
-4.4790    COAL -0.2219
-4.4790    COALITION -0.2219
-4.4790    COAST -0.2219
-4.4790    COASTAL -0.2219
-4.4790    COAT -0.2219
-4.4790    COCAINE -0.2219
-4.4790    CODE -0.2219
-4.4790    COFFEE -0.2219
-4.4790    COGNITIVE -0.2219
-4.4790    COIN -0.2219
-4.1779    COLD -0.2219
-4.4790    COLLABORATION -0.2219
-4.1779    COLLAPSE -0.2219
-4.4790    COLLAR -0.2219
-4.4790    COLLEAGUE -0.2219
-4.4790    COLLECT -0.2219
-4.4790    COLLECTION -0.2219
-4.4790    COLLECTIVE -0.2219
-4.4790    COLLECTOR -0.2219
-4.4790    COLLEGE -0.2219
-4.4790    COLONIAL -0.2219
-4.4790    COLONY -0.2219
-4.1779    COLOR -0.2219
-4.4790    COLORFUL -0.2219
-4.4790    COLUMN -0.2219
-4.4790    COLUMNIST -0.2219
-4.4790    COMBAT -0.2219
-4.4790    COMBINATION -0.2219
-4.4790    COMBINE -0.2219
-4.4790    COMBINED -0.2219
-4.4790    COME -0.2219
-4.4790    COMEDY -0.2219
-4.4790    COMFORT -0.2219
-4.4790    COMFORTABLE -0.2219
-4.4790    COMING -0.2219
-4.1779    COMMAND -0.2219
-4.4790    COMMANDER -0.2219
-4.1779    COMMENT -0.2219
-4.4790    COMMERCIAL -0.2219
-4.4790    COMMISSION -0.2219
-4.4790    COMMISSIONER -0.2219
-4.4790    COMMIT -0.2219
-4.4790    COMMITMENT -0.2219
-4.4790    COMMITTEE -0.2219
-4.4790    COMMODITY -0.2219
-4.4790    COMMON -0.2219
-4.4790    COMMONLY -0.2219
-4.4790    COMMUNICATE -0.2219
-4.4790    COMMUNICATION -0.2219
-4.4790    COMMUNITY -0.2219
-4.4790    COMPANION -0.2219
-4.4790    COMPANY -0.2219
-4.4790    COMPARABLE -0.2219
-4.4790    COMPARE -0.2219
-4.4790    COMPARISON -0.2219
-4.4790    COMPEL -0.2219
-4.4790    COMPELLING -0.2219
-4.4790    COMPENSATION -0.2219
-4.4790    COMPETE -0.2219
-4.4790    COMPETITION -0.2219
-4.4790    COMPETITIVE -0.2219
-4.4790    COMPETITOR -0.2219
-4.4790    COMPLAIN -0.2219
-4.4790    COMPLAINT -0.2219
-4.1779    COMPLETE -0.2219
-4.4790    COMPLETELY -0.2219
-4.1779    COMPLEX -0.2219
-4.4790    COMPLEXITY -0.2219
-4.4790    COMPLIANCE -0.2219
-4.4790    COMPLICATED -0.2219
-4.4790    COMPLY -0.2219
-4.4790    COMPONENT -0.2219
-4.4790    COMPOSE -0.2219
-4.4790    COMPOSITION -0.2219
-4.4790    COMPOUND -0.2219
-4.4790    COMPREHENSIVE -0.2219
-4.4790    COMPRISE -0.2219
-4.1779    COMPROMISE -0.2219
-4.4790    COMPUTER -0.2219
-4.4790    CONCEDE -0.2219
-4.4790    CONCEIVE -0.2219
-4.4790    CONCENTRATE -0.2219
-4.4790    CONCENTRATION -0.2219
-4.4790    CONCEPT -0.2219
-4.4790    CONCEPTION -0.2219
-4.1779    CONCERN -0.2219
-4.4790    CONCERNED -0.2219
-4.4790    CONCERNING -0.2219
-4.4790    CONCERT -0.2219
-4.4790    CONCLUDE -0.2219
-4.4790    CONCLUSION -0.2219
-4.4790    CONCRETE -0.2219
-4.4790    CONDEMN -0.2219
-4.4790    CONDITION -0.2219
-4.1779    CONDUCT -0.2219
-4.4790    CONFERENCE -0.2219
-4.4790    CONFESS -0.2219
-4.4790    CONFESSION -0.2219
-4.4790    CONFIDENCE -0.2219
-4.4790    CONFIDENT -0.2219
-4.4790    CONFIRM -0.2219
-4.4790    CONFLICT -0.2219
-4.4790    CONFRONT -0.2219
-4.4790    CONFRONTATION -0.2219
-4.4790    CONFUSE -0.2219
-4.4790    CONFUSION -0.2219
-4.4790    CONGRESS -0.2219
-4.4790    CONGRESSIONAL -0.2219
-4.4790    CONNECT -0.2219
-4.4790    CONNECTION -0.2219
-4.4790    CONSCIENCE -0.2219
-4.4790    CONSCIOUS -0.2219
-4.4790    CONSCIOUSNESS -0.2219
-4.4790    CONSECUTIVE -0.2219
-4.4790    CONSENSUS -0.2219
-4.4790    CONSENT -0.2219
-4.4790    CONSEQUENCE -0.2219
-4.4790    CONSEQUENTLY -0.2219
-4.4790    CONSERVATION -0.2219
-4.1779    CONSERVATIVE -0.2219
-4.4790    CONSIDER -0.2219
-4.4790    CONSIDERABLE -0.2219
-4.4790    CONSIDERABLY -0.2219
-4.4790    CONSIDERATION -0.2219
-4.4790    CONSIST -0.2219
-4.4790    CONSISTENT -0.2219
-4.4790    CONSISTENTLY -0.2219
-4.4790    CONSPIRACY -0.2219
-4.4790    CONSTANT -0.2219
-4.4790    CONSTANTLY -0.2219
-4.4790    CONSTITUTE -0.2219
-4.4790    CONSTITUTION -0.2219
-4.4790    CONSTITUTIONAL -0.2219
-4.4790    CONSTRAINT -0.2219
-4.4790    CONSTRUCT -0.2219
-4.4790    CONSTRUCTION -0.2219
-4.4790    CONSULT -0.2219
-4.4790    CONSULTANT -0.2219
-4.4790    CONSUME -0.2219
-4.4790    CONSUMER -0.2219
-4.4790    CONSUMPTION -0.2219
-4.1779    CONTACT -0.2219
-4.4790    CONTAIN -0.2219
-4.4790    CONTAINER -0.2219
-4.4790    CONTEMPLATE -0.2219
-4.4790    CONTEMPORARY -0.2219
-4.4790    CONTEND -0.2219
-4.1779    CONTENT -0.2219
-4.4790    CONTEST -0.2219
-4.4790    CONTEXT -0.2219
-4.4790    CONTINENT -0.2219
-4.4790    CONTINUE -0.2219
-4.4790    CONTINUED -0.2219
-4.4790    CONTINUING -0.2219
-4.4790    CONTINUOUS -0.2219
-4.4790    CONTRACT -0.2219
-4.4790    CONTRACTOR -0.2219
-4.4790    CONTRAST -0.2219
-4.4790    CONTRIBUTE -0.2219
-4.4790    CONTRIBUTION -0.2219
-4.4790    CONTRIBUTOR -0.2219
-4.1779    CONTROL -0.2219
-4.4790    CONTROVERSIAL -0.2219
-4.4790    CONTROVERSY -0.2219
-4.4790    CONVENIENCE -0.2219
-4.4790    CONVENTION -0.2219
-4.4790    CONVENTIONAL -0.2219
-4.4790    CONVERSATION -0.2219
-4.4790    CONVERSION -0.2219
-4.4790    CONVERT -0.2219
-4.4790    CONVEY -0.2219
-4.4790    CONVICT -0.2219
-4.4790    CONVICTION -0.2219
-4.4790    CONVINCE -0.2219
-4.4790    CONVINCED -0.2219
-4.1779    COOK -0.2219
-4.4790    COOKIE -0.2219
-4.4790    COOKING -0.2219
-4.1779    COOL -0.2219
-4.4790    COOPERATE -0.2219
-4.4790    COOPERATION -0.2219
-4.4790    COOPERATIVE -0.2219
-4.4790    COORDINATE -0.2219
-4.4790    COORDINATOR -0.2219
-4.4790    COP -0.2219
-4.4790    COPE -0.2219
-4.1779    COPY -0.2219
-4.4790    CORD -0.2219
-4.4790    CORE -0.2219
-4.4790    CORN -0.2219
-4.4790    CORNER -0.2219
-4.4790    CORPORATE -0.2219
-4.4790    CORPORATION -0.2219
-4.1779    CORRECT -0.2219
-4.4790    CORRECTLY -0.2219
-4.4790    CORRELATION -0.2219
-4.4790    CORRESPONDENT -0.2219
-4.4790    CORRIDOR -0.2219
-4.4790    CORRUPTION -0.2219
-4.1779    COST -0.2219
-4.4790    COSTLY -0.2219
-4.4790    COSTUME -0.2219
-4.4790    COTTAGE -0.2219
-4.4790    COTTON -0.2219
-4.4790    COUCH -0.2219
-4.4790    COULD -0.2219
-4.4790    COUNCIL -0.2219
-4.4790    COUNSEL -0.2219
-4.4790    COUNSELING -0.2219
-4.4790    COUNSELOR -0.2219
-4.1779    COUNT -0.2219
-4.1779    COUNTER -0.2219
-4.4790    COUNTERPART -0.2219
-4.4790    COUNTRY -0.2219
-4.4790    COUNTY -0.2219
-4.4790    COUP -0.2219
-4.4790    COUPLE -0.2219
-4.4790    COURAGE -0.2219
-4.1779    COURSE -0.2219
-4.4790    COURT -0.2219
-4.4790    COURTROOM -0.2219
-4.4790    COUSIN -0.2219
-4.1779    COVER -0.2219
-4.4790    COVERAGE -0.2219
-4.4790    COW -0.2219
-4.1779    CRACK -0.2219
-4.4790    CRAFT -0.2219
-4.1779    CRASH -0.2219
-4.4790    CRAWL -0.2219
-4.4790    CRAZY -0.2219
-4.4790    CREAM -0.2219
-4.4790    CREATE -0.2219
-4.4790    CREATION -0.2219
-4.4790    CREATIVE -0.2219
-4.4790    CREATIVITY -0.2219
-4.4790    CREATURE -0.2219
-4.4790    CREDIBILITY -0.2219
-4.1779    CREDIT -0.2219
-4.4790    CREW -0.2219
-4.4790    CRIME -0.2219
-4.1779    CRIMINAL -0.2219
-4.4790    CRISIS -0.2219
-4.4790    CRITERIA -0.2219
-4.4790    CRITIC -0.2219
-4.4790    CRITICAL -0.2219
-4.4790    CRITICISM -0.2219
-4.4790    CRITICIZE -0.2219
-4.4790    CROP -0.2219
-4.1779    CROSS -0.2219
-4.1779    CROWD -0.2219
-4.4790    CROWDED -0.2219
-4.4790    CRUCIAL -0.2219
-4.4790    CRUEL -0.2219
-4.4790    CRUISE -0.2219
-4.4790    CRUSH -0.2219
-4.1779    CRY -0.2219
-4.4790    CRYSTAL -0.2219
-4.4790    CUBAN -0.2219
-4.4790    CUE -0.2219
-4.4790    CULTURAL -0.2219
-4.4790    CULTURE -0.2219
-4.4790    CUP -0.2219
-4.1779    CURE -0.2219
-4.4790    CURIOSITY -0.2219
-4.4790    CURIOUS -0.2219
-4.4790    CURRENCY -0.2219
-4.4790    CURRENT -0.2219
-4.4790    CURRENTLY -0.2219
-4.4790    CURRICULUM -0.2219
-4.4790    CURTAIN -0.2219
-4.4790    CURVE -0.2219
-4.4790    CUSTODY -0.2219
-4.4790    CUSTOM -0.2219
-4.4790    CUSTOMER -0.2219
-4.1779    CUT -0.2219
-4.4790    CUTE -0.2219
-4.4790    CYCLE -0.2219
-4.4790    DAD -0.2219
-4.1779    DAILY -0.2219
-4.4790    DAM -0.2219
-4.1779    DAMAGE -0.2219
-4.4790    DAMN -0.2219
-4.1779    DANCE -0.2219
-4.4790    DANCER -0.2219
-4.4790    DANCING -0.2219
-4.4790    DANGER -0.2219
-4.4790    DANGEROUS -0.2219
-4.4790    DARE -0.2219
-4.1779    DARK -0.2219
-4.4790    DARKNESS -0.2219
-4.4790    DATA -0.2219
-4.4790    DATABASE -0.2219
-4.1779    DATE -0.2219
-4.4790    DAUGHTER -0.2219
-4.4790    DAWN -0.2219
-4.4790    DAY -0.2219
-4.4790    DEAD -0.2219
-4.4790    DEADLINE -0.2219
-4.4790    DEADLY -0.2219
-4.1779    DEAL -0.2219
-4.4790    DEALER -0.2219
-4.4790    DEAR -0.2219
-4.4790    DEATH -0.2219
-4.1779    DEBATE -0.2219
-4.4790    DEBRIS -0.2219
-4.4790    DEBT -0.2219
-4.4790    DEBUT -0.2219
-4.4790    DECADE -0.2219
-4.4790    DECENT -0.2219
-4.4790    DECIDE -0.2219
-4.4790    DECISION -0.2219
-4.4790    DECK -0.2219
-4.4790    DECLARE -0.2219
-4.1779    DECLINE -0.2219
-4.4790    DECORATE -0.2219
-4.4790    DECREASE -0.2219
-4.4790    DEDICATE -0.2219
-4.4790    DEEM -0.2219
-4.1779    DEEP -0.2219
-4.4790    DEEPLY -0.2219
-4.4790    DEER -0.2219
-4.1779    DEFEAT -0.2219
-4.4790    DEFEND -0.2219
-4.4790    DEFENDANT -0.2219
-4.4790    DEFENDER -0.2219
-4.4790    DEFENSE -0.2219
-4.4790    DEFENSIVE -0.2219
-4.4790    DEFICIT -0.2219
-4.4790    DEFINE -0.2219
-4.4790    DEFINITELY -0.2219
-4.4790    DEFINITION -0.2219
-4.4790    DEGREE -0.2219
-4.1779    DELAY -0.2219
-4.4790    DELIBERATELY -0.2219
-4.4790    DELICATE -0.2219
-4.4790    DELIGHT -0.2219
-4.4790    DELIVER -0.2219
-4.4790    DELIVERY -0.2219
-4.1779    DEMAND -0.2219
-4.4790    DEMOCRACY -0.2219
-4.4790    DEMOCRAT -0.2219
-4.4790    DEMOCRATIC -0.2219
-4.4790    DEMOGRAPHIC -0.2219
-4.4790    DEMONSTRATE -0.2219
-4.4790    DEMONSTRATION -0.2219
-4.4790    DENIAL -0.2219
-4.4790    DENSE -0.2219
-4.4790    DENSITY -0.2219
-4.4790    DENY -0.2219
-4.4790    DEPART -0.2219
-4.4790    DEPARTMENT -0.2219
-4.4790    DEPARTURE -0.2219
-4.4790    DEPEND -0.2219
-4.4790    DEPENDENT -0.2219
-4.4790    DEPENDING -0.2219
-4.4790    DEPICT -0.2219
-4.4790    DEPLOY -0.2219
-4.4790    DEPOSIT -0.2219
-4.4790    DEPRESSED -0.2219
-4.4790    DEPRESSION -0.2219
-4.4790    DEPTH -0.2219
-4.4790    DEPUTY -0.2219
-4.4790    DERIVE -0.2219
-4.4790    DESCEND -0.2219
-4.4790    DESCRIBE -0.2219
-4.4790    DESCRIPTION -0.2219
-4.4790    DESERT -0.2219
-4.4790    DESERVE -0.2219
-4.1779    DESIGN -0.2219
-4.4790    DESIGNER -0.2219
-4.1779    DESIRE -0.2219
-4.4790    DESK -0.2219
-4.4790    DESPERATE -0.2219
-4.4790    DESPERATELY -0.2219
-4.4790    DESPITE -0.2219
-4.4790    DESSERT -0.2219
-4.4790    DESTINATION -0.2219
-4.4790    DESTROY -0.2219
-4.4790    DESTRUCTION -0.2219
-4.4790    DETAIL -0.2219
-4.4790    DETAILED -0.2219
-4.4790    DETECT -0.2219
-4.4790    DETECTIVE -0.2219
-4.4790    DETERMINATION -0.2219
-4.4790    DETERMINE -0.2219
-4.4790    DEVASTATING -0.2219
-4.4790    DEVELOP -0.2219
-4.4790    DEVELOPER -0.2219
-4.4790    DEVELOPING -0.2219
-4.4790    DEVELOPMENT -0.2219
-4.4790    DEVELOPMENTAL -0.2219
-4.4790    DEVICE -0.2219
-4.4790    DEVIL -0.2219
-4.4790    DEVOTE -0.2219
-4.4790    DIABETES -0.2219
-4.4790    DIAGNOSE -0.2219
-4.4790    DIAGNOSIS -0.2219
-4.4790    DIALOGUE -0.2219
-4.4790    DIAMOND -0.2219
-4.4790    DIARY -0.2219
-4.4790    DICTATE -0.2219
-4.4790    DIE -0.2219
-4.4790    DIET -0.2219
-4.4790    DIFFER -0.2219
-4.4790    DIFFERENCE -0.2219
-4.4790    DIFFERENT -0.2219
-4.4790    DIFFERENTLY -0.2219
-4.4790    DIFFICULT -0.2219
-4.4790    DIFFICULTY -0.2219
-4.4790    DIG -0.2219
-4.4790    DIGITAL -0.2219
-4.4790    DIGNITY -0.2219
-4.4790    DILEMMA -0.2219
-4.4790    DIMENSION -0.2219
-4.4790    DIMINISH -0.2219
-4.4790    DINING -0.2219
-4.4790    DINNER -0.2219
-4.4790    DIP -0.2219
-4.4790    DIPLOMAT -0.2219
-4.4790    DIPLOMATIC -0.2219
-4.1779    DIRECT -0.2219
-4.4790    DIRECTION -0.2219
-4.4790    DIRECTLY -0.2219
-4.4790    DIRECTOR -0.2219
-4.4790    DIRT -0.2219
-4.4790    DIRTY -0.2219
-4.4790    DISABILITY -0.2219
-4.4790    DISABLED -0.2219
-4.4790    DISAGREE -0.2219
-4.4790    DISAPPEAR -0.2219
-4.4790    DISAPPOINTED -0.2219
-4.4790    DISAPPOINTMENT -0.2219
-4.4790    DISASTER -0.2219
-4.4790    DISC -0.2219
-4.4790    DISCIPLINE -0.2219
-4.4790    DISCLOSE -0.2219
-4.4790    DISCOUNT -0.2219
-4.4790    DISCOURAGE -0.2219
-4.4790    DISCOURSE -0.2219
-4.4790    DISCOVER -0.2219
-4.4790    DISCOVERY -0.2219
-4.4790    DISCRIMINATION -0.2219
-4.4790    DISCUSS -0.2219
-4.4790    DISCUSSION -0.2219
-4.4790    DISEASE -0.2219
-4.4790    DISH -0.2219
-4.4790    DISK -0.2219
-4.4790    DISMISS -0.2219
-4.4790    DISORDER -0.2219
-4.1779    DISPLAY -0.2219
-4.4790    DISPUTE -0.2219
-4.4790    DISSOLVE -0.2219
-4.4790    DISTANCE -0.2219
-4.4790    DISTANT -0.2219
-4.4790    DISTINCT -0.2219
-4.4790    DISTINCTION -0.2219
-4.4790    DISTINCTIVE -0.2219
-4.4790    DISTINGUISH -0.2219
-4.4790    DISTRACT -0.2219
-4.4790    DISTRIBUTE -0.2219
-4.4790    DISTRIBUTION -0.2219
-4.4790    DISTRICT -0.2219
-4.4790    DISTURB -0.2219
-4.4790    DISTURBING -0.2219
-4.4790    DIVERSE -0.2219
-4.4790    DIVERSITY -0.2219
-4.4790    DIVIDE -0.2219
-4.4790    DIVINE -0.2219
-4.4790    DIVISION -0.2219
-4.1779    DIVORCE -0.2219
-4.4790    DNA -0.2219
-4.4790    DO -0.2219
-4.4790    DOCK -0.2219
-4.4790    DOCTOR -0.2219
-4.4790    DOCTRINE -0.2219
-4.1779    DOCUMENT -0.2219
-4.4790    DOCUMENTARY -0.2219
-4.4790    DOG -0.2219
-4.4790    DOLL -0.2219
-4.4790    DOMAIN -0.2219
-4.4790    DOMESTIC -0.2219
-4.4790    DOMINANT -0.2219
-4.4790    DOMINATE -0.2219
-4.4790    DONATE -0.2219
-4.4790    DONATION -0.2219
-4.4790    DONOR -0.2219
-4.4790    DOOR -0.2219
-4.4790    DOORWAY -0.2219
-4.4790    DOSE -0.2219
-4.4790    DOT -0.2219
-4.1779    DOUBLE -0.2219
-4.1779    DOUBT -0.2219
-4.4790    DOUGH -0.2219
-4.1779    DOWN -0.2219
-4.1779    DOWNTOWN -0.2219
-4.4790    DOZEN -0.2219
-4.1779    DRAFT -0.2219
-4.4790    DRAG -0.2219
-4.4790    DRAIN -0.2219
-4.4790    DRAMA -0.2219
-4.4790    DRAMATIC -0.2219
-4.4790    DRAMATICALLY -0.2219
-4.4790    DRAW -0.2219
-4.4790    DRAWER -0.2219
-4.4790    DRAWING -0.2219
-4.1779    DREAM -0.2219
-4.1779    DRESS -0.2219
-4.4790    DRIED -0.2219
-4.4790    DRIFT -0.2219
-4.4790    DRILL -0.2219
-4.1779    DRINK -0.2219
-4.4790    DRINKING -0.2219
-4.1779    DRIVE -0.2219
-4.4790    DRIVER -0.2219
-4.4790    DRIVEWAY -0.2219
-4.4790    DRIVING -0.2219
-4.1779    DROP -0.2219
-4.4790    DROWN -0.2219
-4.4790    DRUG -0.2219
-4.4790    DRUM -0.2219
-4.4790    DRUNK -0.2219
-4.1779    DRY -0.2219
-4.4790    DUCK -0.2219
-4.1779    DUE -0.2219
-4.4790    DUMB -0.2219
-4.4790    DUMP -0.2219
-4.4790    DURING -0.2219
-4.4790    DUST -0.2219
-4.4790    DUTCH -0.2219
-4.4790    DUTY -0.2219
-4.4790    DYING -0.2219
-4.4790    DYNAMIC -0.2219
-4.4790    DYNAMICS -0.2219
-4.4790    E-MAIL -0.2219
-4.1779    EACH -0.2219
-4.4790    EAGER -0.2219
-4.4790    EAR -0.2219
-4.1779    EARLY -0.2219
-4.4790    EARN -0.2219
-4.4790    EARNINGS -0.2219
-4.4790    EARTH -0.2219
-4.4790    EARTHQUAKE -0.2219
-4.1779    EASE -0.2219
-4.4790    EASILY -0.2219
-4.4790    EAST -0.2219
-4.4790    EASTERN -0.2219
-4.1779    EASY -0.2219
-4.4790    EAT -0.2219
-4.4790    EATING -0.2219
-4.4790    ECHO -0.2219
-4.4790    ECOLOGICAL -0.2219
-4.4790    ECONOMIC -0.2219
-4.4790    ECONOMICALLY -0.2219
-4.4790    ECONOMICS -0.2219
-4.4790    ECONOMIST -0.2219
-4.4790    ECONOMY -0.2219
-4.4790    ECOSYSTEM -0.2219
-4.4790    EDGE -0.2219
-4.4790    EDIT -0.2219
-4.4790    EDITION -0.2219
-4.4790    EDITOR -0.2219
-4.4790    EDUCATE -0.2219
-4.4790    EDUCATION -0.2219
-4.4790    EDUCATIONAL -0.2219
-4.4790    EDUCATOR -0.2219
-4.4790    EFFECT -0.2219
-4.4790    EFFECTIVE -0.2219
-4.4790    EFFECTIVELY -0.2219
-4.4790    EFFECTIVENESS -0.2219
-4.4790    EFFICIENCY -0.2219
-4.4790    EFFICIENT -0.2219
-4.4790    EFFORT -0.2219
-4.4790    EGG -0.2219
-4.4790    EGO -0.2219
-4.4790    EIGHT -0.2219
-4.4790    EIGHTH -0.2219
-4.1779    EITHER -0.2219
-4.4790    ELABORATE -0.2219
-4.4790    ELBOW -0.2219
-4.4790    ELDER -0.2219
-4.4790    ELDERLY -0.2219
-4.4790    ELECT -0.2219
-4.4790    ELECTION -0.2219
-4.4790    ELECTRIC -0.2219
-4.4790    ELECTRICAL -0.2219
-4.4790    ELECTRICITY -0.2219
-4.4790    ELECTRONIC -0.2219
-4.4790    ELECTRONICS -0.2219
-4.4790    ELEGANT -0.2219
-4.4790    ELEMENT -0.2219
-4.4790    ELEMENTARY -0.2219
-4.4790    ELEPHANT -0.2219
-4.4790    ELEVATOR -0.2219
-4.4790    ELEVEN -0.2219
-4.4790    ELIGIBLE -0.2219
-4.4790    ELIMINATE -0.2219
-4.4790    ELITE -0.2219
-4.4790    ELSE -0.2219
-4.4790    ELSEWHERE -0.2219
-4.4790    EMBARRASSED -0.2219
-4.4790    EMBRACE -0.2219
-4.4790    EMERGE -0.2219
-4.4790    EMERGENCY -0.2219
-4.4790    EMERGING -0.2219
-4.4790    EMISSION -0.2219
-4.4790    EMOTION -0.2219
-4.4790    EMOTIONAL -0.2219
-4.4790    EMOTIONALLY -0.2219
-4.4790    EMPHASIS -0.2219
-4.4790    EMPHASIZE -0.2219
-4.4790    EMPIRE -0.2219
-4.4790    EMPLOY -0.2219
-4.4790    EMPLOYEE -0.2219
-4.4790    EMPLOYER -0.2219
-4.4790    EMPLOYMENT -0.2219
-4.4790    EMPTY -0.2219
-4.4790    ENABLE -0.2219
-4.4790    ENACT -0.2219
-4.1779    ENCOUNTER -0.2219
-4.4790    ENCOURAGE -0.2219
-4.4790    ENCOURAGING -0.2219
-4.1779    END -0.2219
-4.4790    ENDLESS -0.2219
-4.4790    ENDORSE -0.2219
-4.4790    ENDURE -0.2219
-4.4790    ENEMY -0.2219
-4.4790    ENERGY -0.2219
-4.4790    ENFORCE -0.2219
-4.4790    ENFORCEMENT -0.2219
-4.4790    ENGAGE -0.2219
-4.4790    ENGAGEMENT -0.2219
-4.4790    ENGINE -0.2219
-4.4790    ENGINEER -0.2219
-4.4790    ENGINEERING -0.2219
-4.1779    ENGLISH -0.2219
-4.4790    ENHANCE -0.2219
-4.4790    ENJOY -0.2219
-4.4790    ENORMOUS -0.2219
-4.1779    ENOUGH -0.2219
-4.4790    ENROLL -0.2219
-4.4790    ENSURE -0.2219
-4.4790    ENTER -0.2219
-4.4790    ENTERPRISE -0.2219
-4.4790    ENTERTAINMENT -0.2219
-4.4790    ENTHUSIASM -0.2219
-4.4790    ENTIRE -0.2219
-4.4790    ENTIRELY -0.2219
-4.4790    ENTITLE -0.2219
-4.4790    ENTITY -0.2219
-4.4790    ENTRANCE -0.2219
-4.4790    ENTREPRENEUR -0.2219
-4.4790    ENTRY -0.2219
-4.4790    ENVELOPE -0.2219
-4.4790    ENVIRONMENT -0.2219
-4.4790    ENVIRONMENTAL -0.2219
-4.4790    ENVISION -0.2219
-4.4790    EPIDEMIC -0.2219
-4.4790    EPISODE -0.2219
-4.4790    EQUAL -0.2219
-4.4790    EQUALITY -0.2219
-4.4790    EQUALLY -0.2219
-4.4790    EQUATION -0.2219
-4.4790    EQUIP -0.2219
-4.4790    EQUIPMENT -0.2219
-4.4790    EQUITY -0.2219
-4.4790    EQUIVALENT -0.2219
-4.4790    ERA -0.2219
-4.4790    ERROR -0.2219
-4.1779    ESCAPE -0.2219
-4.4790    ESPECIALLY -0.2219
-4.4790    ESSAY -0.2219
-4.4790    ESSENCE -0.2219
-4.4790    ESSENTIAL -0.2219
-4.4790    ESSENTIALLY -0.2219
-4.4790    ESTABLISH -0.2219
-4.4790    ESTABLISHMENT -0.2219
-4.4790    ESTATE -0.2219
-4.1779    ESTIMATE -0.2219
-4.4790    ESTIMATED -0.2219
-4.4790    ETC -0.2219
-4.4790    ETHICAL -0.2219
-4.4790    ETHICS -0.2219
-4.4790    ETHNIC -0.2219
-4.1779    EUROPEAN -0.2219
-4.4790    EVALUATE -0.2219
-4.4790    EVALUATION -0.2219
-4.1779    EVEN -0.2219
-4.4790    EVENING -0.2219
-4.4790    EVENT -0.2219
-4.4790    EVENTUALLY -0.2219
-4.4790    EVER -0.2219
-4.4790    EVERY -0.2219
-4.4790    EVERYBODY -0.2219
-4.4790    EVERYDAY -0.2219
-4.4790    EVERYONE -0.2219
-4.4790    EVERYTHING -0.2219
-4.4790    EVERYWHERE -0.2219
-4.4790    EVIDENCE -0.2219
-4.4790    EVIDENT -0.2219
-4.1779    EVIL -0.2219
-4.4790    EVOLUTION -0.2219
-4.4790    EVOLVE -0.2219
-4.4790    EXACT -0.2219
-4.4790    EXACTLY -0.2219
-4.4790    EXAM -0.2219
-4.4790    EXAMINATION -0.2219
-4.4790    EXAMINE -0.2219
-4.4790    EXAMPLE -0.2219
-4.4790    EXCEED -0.2219
-4.4790    EXCELLENT -0.2219
-4.1779    EXCEPT -0.2219
-4.4790    EXCEPTION -0.2219
-4.4790    EXCESSIVE -0.2219
-4.1779    EXCHANGE -0.2219
-4.4790    EXCITED -0.2219
-4.4790    EXCITEMENT -0.2219
-4.4790    EXCITING -0.2219
-4.4790    EXCLUDE -0.2219
-4.4790    EXCLUSIVE -0.2219
-4.4790    EXCLUSIVELY -0.2219
-4.1779    EXCUSE -0.2219
-4.4790    EXECUTE -0.2219
-4.4790    EXECUTION -0.2219
-4.4790    EXECUTIVE -0.2219
-4.1779    EXERCISE -0.2219
-4.4790    EXHAUST -0.2219
-4.1779    EXHIBIT -0.2219
-4.4790    EXHIBITION -0.2219
-4.4790    EXIST -0.2219
-4.4790    EXISTENCE -0.2219
-4.4790    EXISTING -0.2219
-4.4790    EXIT -0.2219
-4.4790    EXOTIC -0.2219
-4.4790    EXPAND -0.2219
-4.4790    EXPANSION -0.2219
-4.4790    EXPECT -0.2219
-4.4790    EXPECTATION -0.2219
-4.4790    EXPECTED -0.2219
-4.4790    EXPEDITION -0.2219
-4.4790    EXPENSE -0.2219
-4.4790    EXPENSIVE -0.2219
-4.1779    EXPERIENCE -0.2219
-4.4790    EXPERIENCED -0.2219
-4.4790    EXPERIMENT -0.2219
-4.4790    EXPERIMENTAL -0.2219
-4.4790    EXPERT -0.2219
-4.4790    EXPERTISE -0.2219
-4.4790    EXPLAIN -0.2219
-4.4790    EXPLANATION -0.2219
-4.4790    EXPLICIT -0.2219
-4.4790    EXPLODE -0.2219
-4.4790    EXPLOIT -0.2219
-4.4790    EXPLORATION -0.2219
-4.4790    EXPLORE -0.2219
-4.4790    EXPLOSION -0.2219
-4.4790    EXPORT -0.2219
-4.4790    EXPOSE -0.2219
-4.4790    EXPOSURE -0.2219
-4.4790    EXPRESS -0.2219
-4.4790    EXPRESSION -0.2219
-4.4790    EXTEND -0.2219
-4.4790    EXTENDED -0.2219
-4.4790    EXTENSION -0.2219
-4.4790    EXTENSIVE -0.2219
-4.4790    EXTENT -0.2219
-4.4790    EXTERNAL -0.2219
-4.4790    EXTRA -0.2219
-4.4790    EXTRAORDINARY -0.2219
-4.4790    EXTREME -0.2219
-4.4790    EXTREMELY -0.2219
-4.4790    EYE -0.2219
-4.4790    EYEBROW -0.2219
-4.4790    FABRIC -0.2219
-4.1779    FACE -0.2219
-4.4790    FACILITATE -0.2219
-4.4790    FACILITY -0.2219
-4.4790    FACT -0.2219
-4.4790    FACTOR -0.2219
-4.4790    FACTORY -0.2219
-4.4790    FACULTY -0.2219
-4.4790    FADE -0.2219
-4.4790    FAIL -0.2219
-4.4790    FAILURE -0.2219
-4.4790    FAINT -0.2219
-4.4790    FAIR -0.2219
-4.4790    FAIRLY -0.2219
-4.4790    FAITH -0.2219
-4.1779    FALL -0.2219
-4.4790    FALSE -0.2219
-4.4790    FAME -0.2219
-4.4790    FAMILIAR -0.2219
-4.4790    FAMILY -0.2219
-4.4790    FAMOUS -0.2219
-4.4790    FAN -0.2219
-4.4790    FANTASTIC -0.2219
-4.4790    FANTASY -0.2219
-4.0018    FAR -0.2219
-4.4790    FARE -0.2219
-4.4790    FARM -0.2219
-4.4790    FARMER -0.2219
-4.4790    FASCINATING -0.2219
-4.4790    FASHION -0.2219
-4.1779    FAST -0.2219
-4.4790    FASTER -0.2219
-4.1779    FAT -0.2219
-4.4790    FATAL -0.2219
-4.4790    FATE -0.2219
-4.4790    FATHER -0.2219
-4.4790    FATIGUE -0.2219
-4.4790    FAULT -0.2219
-4.0018    FAVOR -0.2219
-4.4790    FAVORABLE -0.2219
-4.1779    FAVORITE -0.2219
-4.1779    FEAR -0.2219
-4.4790    FEATHER -0.2219
-4.1779    FEATURE -0.2219
-4.4790    FEDERAL -0.2219
-4.4790    FEE -0.2219
-4.4790    FEED -0.2219
-4.4790    FEEDBACK -0.2219
-4.1779    FEEL -0.2219
-4.4790    FEELING -0.2219
-4.1779    FELLOW -0.2219
-4.1779    FEMALE -0.2219
-4.4790    FEMINIST -0.2219
-4.4790    FENCE -0.2219
-4.4790    FESTIVAL -0.2219
-4.4790    FEVER -0.2219
-4.4790    FEW -0.2219
-4.4790    FEWER -0.2219
-4.4790    FIBER -0.2219
-4.4790    FICTION -0.2219
-4.4790    FIELD -0.2219
-4.4790    FIERCE -0.2219
-4.4790    FIFTEEN -0.2219
-4.4790    FIFTH -0.2219
-4.4790    FIFTY -0.2219
-4.1779    FIGHT -0.2219
-4.4790    FIGHTER -0.2219
-4.4790    FIGHTING -0.2219
-4.1779    FIGURE -0.2219
-4.1779    FILE -0.2219
-4.4790    FILL -0.2219
-4.4790    FILM -0.2219
-4.4790    FILTER -0.2219
-4.1779    FINAL -0.2219
-4.4790    FINALLY -0.2219
-4.1779    FINANCE -0.2219
-4.4790    FINANCIAL -0.2219
-4.4790    FIND -0.2219
-4.4790    FINDING -0.2219
-4.4790    FINE -0.2219
-4.4790    FINGER -0.2219
-4.1779    FINISH -0.2219
-4.1779    FIRE -0.2219
-4.1779    FIRM -0.2219
-4.4790    FIRMLY -0.2219
-4.1779    FIRST -0.2219
-4.4790    FISCAL -0.2219
-4.1779    FISH -0.2219
-4.4790    FISHERMAN -0.2219
-4.4790    FISHING -0.2219
-4.4790    FIST -0.2219
-4.1779    FIT -0.2219
-4.4790    FITNESS -0.2219
-4.4790    FIVE -0.2219
-4.4790    FIX -0.2219
-4.4790    FIXED -0.2219
-4.4790    FLAG -0.2219
-4.4790    FLAME -0.2219
-4.1779    FLASH -0.2219
-4.4790    FLAT -0.2219
-4.4790    FLAVOR -0.2219
-4.4790    FLEE -0.2219
-4.4790    FLEET -0.2219
-4.4790    FLESH -0.2219
-4.4790    FLEXIBILITY -0.2219
-4.4790    FLEXIBLE -0.2219
-4.4790    FLIGHT -0.2219
-4.4790    FLIP -0.2219
-4.4790    FLOAT -0.2219
-4.1779    FLOOD -0.2219
-4.4790    FLOOR -0.2219
-4.4790    FLOUR -0.2219
-4.1779    FLOW -0.2219
-4.4790    FLOWER -0.2219
-4.4790    FLUID -0.2219
-4.1779    FLY -0.2219
-4.4790    FLYING -0.2219
-4.1779    FOCUS -0.2219
-4.4790    FOG -0.2219
-4.4790    FOLD -0.2219
-4.4790    FOLK -0.2219
-4.4790    FOLLOW -0.2219
-4.4790    FOLLOWING -0.2219
-4.4790    FOOD -0.2219
-4.4790    FOOL -0.2219
-4.4790    FOOT -0.2219
-4.4790    FOOTBALL -0.2219
-4.1779    FOR -0.2219
-4.4790    FORBID -0.2219
-4.1779    FORCE -0.2219
-4.4790    FOREHEAD -0.2219
-4.4790    FOREIGN -0.2219
-4.4790    FOREIGNER -0.2219
-4.4790    FOREST -0.2219
-4.4790    FOREVER -0.2219
-4.4790    FORGET -0.2219
-4.4790    FORGIVE -0.2219
-4.4790    FORK -0.2219
-4.1779    FORM -0.2219
-4.4790    FORMAL -0.2219
-4.4790    FORMAT -0.2219
-4.4790    FORMATION -0.2219
-4.4790    FORMER -0.2219
-4.4790    FORMERLY -0.2219
-4.4790    FORMULA -0.2219
-4.4790    FORTH -0.2219
-4.4790    FORTUNATELY -0.2219
-4.4790    FORTUNE -0.2219
-4.4790    FORTY -0.2219
-4.4790    FORUM -0.2219
-4.4790    FORWARD -0.2219
-4.4790    FOSTER -0.2219
-4.4790    FOUND -0.2219
-4.4790    FOUNDATION -0.2219
-4.4790    FOUNDER -0.2219
-4.4790    FOUR -0.2219
-4.4790    FOURTH -0.2219
-4.4790    FRACTION -0.2219
-4.4790    FRAGILE -0.2219
-4.4790    FRAGMENT -0.2219
-4.1779    FRAME -0.2219
-4.4790    FRAMEWORK -0.2219
-4.4790    FRANCHISE -0.2219
-4.4790    FRANKLY -0.2219
-4.4790    FRAUD -0.2219
-4.1779    FREE -0.2219
-4.4790    FREEDOM -0.2219
-4.4790    FREELY -0.2219
-4.4790    FREEZE -0.2219
-4.1779    FRENCH -0.2219
-4.4790    FREQUENCY -0.2219
-4.4790    FREQUENT -0.2219
-4.4790    FREQUENTLY -0.2219
-4.4790    FRESH -0.2219
-4.4790    FRESHMAN -0.2219
-4.4790    FRIEND -0.2219
-4.4790    FRIENDLY -0.2219
-4.4790    FRIENDSHIP -0.2219
-4.4790    FROM -0.2219
-4.0018    FRONT -0.2219
-4.4790    FRONTIER -0.2219
-4.4790    FROWN -0.2219
-4.4790    FROZEN -0.2219
-4.4790    FRUIT -0.2219
-4.4790    FRUSTRATE -0.2219
-4.4790    FRUSTRATION -0.2219
-4.4790    FUCKING -0.2219
-4.4790    FUEL -0.2219
-4.4790    FULL -0.2219
-4.4790    FULL-TIME -0.2219
-4.4790    FULLY -0.2219
-4.1779    FUN -0.2219
-4.1779    FUNCTION -0.2219
-4.4790    FUNCTIONAL -0.2219
-4.1779    FUND -0.2219
-4.4790    FUNDAMENTAL -0.2219
-4.4790    FUNDING -0.2219
-4.4790    FUNERAL -0.2219
-4.4790    FUNNY -0.2219
-4.4790    FUR -0.2219
-4.4790    FURNITURE -0.2219
-4.4790    FURTHERMORE -0.2219
-4.1779    FUTURE -0.2219
-4.1779    GAIN -0.2219
-4.4790    GALAXY -0.2219
-4.4790    GALLERY -0.2219
-4.4790    GAME -0.2219
-4.4790    GANG -0.2219
-4.4790    GAP -0.2219
-4.4790    GARAGE -0.2219
-4.4790    GARBAGE -0.2219
-4.4790    GARDEN -0.2219
-4.4790    GARLIC -0.2219
-4.4790    GAS -0.2219
-4.4790    GASOLINE -0.2219
-4.4790    GATE -0.2219
-4.4790    GATHER -0.2219
-4.4790    GATHERING -0.2219
-4.4790    GAY -0.2219
-4.1779    GAZE -0.2219
-4.4790    GEAR -0.2219
-4.4790    GENDER -0.2219
-4.4790    GENE -0.2219
-4.0018    GENERAL -0.2219
-4.4790    GENERALLY -0.2219
-4.4790    GENERATE -0.2219
-4.4790    GENERATION -0.2219
-4.4790    GENEROUS -0.2219
-4.4790    GENETIC -0.2219
-4.4790    GENIUS -0.2219
-4.4790    GENRE -0.2219
-4.4790    GENTLE -0.2219
-4.4790    GENTLEMAN -0.2219
-4.4790    GENTLY -0.2219
-4.4790    GENUINE -0.2219
-4.1779    GERMAN -0.2219
-4.4790    GESTURE -0.2219
-4.4790    GET -0.2219
-4.4790    GHOST -0.2219
-4.1779    GIANT -0.2219
-4.4790    GIFT -0.2219
-4.4790    GIFTED -0.2219
-4.4790    GIRL -0.2219
-4.4790    GIRLFRIEND -0.2219
-4.4790    GIVE -0.2219
-4.4790    GIVEN -0.2219
-4.4790    GLAD -0.2219
-4.1779    GLANCE -0.2219
-4.4790    GLASS -0.2219
-4.4790    GLIMPSE -0.2219
-4.4790    GLOBAL -0.2219
-4.4790    GLOBE -0.2219
-4.4790    GLORY -0.2219
-4.4790    GLOVE -0.2219
-4.4790    GO -0.2219
-4.4790    GOAL -0.2219
-4.4790    GOAT -0.2219
-4.4790    GOD -0.2219
-4.4790    GOLD -0.2219
-4.4790    GOLDEN -0.2219
-4.4790    GOLF -0.2219
-4.1779    GOOD -0.2219
-4.4790    GOVERN -0.2219
-4.4790    GOVERNMENT -0.2219
-4.4790    GOVERNOR -0.2219
-4.4790    GRAB -0.2219
-4.4790    GRACE -0.2219
-4.4790    GRADE -0.2219
-4.4790    GRADUALLY -0.2219
-4.1779    GRADUATE -0.2219
-4.4790    GRADUATION -0.2219
-4.4790    GRAIN -0.2219
-4.4790    GRAND -0.2219
-4.4790    GRANDCHILD -0.2219
-4.4790    GRANDFATHER -0.2219
-4.4790    GRANDMOTHER -0.2219
-4.4790    GRANDPARENT -0.2219
-4.1779    GRANT -0.2219
-4.4790    GRAPE -0.2219
-4.4790    GRASP -0.2219
-4.4790    GRASS -0.2219
-4.4790    GRATEFUL -0.2219
-4.4790    GRAVE -0.2219
-4.4790    GRAVITY -0.2219
-4.4790    GRAY -0.2219
-4.4790    GREAT -0.2219
-4.4790    GREATEST -0.2219
-4.4790    GREATLY -0.2219
-4.4790    GREEK -0.2219
-4.1779    GREEN -0.2219
-4.4790    GREET -0.2219
-4.4790    GRIEF -0.2219
-4.1779    GRIN -0.2219
-4.4790    GRIP -0.2219
-4.4790    GROCERY -0.2219
-4.4790    GROSS -0.2219
-4.4790    GROUND -0.2219
-4.4790    GROUP -0.2219
-4.4790    GROW -0.2219
-4.4790    GROWING -0.2219
-4.4790    GROWTH -0.2219
-4.1779    GUARANTEE -0.2219
-4.1779    GUARD -0.2219
-4.4790    GUESS -0.2219
-4.4790    GUEST -0.2219
-4.4790    GUIDANCE -0.2219
-4.1779    GUIDE -0.2219
-4.4790    GUIDELINE -0.2219
-4.4790    GUILT -0.2219
-4.4790    GUILTY -0.2219
-4.4790    GUITAR -0.2219
-4.4790    GUN -0.2219
-4.4790    GUT -0.2219
-4.4790    GUY -0.2219
-4.4790    GYM -0.2219
-4.4790    HA -0.2219
-4.4790    HABIT -0.2219
-4.4790    HABITAT -0.2219
-4.4790    HAIR -0.2219
-4.1779    HALF -0.2219
-4.4790    HALFWAY -0.2219
-4.4790    HALL -0.2219
-4.4790    HALLWAY -0.2219
-4.1779    HAND -0.2219
-4.4790    HANDFUL -0.2219
-4.1779    HANDLE -0.2219
-4.4790    HANDSOME -0.2219
-4.4790    HANG -0.2219
-4.4790    HAPPEN -0.2219
-4.4790    HAPPILY -0.2219
-4.4790    HAPPINESS -0.2219
-4.4790    HAPPY -0.2219
-4.4790    HARASSMENT -0.2219
-4.1779    HARD -0.2219
-4.4790    HARDLY -0.2219
-4.4790    HARDWARE -0.2219
-4.1779    HARM -0.2219
-4.4790    HARMONY -0.2219
-4.4790    HARSH -0.2219
-4.1779    HARVEST -0.2219
-4.4790    HAT -0.2219
-4.4790    HATE -0.2219
-4.4790    HAUL -0.2219
-4.4790    HAVE -0.2219
-4.4790    HAY -0.2219
-4.4790    HAZARD -0.2219
-4.4790    HE -0.2219
-4.1779    HEAD -0.2219
-4.4790    HEADACHE -0.2219
-4.4790    HEADLINE -0.2219
-4.4790    HEADQUARTERS -0.2219
-4.4790    HEAL -0.2219
-4.4790    HEALTH -0.2219
-4.4790    HEALTHY -0.2219
-4.4790    HEAR -0.2219
-4.4790    HEARING -0.2219
-4.4790    HEART -0.2219
-4.1779    HEAT -0.2219
-4.4790    HEAVEN -0.2219
-4.4790    HEAVILY -0.2219
-4.4790    HEAVY -0.2219
-4.4790    HEEL -0.2219
-4.4790    HEIGHT -0.2219
-4.4790    HELICOPTER -0.2219
-4.4790    HELL -0.2219
-4.4790    HELLO -0.2219
-4.4790    HELMET -0.2219
-4.1779    HELP -0.2219
-4.4790    HELPFUL -0.2219
-4.4790    HENCE -0.2219
-4.1779    HER -0.2219
-4.4790    HERB -0.2219
-4.4790    HERE -0.2219
-4.4790    HERITAGE -0.2219
-4.4790    HERO -0.2219
-4.4790    HERS -0.2219
-4.4790    HERSELF -0.2219
-4.4790    HESITATE -0.2219
-4.4790    HEY -0.2219
-4.4790    HI -0.2219
-4.4790    HIDDEN -0.2219
-4.4790    HIDE -0.2219
-4.1779    HIGH -0.2219
-4.4790    HIGH-TECH -0.2219
-4.4790    HIGHLIGHT -0.2219
-4.4790    HIGHLY -0.2219
-4.4790    HIGHWAY -0.2219
-4.4790    HIKE -0.2219
-4.4790    HILL -0.2219
-4.4790    HIM -0.2219
-4.4790    HIMSELF -0.2219
-4.4790    HINT -0.2219
-4.4790    HIP -0.2219
-4.4790    HIRE -0.2219
-4.1779    HIS -0.2219
-4.4790    HISPANIC -0.2219
-4.4790    HISTORIAN -0.2219
-4.4790    HISTORIC -0.2219
-4.4790    HISTORICAL -0.2219
-4.4790    HISTORICALLY -0.2219
-4.4790    HISTORY -0.2219
-4.1779    HIT -0.2219
-4.4790    HOCKEY -0.2219
-4.1779    HOLD -0.2219
-4.4790    HOLE -0.2219
-4.4790    HOLIDAY -0.2219
-4.4790    HOLY -0.2219
-4.1779    HOME -0.2219
-4.4790    HOMELAND -0.2219
-4.4790    HOMELESS -0.2219
-4.4790    HOMEWORK -0.2219
-4.4790    HONEST -0.2219
-4.4790    HONESTLY -0.2219
-4.4790    HONEY -0.2219
-4.1779    HONOR -0.2219
-4.1779    HOOK -0.2219
-4.1779    HOPE -0.2219
-4.4790    HOPEFULLY -0.2219
-4.4790    HORIZON -0.2219
-4.4790    HORMONE -0.2219
-4.4790    HORN -0.2219
-4.4790    HORRIBLE -0.2219
-4.4790    HORROR -0.2219
-4.4790    HORSE -0.2219
-4.4790    HOSPITAL -0.2219
-4.1779    HOST -0.2219
-4.4790    HOSTAGE -0.2219
-4.4790    HOSTILE -0.2219
-4.4790    HOT -0.2219
-4.4790    HOTEL -0.2219
-4.4790    HOUR -0.2219
-4.1779    HOUSE -0.2219
-4.4790    HOUSEHOLD -0.2219
-4.4790    HOUSING -0.2219
-4.4790    HOW -0.2219
-4.4790    HOWEVER -0.2219
-4.4790    HUG -0.2219
-4.4790    HUGE -0.2219
-4.4790    HUH -0.2219
-4.1779    HUMAN -0.2219
-4.4790    HUMANITY -0.2219
-4.4790    HUMOR -0.2219
-4.4790    HUNDRED -0.2219
-4.4790    HUNGER -0.2219
-4.4790    HUNGRY -0.2219
-4.4790    HUNT -0.2219
-4.4790    HUNTER -0.2219
-4.4790    HUNTING -0.2219
-4.4790    HURRICANE -0.2219
-4.4790    HURRY -0.2219
-4.4790    HURT -0.2219
-4.4790    HUSBAND -0.2219
-4.4790    HYPOTHESIS -0.2219
-4.4790    I -0.2219
-4.4790    ICE -0.2219
-4.4790    ICON -0.2219
-4.4790    IDEA -0.2219
-4.1779    IDEAL -0.2219
-4.4790    IDENTICAL -0.2219
-4.4790    IDENTIFICATION -0.2219
-4.4790    IDENTIFY -0.2219
-4.4790    IDENTITY -0.2219
-4.4790    IDEOLOGICAL -0.2219
-4.4790    IDEOLOGY -0.2219
-4.4790    IE -0.2219
-4.4790    IF -0.2219
-4.4790    IGNORE -0.2219
-4.4790    ILL -0.2219
-4.4790    ILLEGAL -0.2219
-4.4790    ILLNESS -0.2219
-4.4790    ILLUSION -0.2219
-4.4790    ILLUSTRATE -0.2219
-4.4790    IMAGE -0.2219
-4.4790    IMAGINATION -0.2219
-4.4790    IMAGINE -0.2219
-4.4790    IMMEDIATE -0.2219
-4.4790    IMMEDIATELY -0.2219
-4.4790    IMMIGRANT -0.2219
-4.4790    IMMIGRATION -0.2219
-4.4790    IMMUNE -0.2219
-4.4790    IMPACT -0.2219
-4.4790    IMPLEMENT -0.2219
-4.4790    IMPLEMENTATION -0.2219
-4.4790    IMPLICATION -0.2219
-4.4790    IMPLY -0.2219
-4.4790    IMPORT -0.2219
-4.4790    IMPORTANCE -0.2219
-4.4790    IMPORTANT -0.2219
-4.4790    IMPORTANTLY -0.2219
-4.4790    IMPOSE -0.2219
-4.4790    IMPOSSIBLE -0.2219
-4.4790    IMPRESS -0.2219
-4.4790    IMPRESSION -0.2219
-4.4790    IMPRESSIVE -0.2219
-4.4790    IMPROVE -0.2219
-4.4790    IMPROVED -0.2219
-4.4790    IMPROVEMENT -0.2219
-4.4790    IMPULSE -0.2219
-4.0018    IN -0.2219
-4.4790    INCENTIVE -0.2219
-4.4790    INCIDENT -0.2219
-4.4790    INCLUDE -0.2219
-4.4790    INCLUDING -0.2219
-4.4790    INCOME -0.2219
-4.4790    INCORPORATE -0.2219
-4.1779    INCREASE -0.2219
-4.4790    INCREASED -0.2219
-4.4790    INCREASING -0.2219
-4.4790    INCREASINGLY -0.2219
-4.4790    INCREDIBLE -0.2219
-4.4790    INCREDIBLY -0.2219
-4.4790    INDEED -0.2219
-4.4790    INDEPENDENCE -0.2219
-4.4790    INDEPENDENT -0.2219
-4.4790    INDEX -0.2219
-4.1779    INDIAN -0.2219
-4.4790    INDICATE -0.2219
-4.4790    INDICATION -0.2219
-4.4790    INDICATOR -0.2219
-4.4790    INDIGENOUS -0.2219
-4.1779    INDIVIDUAL -0.2219
-4.4790    INDUSTRIAL -0.2219
-4.4790    INDUSTRY -0.2219
-4.4790    INEVITABLE -0.2219
-4.4790    INEVITABLY -0.2219
-4.4790    INFANT -0.2219
-4.4790    INFECTION -0.2219
-4.4790    INFLATION -0.2219
-4.1779    INFLUENCE -0.2219
-4.4790    INFLUENTIAL -0.2219
-4.4790    INFORM -0.2219
-4.4790    INFORMAL -0.2219
-4.4790    INFORMATION -0.2219
-4.4790    INFRASTRUCTURE -0.2219
-4.4790    INGREDIENT -0.2219
-4.4790    INHERENT -0.2219
-4.4790    INHERIT -0.2219
-4.4790    INITIAL -0.2219
-4.4790    INITIALLY -0.2219
-4.4790    INITIATE -0.2219
-4.4790    INITIATIVE -0.2219
-4.4790    INJURE -0.2219
-4.4790    INJURY -0.2219
-4.4790    INMATE -0.2219
-4.4790    INNER -0.2219
-4.4790    INNOCENT -0.2219
-4.4790    INNOVATION -0.2219
-4.4790    INNOVATIVE -0.2219
-4.4790    INPUT -0.2219
-4.4790    INQUIRY -0.2219
-4.4790    INSECT -0.2219
-4.4790    INSERT -0.2219
-4.0018    INSIDE -0.2219
-4.4790    INSIGHT -0.2219
-4.4790    INSIST -0.2219
-4.4790    INSPECTION -0.2219
-4.4790    INSPECTOR -0.2219
-4.4790    INSPIRATION -0.2219
-4.4790    INSPIRE -0.2219
-4.4790    INSTALL -0.2219
-4.4790    INSTALLATION -0.2219
-4.4790    INSTANCE -0.2219
-4.1779    INSTANT -0.2219
-4.4790    INSTANTLY -0.2219
-4.1779    INSTEAD -0.2219
-4.4790    INSTINCT -0.2219
-4.4790    INSTITUTION -0.2219
-4.4790    INSTITUTIONAL -0.2219
-4.4790    INSTRUCT -0.2219
-4.4790    INSTRUCTION -0.2219
-4.4790    INSTRUCTIONAL -0.2219
-4.4790    INSTRUCTOR -0.2219
-4.4790    INSTRUMENT -0.2219
-4.4790    INSURANCE -0.2219
-4.4790    INTACT -0.2219
-4.4790    INTEGRATE -0.2219
-4.4790    INTEGRATED -0.2219
-4.4790    INTEGRATION -0.2219
-4.4790    INTEGRITY -0.2219
-4.1779    INTELLECTUAL -0.2219
-4.4790    INTELLIGENCE -0.2219
-4.4790    INTELLIGENT -0.2219
-4.4790    INTEND -0.2219
-4.4790    INTENSE -0.2219
-4.4790    INTENSITY -0.2219
-4.4790    INTENT -0.2219
-4.4790    INTENTION -0.2219
-4.4790    INTERACT -0.2219
-4.4790    INTERACTION -0.2219
-4.4790    INTEREST -0.2219
-4.4790    INTERESTED -0.2219
-4.4790    INTERESTING -0.2219
-4.4790    INTERFERE -0.2219
-4.1779    INTERIOR -0.2219
-4.4790    INTERNAL -0.2219
-4.4790    INTERNATIONAL -0.2219
-4.4790    INTERNET -0.2219
-4.4790    INTERPRET -0.2219
-4.4790    INTERPRETATION -0.2219
-4.4790    INTERRUPT -0.2219
-4.4790    INTERVAL -0.2219
-4.4790    INTERVENTION -0.2219
-4.1779    INTERVIEW -0.2219
-4.4790    INTIMATE -0.2219
-4.4790    INTO -0.2219
-4.4790    INTRODUCE -0.2219
-4.4790    INTRODUCTION -0.2219
-4.4790    INVADE -0.2219
-4.4790    INVASION -0.2219
-4.4790    INVENT -0.2219
-4.4790    INVENTION -0.2219
-4.4790    INVENTORY -0.2219
-4.4790    INVEST -0.2219
-4.4790    INVESTIGATE -0.2219
-4.4790    INVESTIGATION -0.2219
-4.4790    INVESTIGATOR -0.2219
-4.4790    INVESTMENT -0.2219
-4.4790    INVESTOR -0.2219
-4.4790    INVISIBLE -0.2219
-4.4790    INVITATION -0.2219
-4.4790    INVITE -0.2219
-4.4790    INVOLVE -0.2219
-4.4790    INVOLVED -0.2219
-4.4790    INVOLVEMENT -0.2219
-4.4790    IRAQI -0.2219
-4.4790    IRISH -0.2219
-4.4790    IRON -0.2219
-4.4790    IRONICALLY -0.2219
-4.4790    IRONY -0.2219
-4.4790    ISLAM -0.2219
-4.4790    ISLAMIC -0.2219
-4.4790    ISLAND -0.2219
-4.4790    ISOLATE -0.2219
-4.4790    ISOLATED -0.2219
-4.4790    ISOLATION -0.2219
-4.1779    ISRAELI -0.2219
-4.1779    ISSUE -0.2219
-4.4790    IT -0.2219
-4.4790    ITALIAN -0.2219
-4.4790    ITEM -0.2219
-4.4790    ITS -0.2219
-4.4790    ITSELF -0.2219
-4.4790    JACKET -0.2219
-4.4790    JAIL -0.2219
-4.1779    JAPANESE -0.2219
-4.4790    JAR -0.2219
-4.4790    JAW -0.2219
-4.4790    JAZZ -0.2219
-4.4790    JEANS -0.2219
-4.4790    JET -0.2219
-4.4790    JEW -0.2219
-4.4790    JEWELRY -0.2219
-4.4790    JEWISH -0.2219
-4.4790    JOB -0.2219
-4.4790    JOIN -0.2219
-4.4790    JOINT -0.2219
-4.1779    JOKE -0.2219
-4.4790    JOURNAL -0.2219
-4.4790    JOURNALISM -0.2219
-4.4790    JOURNALIST -0.2219
-4.4790    JOURNEY -0.2219
-4.4790    JOY -0.2219
-4.1779    JUDGE -0.2219
-4.4790    JUDGMENT -0.2219
-4.4790    JUDICIAL -0.2219
-4.4790    JUICE -0.2219
-4.1779    JUMP -0.2219
-4.4790    JUNGLE -0.2219
-4.4790    JUNIOR -0.2219
-4.4790    JURISDICTION -0.2219
-4.4790    JUROR -0.2219
-4.4790    JURY -0.2219
-4.1779    JUST -0.2219
-4.4790    JUSTICE -0.2219
-4.4790    JUSTIFY -0.2219
-4.4790    KEEP -0.2219
-4.1779    KEY -0.2219
-4.4790    KICK -0.2219
-4.1779    KID -0.2219
-4.4790    KILL -0.2219
-4.4790    KILLER -0.2219
-4.4790    KILLING -0.2219
-4.1779    KIND -0.2219
-4.4790    KING -0.2219
-4.4790    KINGDOM -0.2219
-4.1779    KISS -0.2219
-4.4790    KIT -0.2219
-4.4790    KITCHEN -0.2219
-4.4790    KNEE -0.2219
-4.4790    KNEEL -0.2219
-4.4790    KNIFE -0.2219
-4.4790    KNOCK -0.2219
-4.4790    KNOW -0.2219
-4.4790    KNOWLEDGE -0.2219
-4.4790    KNOWN -0.2219
-4.4790    KOREAN -0.2219
-4.4790    LAB -0.2219
-4.1779    LABEL -0.2219
-4.4790    LABOR -0.2219
-4.4790    LABORATORY -0.2219
-4.1779    LACK -0.2219
-4.4790    LADDER -0.2219
-4.4790    LADY -0.2219
-4.4790    LAKE -0.2219
-4.4790    LAMP -0.2219
-4.1779    LAND -0.2219
-4.4790    LANDING -0.2219
-4.4790    LANDMARK -0.2219
-4.4790    LANDSCAPE -0.2219
-4.4790    LANE -0.2219
-4.4790    LANGUAGE -0.2219
-4.4790    LAP -0.2219
-4.4790    LARGE -0.2219
-4.4790    LARGELY -0.2219
-4.4790    LASER -0.2219
-4.0018    LAST -0.2219
-4.1779    LATE -0.2219
-4.4790    LATELY -0.2219
-4.1779    LATER -0.2219
-4.4790    LATIN -0.2219
-4.4790    LATTER -0.2219
-4.1779    LAUGH -0.2219
-4.4790    LAUGHTER -0.2219
-4.1779    LAUNCH -0.2219
-4.4790    LAUNDRY -0.2219
-4.4790    LAW -0.2219
-4.4790    LAWMAKER -0.2219
-4.4790    LAWN -0.2219
-4.4790    LAWSUIT -0.2219
-4.4790    LAWYER -0.2219
-4.4790    LAY -0.2219
-4.4790    LAYER -0.2219
-4.1779    LEAD -0.2219
-4.4790    LEADER -0.2219
-4.4790    LEADERSHIP -0.2219
-4.4790    LEADING -0.2219
-4.4790    LEAF -0.2219
-4.4790    LEAGUE -0.2219
-4.4790    LEAN -0.2219
-4.4790    LEAP -0.2219
-4.4790    LEARN -0.2219
-4.4790    LEARNING -0.2219
-4.4790    LEAST -0.2219
-4.4790    LEATHER -0.2219
-4.1779    LEAVE -0.2219
-4.4790    LECTURE -0.2219
-4.4790    LEFT -0.2219
-4.4790    LEG -0.2219
-4.4790    LEGACY -0.2219
-4.4790    LEGAL -0.2219
-4.4790    LEGALLY -0.2219
-4.4790    LEGEND -0.2219
-4.4790    LEGISLATION -0.2219
-4.4790    LEGISLATIVE -0.2219
-4.4790    LEGISLATOR -0.2219
-4.4790    LEGISLATURE -0.2219
-4.4790    LEGITIMATE -0.2219
-4.4790    LEMON -0.2219
-4.4790    LEND -0.2219
-4.4790    LENGTH -0.2219
-4.4790    LENS -0.2219
-4.1779    LESS -0.2219
-4.4790    LESSON -0.2219
-4.4790    LET -0.2219
-4.4790    LETTER -0.2219
-4.1779    LEVEL -0.2219
-4.4790    LIABILITY -0.2219
-4.1779    LIBERAL -0.2219
-4.4790    LIBERTY -0.2219
-4.4790    LIBRARY -0.2219
-4.4790    LICENSE -0.2219
-4.4790    LID -0.2219
-4.1779    LIE -0.2219
-4.4790    LIFE -0.2219
-4.4790    LIFESTYLE -0.2219
-4.4790    LIFETIME -0.2219
-4.4790    LIFT -0.2219
-3.8769    LIGHT -0.2219
-4.4790    LIGHTING -0.2219
-4.4790    LIGHTLY -0.2219
-4.4790    LIGHTNING -0.2219
-3.7800    LIKE -0.2219
-4.4790    LIKELIHOOD -0.2219
-4.1779    LIKELY -0.2219
-4.4790    LIKEWISE -0.2219
-4.4790    LIMB -0.2219
-4.1779    LIMIT -0.2219
-4.4790    LIMITATION -0.2219
-4.4790    LIMITED -0.2219
-4.1779    LINE -0.2219
-4.1779    LINK -0.2219
-4.4790    LION -0.2219
-4.4790    LIP -0.2219
-4.1779    LIQUID -0.2219
-4.1779    LIST -0.2219
-4.4790    LISTEN -0.2219
-4.4790    LISTENER -0.2219
-4.4790    LITERALLY -0.2219
-4.4790    LITERARY -0.2219
-4.4790    LITERATURE -0.2219
-4.0018    LITTLE -0.2219
-4.1779    LIVE -0.2219
-4.4790    LIVER -0.2219
-4.1779    LIVING -0.2219
-4.1779    LOAD -0.2219
-4.4790    LOAN -0.2219
-4.4790    LOBBY -0.2219
-4.4790    LOCAL -0.2219
-4.4790    LOCATE -0.2219
-4.4790    LOCATION -0.2219
-4.1779    LOCK -0.2219
-4.4790    LOG -0.2219
-4.4790    LOGIC -0.2219
-4.4790    LOGICAL -0.2219
-4.4790    LONELY -0.2219
-4.0018    LONG -0.2219
-4.4790    LONG-TERM -0.2219
-4.4790    LONGTIME -0.2219
-4.1779    LOOK -0.2219
-4.4790    LOOP -0.2219
-4.4790    LOOSE -0.2219
-4.4790    LOSE -0.2219
-4.4790    LOSS -0.2219
-4.4790    LOST -0.2219
-4.4790    LOT -0.2219
-4.4790    LOTS -0.2219
-4.1779    LOUD -0.2219
-4.1779    LOVE -0.2219
-4.4790    LOVELY -0.2219
-4.4790    LOVER -0.2219
-4.1779    LOW -0.2219
-4.4790    LOWER -0.2219
-4.4790    LOYAL -0.2219
-4.4790    LOYALTY -0.2219
-4.4790    LUCK -0.2219
-4.4790    LUCKY -0.2219
-4.4790    LUNCH -0.2219
-4.4790    LUNG -0.2219
-4.4790    MACHINE -0.2219
-4.4790    MAD -0.2219
-4.4790    MAGAZINE -0.2219
-4.1779    MAGIC -0.2219
-4.4790    MAGNETIC -0.2219
-4.4790    MAGNITUDE -0.2219
-4.4790    MAIL -0.2219
-4.4790    MAIN -0.2219
-4.4790    MAINLY -0.2219
-4.4790    MAINSTREAM -0.2219
-4.4790    MAINTAIN -0.2219
-4.4790    MAINTENANCE -0.2219
-4.1779    MAJOR -0.2219
-4.4790    MAJORITY -0.2219
-4.4790    MAKE -0.2219
-4.4790    MAKER -0.2219
-4.4790    MAKEUP -0.2219
-4.1779    MALE -0.2219
-4.4790    MALL -0.2219
-4.4790    MAN -0.2219
-4.4790    MANAGE -0.2219
-4.4790    MANAGEMENT -0.2219
-4.4790    MANAGER -0.2219
-4.4790    MANAGING -0.2219
-4.4790    MANDATE -0.2219
-4.4790    MANIPULATE -0.2219
-4.4790    MANNER -0.2219
-4.4790    MANSION -0.2219
-4.4790    MANUAL -0.2219
-4.4790    MANUFACTURER -0.2219
-4.4790    MANUFACTURING -0.2219
-4.4790    MANY -0.2219
-4.4790    MAP -0.2219
-4.4790    MARBLE -0.2219
-4.4790    MARCH -0.2219
-4.4790    MARGIN -0.2219
-4.4790    MARINE -0.2219
-4.1779    MARK -0.2219
-4.4790    MARKER -0.2219
-4.1779    MARKET -0.2219
-4.4790    MARKETING -0.2219
-4.4790    MARKETPLACE -0.2219
-4.4790    MARRIAGE -0.2219
-4.4790    MARRIED -0.2219
-4.4790    MARRY -0.2219
-4.4790    MASK -0.2219
-4.1779    MASS -0.2219
-4.4790    MASSIVE -0.2219
-4.4790    MASTER -0.2219
-4.1779    MATCH -0.2219
-4.4790    MATE -0.2219
-4.4790    MATERIAL -0.2219
-4.4790    MATH -0.2219
-4.4790    MATHEMATICS -0.2219
-4.0018    MATTER -0.2219
-4.4790    MAXIMUM -0.2219
-4.4790    MAY -0.2219
-4.4790    MAYBE -0.2219
-4.4790    MAYOR -0.2219
-4.4790    ME -0.2219
-4.4790    MEAL -0.2219
-4.0018    MEAN -0.2219
-4.4790    MEANING -0.2219
-4.4790    MEANINGFUL -0.2219
-4.4790    MEANTIME -0.2219
-4.4790    MEANWHILE -0.2219
-4.1779    MEASURE -0.2219
-4.4790    MEASUREMENT -0.2219
-4.4790    MEAT -0.2219
-4.4790    MECHANIC -0.2219
-4.4790    MECHANICAL -0.2219
-4.4790    MECHANISM -0.2219
-4.4790    MEDAL -0.2219
-4.4790    MEDIA -0.2219
-4.4790    MEDICAL -0.2219
-4.4790    MEDICATION -0.2219
-4.4790    MEDICINE -0.2219
-4.1779    MEDIUM -0.2219
-4.4790    MEET -0.2219
-4.4790    MEETING -0.2219
-4.4790    MELT -0.2219
-4.4790    MEMBER -0.2219
-4.4790    MEMBERSHIP -0.2219
-4.4790    MEMORY -0.2219
-4.4790    MENTAL -0.2219
-4.4790    MENTALLY -0.2219
-4.1779    MENTION -0.2219
-4.4790    MENTOR -0.2219
-4.4790    MENU -0.2219
-4.4790    MERCHANT -0.2219
-4.4790    MERE -0.2219
-4.4790    MERELY -0.2219
-4.4790    MERIT -0.2219
-4.4790    MESS -0.2219
-4.4790    MESSAGE -0.2219
-4.4790    METAL -0.2219
-4.4790    METAPHOR -0.2219
-4.4790    METER -0.2219
-4.4790    METHOD -0.2219
-4.4790    METROPOLITAN -0.2219
-4.4790    MEXICAN -0.2219
-4.1779    MIDDLE -0.2219
-4.4790    MIDDLE-CLASS -0.2219
-4.4790    MIDNIGHT -0.2219
-4.4790    MIDST -0.2219
-4.4790    MIGHT -0.2219
-4.4790    MIGRATION -0.2219
-4.4790    MILD -0.2219
-4.1779    MILITARY -0.2219
-4.4790    MILK -0.2219
-4.4790    MILL -0.2219
-4.4790    MILLION -0.2219
-4.1779    MIND -0.2219
-4.1779    MINE -0.2219
-4.4790    MINERAL -0.2219
-4.4790    MINIMAL -0.2219
-4.4790    MINIMIZE -0.2219
-4.1779    MINIMUM -0.2219
-4.4790    MINISTER -0.2219
-4.4790    MINISTRY -0.2219
-4.4790    MINOR -0.2219
-4.4790    MINORITY -0.2219
-4.4790    MINUTE -0.2219
-4.4790    MIRACLE -0.2219
-4.4790    MIRROR -0.2219
-4.4790    MISS -0.2219
-4.4790    MISSILE -0.2219
-4.4790    MISSING -0.2219
-4.4790    MISSION -0.2219
-4.4790    MISSIONARY -0.2219
-4.4790    MISTAKE -0.2219
-4.1779    MIX -0.2219
-4.4790    MIXED -0.2219
-4.4790    MIXTURE -0.2219
-4.4790    MM-HMM -0.2219
-4.4790    MOBILE -0.2219
-4.4790    MODE -0.2219
-4.1779    MODEL -0.2219
-4.4790    MODERATE -0.2219
-4.4790    MODERN -0.2219
-4.4790    MODEST -0.2219
-4.4790    MODIFY -0.2219
-4.4790    MOLECULE -0.2219
-4.4790    MOM -0.2219
-4.4790    MOMENT -0.2219
-4.4790    MOMENTUM -0.2219
-4.4790    MONEY -0.2219
-4.1779    MONITOR -0.2219
-4.4790    MONKEY -0.2219
-4.4790    MONSTER -0.2219
-4.4790    MONTH -0.2219
-4.4790    MONTHLY -0.2219
-4.4790    MONUMENT -0.2219
-4.4790    MOOD -0.2219
-4.4790    MOON -0.2219
-4.4790    MORAL -0.2219
-4.1779    MORE -0.2219
-4.4790    MOREOVER -0.2219
-4.4790    MORNING -0.2219
-4.4790    MORTALITY -0.2219
-4.4790    MORTGAGE -0.2219
-4.1779    MOST -0.2219
-4.4790    MOSTLY -0.2219
-4.4790    MOTHER -0.2219
-4.4790    MOTION -0.2219
-4.4790    MOTIVATE -0.2219
-4.4790    MOTIVATION -0.2219
-4.4790    MOTIVE -0.2219
-4.4790    MOTOR -0.2219
-4.4790    MOUNT -0.2219
-4.4790    MOUNTAIN -0.2219
-4.4790    MOUSE -0.2219
-4.4790    MOUTH -0.2219
-4.1779    MOVE -0.2219
-4.4790    MOVEMENT -0.2219
-4.4790    MOVIE -0.2219
-4.4790    MR -0.2219
-4.4790    MRS -0.2219
-4.4790    MS -0.2219
-4.1779    MUCH -0.2219
-4.4790    MUD -0.2219
-4.4790    MULTIPLE -0.2219
-4.4790    MUNICIPAL -0.2219
-4.1779    MURDER -0.2219
-4.4790    MUSCLE -0.2219
-4.4790    MUSEUM -0.2219
-4.4790    MUSHROOM -0.2219
-4.4790    MUSIC -0.2219
-4.4790    MUSICAL -0.2219
-4.4790    MUSICIAN -0.2219
-4.1779    MUSLIM -0.2219
-4.4790    MUST -0.2219
-4.4790    MUTTER -0.2219
-4.4790    MUTUAL -0.2219
-4.4790    MY -0.2219
-4.4790    MYSELF -0.2219
-4.4790    MYSTERIOUS -0.2219
-4.4790    MYSTERY -0.2219
-4.4790    MYTH -0.2219
-4.4790    N'T -0.2219
-4.4790    NAIL -0.2219
-4.4790    NAKED -0.2219
-4.1779    NAME -0.2219
-4.4790    NARRATIVE -0.2219
-4.4790    NARROW -0.2219
-4.4790    NASTY -0.2219
-4.4790    NATION -0.2219
-4.4790    NATIONAL -0.2219
-4.4790    NATIONWIDE -0.2219
-4.4790    NATIVE -0.2219
-4.4790    NATURAL -0.2219
-4.4790    NATURALLY -0.2219
-4.4790    NATURE -0.2219
-4.4790    NAVAL -0.2219
-4.0018    NEAR -0.2219
-4.1779    NEARBY -0.2219
-4.4790    NEARLY -0.2219
-4.4790    NEAT -0.2219
-4.4790    NECESSARILY -0.2219
-4.4790    NECESSARY -0.2219
-4.4790    NECESSITY -0.2219
-4.4790    NECK -0.2219
-4.1779    NEED -0.2219
-4.4790    NEEDLE -0.2219
-4.4790    NEGATIVE -0.2219
-4.4790    NEGOTIATE -0.2219
-4.4790    NEGOTIATION -0.2219
-4.4790    NEIGHBOR -0.2219
-4.4790    NEIGHBORHOOD -0.2219
-4.4790    NEIGHBORING -0.2219
-4.1779    NEITHER -0.2219
-4.4790    NERVE -0.2219
-4.4790    NERVOUS -0.2219
-4.4790    NEST -0.2219
-4.1779    NET -0.2219
-4.4790    NETWORK -0.2219
-4.4790    NEUTRAL -0.2219
-4.4790    NEVER -0.2219
-4.4790    NEVERTHELESS -0.2219
-4.4790    NEW -0.2219
-4.4790    NEWLY -0.2219
-4.4790    NEWS -0.2219
-4.4790    NEWSPAPER -0.2219
-4.1779    NEXT -0.2219
-4.4790    NICE -0.2219
-4.4790    NIGHT -0.2219
-4.4790    NIGHTMARE -0.2219
-4.4790    NINE -0.2219
-3.7800    NO -0.2219
-4.4790    NOBODY -0.2219
-4.4790    NOD -0.2219
-4.4790    NOISE -0.2219
-4.4790    NOMINATION -0.2219
-4.4790    NOMINEE -0.2219
-4.4790    NONE -0.2219
-4.4790    NONETHELESS -0.2219
-4.4790    NONPROFIT -0.2219
-4.4790    NOON -0.2219
-4.4790    NOR -0.2219
-4.4790    NORM -0.2219
-4.4790    NORMAL -0.2219
-4.4790    NORMALLY -0.2219
-4.4790    NORTH -0.2219
-4.4790    NORTHEAST -0.2219
-4.4790    NORTHERN -0.2219
-4.4790    NORTHWEST -0.2219
-4.4790    NOSE -0.2219
-4.1779    NOT -0.2219
-4.1779    NOTE -0.2219
-4.4790    NOTEBOOK -0.2219
-4.4790    NOTHING -0.2219
-4.1779    NOTICE -0.2219
-4.4790    NOTION -0.2219
-4.4790    NOVEL -0.2219
-4.1779    NOW -0.2219
-4.4790    NOWHERE -0.2219
-4.4790    NUCLEAR -0.2219
-4.4790    NUMBER -0.2219
-4.4790    NUMEROUS -0.2219
-4.4790    NURSE -0.2219
-4.4790    NUT -0.2219
-4.4790    NUTRIENT -0.2219
-4.4790    O'CLOCK -0.2219
-4.4790    OAK -0.2219
-4.1779    OBJECT -0.2219
-4.4790    OBJECTION -0.2219
-4.4790    OBJECTIVE -0.2219
-4.4790    OBLIGATION -0.2219
-4.4790    OBSERVATION -0.2219
-4.4790    OBSERVE -0.2219
-4.4790    OBSERVER -0.2219
-4.4790    OBSTACLE -0.2219
-4.4790    OBTAIN -0.2219
-4.4790    OBVIOUS -0.2219
-4.4790    OBVIOUSLY -0.2219
-4.4790    OCCASION -0.2219
-4.4790    OCCASIONAL -0.2219
-4.4790    OCCASIONALLY -0.2219
-4.4790    OCCUPATION -0.2219
-4.4790    OCCUPY -0.2219
-4.4790    OCCUR -0.2219
-4.4790    OCEAN -0.2219
-4.4790    ODD -0.2219
-4.4790    ODDS -0.2219
-4.4790    OF -0.2219
-4.1779    OFF -0.2219
-4.4790    OFFENDER -0.2219
-4.4790    OFFENSE -0.2219
-4.4790    OFFENSIVE -0.2219
-4.1779    OFFER -0.2219
-4.4790    OFFERING -0.2219
-4.4790    OFFICE -0.2219
-4.4790    OFFICER -0.2219
-4.1779    OFFICIAL -0.2219
-4.4790    OFFICIALLY -0.2219
-4.4790    OFTEN -0.2219
-4.4790    OH -0.2219
-4.4790    OIL -0.2219
-4.1779    OK -0.2219
-4.1779    OKAY -0.2219
-4.4790    OLD -0.2219
-4.4790    OLD-FASHIONED -0.2219
-4.4790    OLYMPIC -0.2219
-4.4790    OLYMPICS -0.2219
-4.1779    ON -0.2219
-4.1779    ONCE -0.2219
-4.0018    ONE -0.2219
-4.4790    ONE-THIRD -0.2219
-4.4790    ONGOING -0.2219
-4.4790    ONION -0.2219
-4.1779    ONLINE -0.2219
-4.1779    ONLY -0.2219
-4.4790    ONTO -0.2219
-4.1779    OPEN -0.2219
-4.4790    OPENING -0.2219
-4.4790    OPENLY -0.2219
-4.4790    OPERA -0.2219
-4.4790    OPERATE -0.2219
-4.4790    OPERATING -0.2219
-4.4790    OPERATION -0.2219
-4.4790    OPERATOR -0.2219
-4.4790    OPINION -0.2219
-4.4790    OPPONENT -0.2219
-4.4790    OPPORTUNITY -0.2219
-4.4790    OPPOSE -0.2219
-4.4790    OPPOSED -0.2219
-4.4790    OPPOSITE -0.2219
-4.4790    OPPOSITION -0.2219
-4.4790    OPT -0.2219
-4.4790    OPTIMISTIC -0.2219
-4.4790    OPTION -0.2219
-4.4790    OR -0.2219
-4.4790    ORAL -0.2219
-4.1779    ORANGE -0.2219
-4.4790    ORBIT -0.2219
-4.1779    ORDER -0.2219
-4.4790    ORDINARY -0.2219
-4.4790    ORGAN -0.2219
-4.4790    ORGANIC -0.2219
-4.4790    ORGANISM -0.2219
-4.4790    ORGANIZATION -0.2219
-4.4790    ORGANIZATIONAL -0.2219
-4.4790    ORGANIZE -0.2219
-4.4790    ORGANIZED -0.2219
-4.4790    ORIENTATION -0.2219
-4.4790    ORIGIN -0.2219
-4.4790    ORIGINAL -0.2219
-4.4790    ORIGINALLY -0.2219
-4.0018    OTHER -0.2219
-4.4790    OTHERS -0.2219
-4.4790    OTHERWISE -0.2219
-4.4790    OUGHT -0.2219
-4.4790    OUR -0.2219
-4.4790    OURS -0.2219
-4.4790    OURSELVES -0.2219
-4.1779    OUT -0.2219
-4.4790    OUTCOME -0.2219
-4.4790    OUTDOOR -0.2219
-4.4790    OUTER -0.2219
-4.4790    OUTFIT -0.2219
-4.4790    OUTLET -0.2219
-4.4790    OUTLINE -0.2219
-4.4790    OUTPUT -0.2219
-4.0018    OUTSIDE -0.2219
-4.4790    OUTSIDER -0.2219
-4.4790    OUTSTANDING -0.2219
-4.4790    OVEN -0.2219
-4.1779    OVER -0.2219
-4.1779    OVERALL -0.2219
-4.4790    OVERCOME -0.2219
-4.4790    OVERLOOK -0.2219
-4.4790    OVERNIGHT -0.2219
-4.4790    OVERSEE -0.2219
-4.4790    OVERWHELM -0.2219
-4.4790    OVERWHELMING -0.2219
-4.4790    OWE -0.2219
-4.1779    OWN -0.2219
-4.4790    OWNER -0.2219
-4.4790    OWNERSHIP -0.2219
-4.4790    OXYGEN -0.2219
-4.4790    PACE -0.2219
-4.1779    PACK -0.2219
-4.4790    PACKAGE -0.2219
-4.4790    PAD -0.2219
-4.4790    PAGE -0.2219
-4.4790    PAIN -0.2219
-4.4790    PAINFUL -0.2219
-4.1779    PAINT -0.2219
-4.4790    PAINTER -0.2219
-4.4790    PAINTING -0.2219
-4.4790    PAIR -0.2219
-4.4790    PALACE -0.2219
-4.4790    PALE -0.2219
-4.1779    PALESTINIAN -0.2219
-4.4790    PALM -0.2219
-4.4790    PAN -0.2219
-4.4790    PANEL -0.2219
-4.4790    PANIC -0.2219
-4.4790    PANT -0.2219
-4.4790    PAPER -0.2219
-4.4790    PARADE -0.2219
-4.4790    PARENT -0.2219
-4.4790    PARENTAL -0.2219
-4.4790    PARISH -0.2219
-4.1779    PARK -0.2219
-4.4790    PARKING -0.2219
-4.0018    PART -0.2219
-4.4790    PARTIAL -0.2219
-4.4790    PARTIALLY -0.2219
-4.4790    PARTICIPANT -0.2219
-4.4790    PARTICIPATE -0.2219
-4.4790    PARTICIPATION -0.2219
-4.4790    PARTICLE -0.2219
-4.1779    PARTICULAR -0.2219
-4.4790    PARTICULARLY -0.2219
-4.4790    PARTLY -0.2219
-4.4790    PARTNER -0.2219
-4.4790    PARTNERSHIP -0.2219
-4.4790    PARTY -0.2219
-4.1779    PASS -0.2219
-4.4790    PASSAGE -0.2219
-4.4790    PASSENGER -0.2219
-4.4790    PASSING -0.2219
-4.4790    PASSION -0.2219
-3.8769    PAST -0.2219
-4.4790    PASTA -0.2219
-4.4790    PASTOR -0.2219
-4.4790    PAT -0.2219
-4.4790    PATCH -0.2219
-4.4790    PATENT -0.2219
-4.4790    PATH -0.2219
-4.4790    PATIENCE -0.2219
-4.1779    PATIENT -0.2219
-4.4790    PATROL -0.2219
-4.4790    PATRON -0.2219
-4.4790    PATTERN -0.2219
-4.1779    PAUSE -0.2219
-4.1779    PAY -0.2219
-4.4790    PAYMENT -0.2219
-4.4790    PC -0.2219
-4.4790    PEACE -0.2219
-4.4790    PEACEFUL -0.2219
-4.4790    PEAK -0.2219
-4.4790    PEANUT -0.2219
-4.4790    PEASANT -0.2219
-4.4790    PEEL -0.2219
-4.1779    PEER -0.2219
-4.4790    PEN -0.2219
-4.4790    PENALTY -0.2219
-4.4790    PENCIL -0.2219
-4.4790    PENSION -0.2219
-4.4790    PEOPLE -0.2219
-4.4790    PEPPER -0.2219
-4.4790    PER -0.2219
-4.4790    PERCEIVE -0.2219
-4.4790    PERCEIVED -0.2219
-4.4790    PERCENTAGE -0.2219
-4.4790    PERCEPTION -0.2219
-4.4790    PERFECT -0.2219
-4.4790    PERFECTLY -0.2219
-4.4790    PERFORM -0.2219
-4.4790    PERFORMANCE -0.2219
-4.4790    PERFORMER -0.2219
-4.4790    PERHAPS -0.2219
-4.4790    PERIOD -0.2219
-4.4790    PERMANENT -0.2219
-4.4790    PERMISSION -0.2219
-4.1779    PERMIT -0.2219
-4.4790    PERSIAN -0.2219
-4.4790    PERSIST -0.2219
-4.4790    PERSON -0.2219
-4.4790    PERSONAL -0.2219
-4.4790    PERSONALITY -0.2219
-4.4790    PERSONALLY -0.2219
-4.4790    PERSONNEL -0.2219
-4.4790    PERSPECTIVE -0.2219
-4.4790    PERSUADE -0.2219
-4.4790    PET -0.2219
-4.4790    PHASE -0.2219
-4.4790    PHENOMENON -0.2219
-4.4790    PHILOSOPHICAL -0.2219
-4.4790    PHILOSOPHY -0.2219
-4.4790    PHONE -0.2219
-4.4790    PHOTO -0.2219
-4.1779    PHOTOGRAPH -0.2219
-4.4790    PHOTOGRAPHER -0.2219
-4.4790    PHOTOGRAPHY -0.2219
-4.4790    PHRASE -0.2219
-4.4790    PHYSICAL -0.2219
-4.4790    PHYSICALLY -0.2219
-4.4790    PHYSICIAN -0.2219
-4.4790    PHYSICS -0.2219
-4.4790    PIANO -0.2219
-4.4790    PICK -0.2219
-4.4790    PICKUP -0.2219
-4.1779    PICTURE -0.2219
-4.4790    PIE -0.2219
-4.4790    PIECE -0.2219
-4.4790    PIG -0.2219
-4.1779    PILE -0.2219
-4.4790    PILL -0.2219
-4.4790    PILLOW -0.2219
-4.4790    PILOT -0.2219
-4.4790    PIN -0.2219
-4.4790    PINE -0.2219
-4.4790    PINK -0.2219
-4.4790    PIONEER -0.2219
-4.4790    PIPE -0.2219
-4.4790    PISTOL -0.2219
-4.4790    PIT -0.2219
-4.1779    PITCH -0.2219
-4.4790    PITCHER -0.2219
-4.4790    PIZZA -0.2219
-4.1779    PLACE -0.2219
-4.4790    PLACEMENT -0.2219
-4.1779    PLAIN -0.2219
-4.4790    PLAINTIFF -0.2219
-4.1779    PLAN -0.2219
-4.4790    PLANE -0.2219
-4.4790    PLANET -0.2219
-4.4790    PLANNER -0.2219
-4.4790    PLANNING -0.2219
-4.1779    PLANT -0.2219
-4.4790    PLASTIC -0.2219
-4.4790    PLATE -0.2219
-4.4790    PLATFORM -0.2219
-4.1779    PLAY -0.2219
-4.4790    PLAYER -0.2219
-4.4790    PLAYOFF -0.2219
-4.4790    PLEA -0.2219
-4.4790    PLEAD -0.2219
-4.4790    PLEASANT -0.2219
-4.1779    PLEASE -0.2219
-4.4790    PLEASED -0.2219
-4.4790    PLEASURE -0.2219
-4.4790    PLENTY -0.2219
-4.4790    PLOT -0.2219
-4.4790    PLUNGE -0.2219
-4.4790    PLUS -0.2219
-4.4790    PM -0.2219
-4.4790    POCKET -0.2219
-4.4790    POEM -0.2219
-4.4790    POET -0.2219
-4.4790    POETRY -0.2219
-4.1779    POINT -0.2219
-4.4790    POKE -0.2219
-4.4790    POLE -0.2219
-4.4790    POLICE -0.2219
-4.4790    POLICEMAN -0.2219
-4.4790    POLICY -0.2219
-4.4790    POLITICAL -0.2219
-4.4790    POLITICALLY -0.2219
-4.4790    POLITICIAN -0.2219
-4.4790    POLITICS -0.2219
-4.4790    POLL -0.2219
-4.4790    POLLUTION -0.2219
-4.4790    POND -0.2219
-4.4790    POOL -0.2219
-4.4790    POOR -0.2219
-4.1779    POP -0.2219
-4.4790    POPULAR -0.2219
-4.4790    POPULARITY -0.2219
-4.4790    POPULATION -0.2219
-4.4790    PORCH -0.2219
-4.4790    PORK -0.2219
-4.4790    PORT -0.2219
-4.4790    PORTFOLIO -0.2219
-4.4790    PORTION -0.2219
-4.4790    PORTRAIT -0.2219
-4.4790    PORTRAY -0.2219
-4.4790    POSE -0.2219
-4.1779    POSITION -0.2219
-4.4790    POSITIVE -0.2219
-4.4790    POSSESS -0.2219
-4.4790    POSSESSION -0.2219
-4.4790    POSSIBILITY -0.2219
-4.4790    POSSIBLE -0.2219
-4.4790    POSSIBLY -0.2219
-4.1779    POST -0.2219
-4.4790    POSTER -0.2219
-4.4790    POT -0.2219
-4.4790    POTATO -0.2219
-4.1779    POTENTIAL -0.2219
-4.4790    POTENTIALLY -0.2219
-4.1779    POUND -0.2219
-4.4790    POUR -0.2219
-4.4790    POVERTY -0.2219
-4.4790    POWDER -0.2219
-4.4790    POWER -0.2219
-4.4790    POWERFUL -0.2219
-4.4790    PRACTICAL -0.2219
-4.4790    PRACTICALLY -0.2219
-4.1779    PRACTICE -0.2219
-4.4790    PRACTITIONER -0.2219
-4.1779    PRAISE -0.2219
-4.4790    PRAY -0.2219
-4.4790    PRAYER -0.2219
-4.4790    PREACH -0.2219
-4.4790    PRECIOUS -0.2219
-4.4790    PRECISE -0.2219
-4.4790    PRECISELY -0.2219
-4.4790    PREDATOR -0.2219
-4.4790    PREDICT -0.2219
-4.4790    PREDICTION -0.2219
-4.4790    PREFER -0.2219
-4.4790    PREFERENCE -0.2219
-4.4790    PREGNANCY -0.2219
-4.4790    PREGNANT -0.2219
-4.4790    PRELIMINARY -0.2219
-4.4790    PREMISE -0.2219
-4.4790    PREMIUM -0.2219
-4.4790    PREPARATION -0.2219
-4.4790    PREPARE -0.2219
-4.4790    PRESCRIPTION -0.2219
-4.4790    PRESENCE -0.2219
-4.0018    PRESENT -0.2219
-4.4790    PRESENTATION -0.2219
-4.4790    PRESERVE -0.2219
-4.4790    PRESIDENCY -0.2219
-4.4790    PRESIDENT -0.2219
-4.4790    PRESIDENTIAL -0.2219
-4.1779    PRESS -0.2219
-4.4790    PRESSURE -0.2219
-4.4790    PRESUMABLY -0.2219
-4.4790    PRETEND -0.2219
-4.1779    PRETTY -0.2219
-4.4790    PREVAIL -0.2219
-4.4790    PREVENT -0.2219
-4.4790    PREVENTION -0.2219
-4.4790    PREVIOUS -0.2219
-4.4790    PREVIOUSLY -0.2219
-4.4790    PRICE -0.2219
-4.4790    PRIDE -0.2219
-4.4790    PRIEST -0.2219
-4.4790    PRIMARILY -0.2219
-4.1779    PRIMARY -0.2219
-4.4790    PRIME -0.2219
-4.1779    PRINCIPAL -0.2219
-4.4790    PRINCIPLE -0.2219
-4.1779    PRINT -0.2219
-4.1779    PRIOR -0.2219
-4.4790    PRIORITY -0.2219
-4.4790    PRISON -0.2219
-4.4790    PRISONER -0.2219
-4.4790    PRIVACY -0.2219
-4.4790    PRIVATE -0.2219
-4.4790    PRIVATELY -0.2219
-4.4790    PRIVILEGE -0.2219
-4.4790    PRIZE -0.2219
-4.1779    PRO -0.2219
-4.4790    PROBABLY -0.2219
-4.4790    PROBLEM -0.2219
-4.4790    PROCEDURE -0.2219
-4.4790    PROCEED -0.2219
-4.1779    PROCESS -0.2219
-4.4790    PROCESSING -0.2219
-4.4790    PROCESSOR -0.2219
-4.4790    PROCLAIM -0.2219
-4.4790    PRODUCE -0.2219
-4.4790    PRODUCER -0.2219
-4.4790    PRODUCT -0.2219
-4.4790    PRODUCTION -0.2219
-4.4790    PRODUCTIVE -0.2219
-4.4790    PRODUCTIVITY -0.2219
-4.4790    PROFESSION -0.2219
-4.1779    PROFESSIONAL -0.2219
-4.4790    PROFESSOR -0.2219
-4.4790    PROFILE -0.2219
-4.4790    PROFIT -0.2219
-4.4790    PROFOUND -0.2219
-4.1779    PROGRAM -0.2219
-4.4790    PROGRAMMING -0.2219
-4.4790    PROGRESS -0.2219
-4.4790    PROGRESSIVE -0.2219
-4.4790    PROHIBIT -0.2219
-4.1779    PROJECT -0.2219
-4.4790    PROJECTION -0.2219
-4.4790    PROMINENT -0.2219
-4.1779    PROMISE -0.2219
-4.4790    PROMISING -0.2219
-4.4790    PROMOTE -0.2219
-4.4790    PROMOTION -0.2219
-4.4790    PROMPT -0.2219
-4.4790    PROOF -0.2219
-4.4790    PROPER -0.2219
-4.4790    PROPERLY -0.2219
-4.4790    PROPERTY -0.2219
-4.4790    PROPORTION -0.2219
-4.4790    PROPOSAL -0.2219
-4.4790    PROPOSE -0.2219
-4.4790    PROPOSED -0.2219
-4.4790    PROSECUTION -0.2219
-4.4790    PROSECUTOR -0.2219
-4.4790    PROSPECT -0.2219
-4.4790    PROTECT -0.2219
-4.4790    PROTECTION -0.2219
-4.4790    PROTECTIVE -0.2219
-4.4790    PROTEIN -0.2219
-4.1779    PROTEST -0.2219
-4.4790    PROTOCOL -0.2219
-4.4790    PROUD -0.2219
-4.4790    PROVE -0.2219
-4.4790    PROVIDE -0.2219
-4.4790    PROVIDED -0.2219
-4.4790    PROVIDER -0.2219
-4.4790    PROVINCE -0.2219
-4.4790    PROVISION -0.2219
-4.4790    PROVOKE -0.2219
-4.4790    PSYCHOLOGICAL -0.2219
-4.4790    PSYCHOLOGIST -0.2219
-4.4790    PSYCHOLOGY -0.2219
-4.0018    PUBLIC -0.2219
-4.4790    PUBLICATION -0.2219
-4.4790    PUBLICITY -0.2219
-4.4790    PUBLICLY -0.2219
-4.4790    PUBLISH -0.2219
-4.4790    PUBLISHER -0.2219
-4.4790    PULL -0.2219
-4.4790    PULSE -0.2219
-4.1779    PUMP -0.2219
-4.4790    PUNCH -0.2219
-4.4790    PUNISH -0.2219
-4.4790    PUNISHMENT -0.2219
-4.1779    PURCHASE -0.2219
-4.4790    PURE -0.2219
-4.4790    PURPLE -0.2219
-4.4790    PURPOSE -0.2219
-4.4790    PURSE -0.2219
-4.4790    PURSUE -0.2219
-4.4790    PURSUIT -0.2219
-4.4790    PUSH -0.2219
-4.4790    PUT -0.2219
-4.4790    PUZZLE -0.2219
-4.4790    QUALIFY -0.2219
-4.4790    QUALITY -0.2219
-4.4790    QUANTITY -0.2219
-4.4790    QUARTER -0.2219
-4.4790    QUARTERBACK -0.2219
-4.4790    QUEEN -0.2219
-4.4790    QUEST -0.2219
-4.1779    QUESTION -0.2219
-4.4790    QUESTIONNAIRE -0.2219
-4.4790    QUICK -0.2219
-4.4790    QUICKLY -0.2219
-4.4790    QUIET -0.2219
-4.4790    QUIETLY -0.2219
-4.4790    QUIT -0.2219
-4.4790    QUITE -0.2219
-4.1779    QUOTE -0.2219
-4.4790    RABBIT -0.2219
-4.1779    RACE -0.2219
-4.4790    RACIAL -0.2219
-4.4790    RACISM -0.2219
-4.4790    RACK -0.2219
-4.4790    RADAR -0.2219
-4.4790    RADIATION -0.2219
-4.4790    RADICAL -0.2219
-4.4790    RADIO -0.2219
-4.4790    RAGE -0.2219
-4.4790    RAIL -0.2219
-4.4790    RAILROAD -0.2219
-4.1779    RAIN -0.2219
-4.4790    RAISE -0.2219
-4.4790    RALLY -0.2219
-4.4790    RANCH -0.2219
-4.4790    RANDOM -0.2219
-4.1779    RANGE -0.2219
-4.1779    RANK -0.2219
-4.4790    RAPE -0.2219
-4.4790    RAPID -0.2219
-4.4790    RAPIDLY -0.2219
-4.4790    RARE -0.2219
-4.4790    RARELY -0.2219
-4.4790    RAT -0.2219
-4.1779    RATE -0.2219
-4.0018    RATHER -0.2219
-4.4790    RATING -0.2219
-4.4790    RATIO -0.2219
-4.4790    RATIONAL -0.2219
-4.4790    RAW -0.2219
-4.4790    RE -0.2219
-4.1779    REACH -0.2219
-4.4790    REACT -0.2219
-4.4790    REACTION -0.2219
-4.4790    READ -0.2219
-4.4790    READER -0.2219
-4.4790    READILY -0.2219
-4.4790    READING -0.2219
-4.4790    READY -0.2219
-4.4790    REAL -0.2219
-4.4790    REALISTIC -0.2219
-4.4790    REALITY -0.2219
-4.4790    REALIZE -0.2219
-4.4790    REALLY -0.2219
-4.4790    REALM -0.2219
-4.4790    REAR -0.2219
-4.4790    REASON -0.2219
-4.4790    REASONABLE -0.2219
-4.4790    REBEL -0.2219
-4.4790    REBUILD -0.2219
-4.4790    RECALL -0.2219
-4.4790    RECEIVE -0.2219
-4.4790    RECEIVER -0.2219
-4.4790    RECENT -0.2219
-4.4790    RECENTLY -0.2219
-4.4790    RECEPTION -0.2219
-4.4790    RECESSION -0.2219
-4.4790    RECIPE -0.2219
-4.4790    RECIPIENT -0.2219
-4.4790    RECOGNITION -0.2219
-4.4790    RECOGNIZE -0.2219
-4.4790    RECOMMEND -0.2219
-4.4790    RECOMMENDATION -0.2219
-4.1779    RECORD -0.2219
-4.4790    RECORDING -0.2219
-4.4790    RECOVER -0.2219
-4.4790    RECOVERY -0.2219
-4.4790    RECRUIT -0.2219
-4.4790    RED -0.2219
-4.4790    REDUCE -0.2219
-4.4790    REDUCTION -0.2219
-4.4790    REFER -0.2219
-4.4790    REFERENCE -0.2219
-4.4790    REFLECT -0.2219
-4.4790    REFLECTION -0.2219
-4.4790    REFORM -0.2219
-4.4790    REFRIGERATOR -0.2219
-4.4790    REFUGE -0.2219
-4.4790    REFUGEE -0.2219
-4.4790    REFUSE -0.2219
-4.4790    REGAIN -0.2219
-4.0018    REGARD -0.2219
-4.4790    REGARDING -0.2219
-4.4790    REGARDLESS -0.2219
-4.4790    REGIME -0.2219
-4.4790    REGION -0.2219
-4.4790    REGIONAL -0.2219
-4.4790    REGISTER -0.2219
-4.4790    REGRET -0.2219
-4.4790    REGULAR -0.2219
-4.4790    REGULARLY -0.2219
-4.4790    REGULATE -0.2219
-4.4790    REGULATION -0.2219
-4.4790    REGULATOR -0.2219
-4.4790    REGULATORY -0.2219
-4.4790    REHABILITATION -0.2219
-4.4790    REINFORCE -0.2219
-4.4790    REJECT -0.2219
-4.4790    RELATE -0.2219
-4.4790    RELATED -0.2219
-4.4790    RELATION -0.2219
-4.4790    RELATIONSHIP -0.2219
-4.1779    RELATIVE -0.2219
-4.4790    RELATIVELY -0.2219
-4.4790    RELAX -0.2219
-4.1779    RELEASE -0.2219
-4.4790    RELEVANT -0.2219
-4.4790    RELIABILITY -0.2219
-4.4790    RELIABLE -0.2219
-4.4790    RELIEF -0.2219
-4.4790    RELIEVE -0.2219
-4.4790    RELIGION -0.2219
-4.4790    RELIGIOUS -0.2219
-4.4790    RELUCTANT -0.2219
-4.4790    RELY -0.2219
-4.4790    REMAIN -0.2219
-4.4790    REMAINING -0.2219
-4.1779    REMARK -0.2219
-4.4790    REMARKABLE -0.2219
-4.4790    REMEMBER -0.2219
-4.4790    REMIND -0.2219
-4.4790    REMINDER -0.2219
-4.4790    REMOTE -0.2219
-4.4790    REMOVAL -0.2219
-4.4790    REMOVE -0.2219
-4.4790    RENDER -0.2219
-4.1779    RENT -0.2219
-4.4790    RENTAL -0.2219
-4.1779    REPAIR -0.2219
-4.4790    REPEAT -0.2219
-4.4790    REPEATEDLY -0.2219
-4.4790    REPLACE -0.2219
-4.4790    REPLACEMENT -0.2219
-4.4790    REPLY -0.2219
-4.1779    REPORT -0.2219
-4.4790    REPORTEDLY -0.2219
-4.4790    REPORTER -0.2219
-4.4790    REPORTING -0.2219
-4.4790    REPRESENT -0.2219
-4.4790    REPRESENTATION -0.2219
-4.1779    REPRESENTATIVE -0.2219
-4.4790    REPUBLIC -0.2219
-4.1779    REPUBLICAN -0.2219
-4.4790    REPUTATION -0.2219
-4.1779    REQUEST -0.2219
-4.4790    REQUIRE -0.2219
-4.4790    REQUIRED -0.2219
-4.4790    REQUIREMENT -0.2219
-4.1779    RESCUE -0.2219
-4.1779    RESEARCH -0.2219
-4.4790    RESEARCHER -0.2219
-4.4790    RESEMBLE -0.2219
-4.4790    RESERVATION -0.2219
-4.1779    RESERVE -0.2219
-4.4790    RESIDENCE -0.2219
-4.4790    RESIDENT -0.2219
-4.4790    RESIDENTIAL -0.2219
-4.4790    RESIGN -0.2219
-4.4790    RESIST -0.2219
-4.4790    RESISTANCE -0.2219
-4.4790    RESOLUTION -0.2219
-4.4790    RESOLVE -0.2219
-4.4790    RESORT -0.2219
-4.4790    RESOURCE -0.2219
-4.0018    RESPECT -0.2219
-4.4790    RESPECTIVELY -0.2219
-4.4790    RESPOND -0.2219
-4.4790    RESPONDENT -0.2219
-4.1779    RESPONSE -0.2219
-4.4790    RESPONSIBILITY -0.2219
-4.4790    RESPONSIBLE -0.2219
-4.1779    REST -0.2219
-4.4790    RESTAURANT -0.2219
-4.4790    RESTORE -0.2219
-4.4790    RESTRICT -0.2219
-4.4790    RESTRICTION -0.2219
-4.1779    RESULT -0.2219
-4.4790    RESUME -0.2219
-4.4790    RETAIL -0.2219
-4.4790    RETAILER -0.2219
-4.4790    RETAIN -0.2219
-4.4790    RETIRE -0.2219
-4.4790    RETIRED -0.2219
-4.4790    RETIREMENT -0.2219
-4.4790    RETREAT -0.2219
-4.1779    RETURN -0.2219
-4.4790    REVEAL -0.2219
-4.4790    REVELATION -0.2219
-4.4790    REVENUE -0.2219
-4.4790    REVERSE -0.2219
-4.1779    REVIEW -0.2219
-4.4790    REVOLUTION -0.2219
-4.4790    REVOLUTIONARY -0.2219
-4.1779    REWARD -0.2219
-4.4790    RHETORIC -0.2219
-4.4790    RHYTHM -0.2219
-4.4790    RIB -0.2219
-4.4790    RIBBON -0.2219
-4.4790    RICE -0.2219
-4.4790    RICH -0.2219
-4.4790    RID -0.2219
-4.1779    RIDE -0.2219
-4.4790    RIDER -0.2219
-4.4790    RIDGE -0.2219
-4.4790    RIDICULOUS -0.2219
-4.4790    RIFLE -0.2219
-4.0018    RIGHT -0.2219
-4.4790    RIM -0.2219
-4.1779    RING -0.2219
-4.4790    RIOT -0.2219
-4.1779    RISE -0.2219
-4.1779    RISK -0.2219
-4.4790    RISKY -0.2219
-4.4790    RITUAL -0.2219
-4.4790    RIVAL -0.2219
-4.4790    RIVER -0.2219
-4.4790    ROAD -0.2219
-4.4790    ROBOT -0.2219
-4.1779    ROCK -0.2219
-4.4790    ROCKET -0.2219
-4.4790    ROD -0.2219
-4.4790    ROLE -0.2219
-4.1779    ROLL -0.2219
-4.4790    ROLLING -0.2219
-4.4790    ROMAN -0.2219
-4.4790    ROMANCE -0.2219
-4.4790    ROMANTIC -0.2219
-4.4790    ROOF -0.2219
-4.4790    ROOM -0.2219
-4.1779    ROOT -0.2219
-4.4790    ROPE -0.2219
-4.4790    ROSE -0.2219
-4.4790    ROUGH -0.2219
-4.4790    ROUGHLY -0.2219
-4.0018    ROUND -0.2219
-4.4790    ROUTE -0.2219
-4.4790    ROUTINE -0.2219
-4.4790    ROUTINELY -0.2219
-4.4790    ROW -0.2219
-4.4790    ROYAL -0.2219
-4.4790    RUB -0.2219
-4.4790    RUBBER -0.2219
-4.4790    RUIN -0.2219
-4.1779    RULE -0.2219
-4.4790    RULING -0.2219
-4.4790    RUMOR -0.2219
-4.1779    RUN -0.2219
-4.4790    RUNNER -0.2219
-4.1779    RUNNING -0.2219
-4.4790    RURAL -0.2219
-4.1779    RUSH -0.2219
-4.1779    RUSSIAN -0.2219
-4.4790    SACK -0.2219
-4.4790    SACRED -0.2219
-4.1779    SACRIFICE -0.2219
-4.4790    SAD -0.2219
-4.4790    SAFE -0.2219
-4.4790    SAFELY -0.2219
-4.4790    SAFETY -0.2219
-4.4790    SAIL -0.2219
-4.4790    SAKE -0.2219
-4.4790    SALAD -0.2219
-4.4790    SALARY -0.2219
-4.4790    SALE -0.2219
-4.4790    SALES -0.2219
-4.4790    SALMON -0.2219
-4.4790    SALT -0.2219
-4.4790    SAME -0.2219
-4.4790    SAMPLE -0.2219
-4.4790    SANCTION -0.2219
-4.4790    SAND -0.2219
-4.4790    SANDWICH -0.2219
-4.4790    SATELLITE -0.2219
-4.4790    SATISFACTION -0.2219
-4.4790    SATISFY -0.2219
-4.4790    SAUCE -0.2219
-4.4790    SAVE -0.2219
-4.4790    SAVING -0.2219
-4.4790    SAY -0.2219
-4.4790    SCALE -0.2219
-4.4790    SCAN -0.2219
-4.4790    SCANDAL -0.2219
-4.4790    SCARE -0.2219
-4.4790    SCARED -0.2219
-4.4790    SCARY -0.2219
-4.4790    SCATTER -0.2219
-4.4790    SCENARIO -0.2219
-4.4790    SCENE -0.2219
-4.4790    SCENT -0.2219
-4.1779    SCHEDULE -0.2219
-4.4790    SCHEME -0.2219
-4.4790    SCHOLAR -0.2219
-4.4790    SCHOLARSHIP -0.2219
-4.4790    SCHOOL -0.2219
-4.4790    SCIENCE -0.2219
-4.4790    SCIENTIFIC -0.2219
-4.4790    SCIENTIST -0.2219
-4.4790    SCOPE -0.2219
-4.1779    SCORE -0.2219
-4.4790    SCRAMBLE -0.2219
-4.4790    SCRATCH -0.2219
-4.4790    SCREAM -0.2219
-4.1779    SCREEN -0.2219
-4.4790    SCREENING -0.2219
-4.4790    SCREW -0.2219
-4.4790    SCRIPT -0.2219
-4.4790    SCULPTURE -0.2219
-4.4790    SEA -0.2219
-4.1779    SEAL -0.2219
-4.1779    SEARCH -0.2219
-4.4790    SEASON -0.2219
-4.1779    SEAT -0.2219
-4.1779    SECOND -0.2219
-4.4790    SECONDARY -0.2219
-4.1779    SECRET -0.2219
-4.4790    SECRETARY -0.2219
-4.4790    SECTION -0.2219
-4.4790    SECTOR -0.2219
-4.4790    SECULAR -0.2219
-4.1779    SECURE -0.2219
-4.4790    SECURITY -0.2219
-4.4790    SEE -0.2219
-4.4790    SEED -0.2219
-4.4790    SEEK -0.2219
-4.4790    SEEM -0.2219
-4.4790    SEEMINGLY -0.2219
-4.4790    SEGMENT -0.2219
-4.4790    SEIZE -0.2219
-4.4790    SELDOM -0.2219
-4.4790    SELECT -0.2219
-4.4790    SELECTED -0.2219
-4.4790    SELECTION -0.2219
-4.4790    SELF -0.2219
-4.4790    SELF-ESTEEM -0.2219
-4.4790    SELL -0.2219
-4.4790    SELLER -0.2219
-4.4790    SEMINAR -0.2219
-4.4790    SENATE -0.2219
-4.4790    SENATOR -0.2219
-4.4790    SEND -0.2219
-4.1779    SENIOR -0.2219
-4.4790    SENSATION -0.2219
-4.1779    SENSE -0.2219
-4.4790    SENSITIVE -0.2219
-4.4790    SENSITIVITY -0.2219
-4.4790    SENSOR -0.2219
-4.4790    SENTENCE -0.2219
-4.4790    SENTIMENT -0.2219
-4.1779    SEPARATE -0.2219
-4.4790    SEPARATION -0.2219
-4.4790    SEQUENCE -0.2219
-4.4790    SERIES -0.2219
-4.4790    SERIOUS -0.2219
-4.4790    SERIOUSLY -0.2219
-4.4790    SERVANT -0.2219
-4.4790    SERVE -0.2219
-4.4790    SERVICE -0.2219
-4.4790    SERVING -0.2219
-4.4790    SESSION -0.2219
-4.1779    SET -0.2219
-4.4790    SETTING -0.2219
-4.4790    SETTLE -0.2219
-4.4790    SETTLEMENT -0.2219
-4.4790    SEVEN -0.2219
-4.4790    SEVENTH -0.2219
-4.4790    SEVERAL -0.2219
-4.4790    SEVERE -0.2219
-4.4790    SEVERELY -0.2219
-4.4790    SEX -0.2219
-4.4790    SEXUAL -0.2219
-4.4790    SEXUALITY -0.2219
-4.4790    SEXUALLY -0.2219
-4.4790    SEXY -0.2219
-4.4790    SHADE -0.2219
-4.4790    SHADOW -0.2219
-4.4790    SHAKE -0.2219
-4.4790    SHALL -0.2219
-4.4790    SHALLOW -0.2219
-4.4790    SHAME -0.2219
-4.1779    SHAPE -0.2219
-4.1779    SHARE -0.2219
-4.4790    SHARED -0.2219
-4.4790    SHAREHOLDER -0.2219
-4.4790    SHARK -0.2219
-4.4790    SHARP -0.2219
-4.4790    SHARPLY -0.2219
-4.4790    SHE -0.2219
-4.4790    SHED -0.2219
-4.4790    SHEEP -0.2219
-4.4790    SHEER -0.2219
-4.4790    SHEET -0.2219
-4.4790    SHELF -0.2219
-4.4790    SHELL -0.2219
-4.4790    SHELTER -0.2219
-4.1779    SHIFT -0.2219
-4.4790    SHINE -0.2219
-4.1779    SHIP -0.2219
-4.4790    SHIRT -0.2219
-4.4790    SHIT -0.2219
-4.1779    SHOCK -0.2219
-4.4790    SHOE -0.2219
-4.4790    SHOOT -0.2219
-4.4790    SHOOTING -0.2219
-4.1779    SHOP -0.2219
-4.4790    SHOPPING -0.2219
-4.4790    SHORE -0.2219
-4.1779    SHORT -0.2219
-4.4790    SHORT-TERM -0.2219
-4.4790    SHORTAGE -0.2219
-4.4790    SHORTLY -0.2219
-4.4790    SHORTS -0.2219
-4.4790    SHOT -0.2219
-4.4790    SHOULD -0.2219
-4.4790    SHOULDER -0.2219
-4.4790    SHOUT -0.2219
-4.4790    SHOVE -0.2219
-4.1779    SHOW -0.2219
-4.4790    SHOWER -0.2219
-4.4790    SHRIMP -0.2219
-4.4790    SHRINK -0.2219
-4.4790    SHRUG -0.2219
-4.4790    SHUT -0.2219
-4.4790    SHUTTLE -0.2219
-4.4790    SHY -0.2219
-4.4790    SIBLING -0.2219
-4.4790    SICK -0.2219
-4.4790    SIDE -0.2219
-4.4790    SIDEWALK -0.2219
-4.4790    SIGH -0.2219
-4.4790    SIGHT -0.2219
-4.1779    SIGN -0.2219
-4.1779    SIGNAL -0.2219
-4.4790    SIGNATURE -0.2219
-4.4790    SIGNIFICANCE -0.2219
-4.4790    SIGNIFICANT -0.2219
-4.4790    SIGNIFICANTLY -0.2219
-4.4790    SILENCE -0.2219
-4.4790    SILENT -0.2219
-4.4790    SILK -0.2219
-4.4790    SILLY -0.2219
-4.4790    SILVER -0.2219
-4.4790    SIMILAR -0.2219
-4.4790    SIMILARITY -0.2219
-4.4790    SIMILARLY -0.2219
-4.4790    SIMPLE -0.2219
-4.4790    SIMPLY -0.2219
-4.4790    SIMULTANEOUSLY -0.2219
-4.4790    SIN -0.2219
-4.0018    SINCE -0.2219
-4.4790    SING -0.2219
-4.4790    SINGER -0.2219
-4.4790    SINGLE -0.2219
-4.1779    SINK -0.2219
-4.4790    SIR -0.2219
-4.4790    SISTER -0.2219
-4.4790    SIT -0.2219
-4.4790    SITE -0.2219
-4.4790    SITUATION -0.2219
-4.4790    SIX -0.2219
-4.4790    SIXTH -0.2219
-4.4790    SIZE -0.2219
-4.4790    SKI -0.2219
-4.4790    SKILL -0.2219
-4.4790    SKILLED -0.2219
-4.4790    SKIN -0.2219
-4.4790    SKIP -0.2219
-4.4790    SKIRT -0.2219
-4.4790    SKULL -0.2219
-4.4790    SKY -0.2219
-4.4790    SLAM -0.2219
-4.4790    SLAP -0.2219
-4.4790    SLAVE -0.2219
-4.4790    SLAVERY -0.2219
-4.1779    SLEEP -0.2219
-4.4790    SLEEVE -0.2219
-4.1779    SLICE -0.2219
-4.1779    SLIDE -0.2219
-4.4790    SLIGHT -0.2219
-4.4790    SLIGHTLY -0.2219
-4.4790    SLIP -0.2219
-4.4790    SLOPE -0.2219
-4.4790    SLOT -0.2219
-4.1779    SLOW -0.2219
-4.4790    SLOWLY -0.2219
-4.4790    SMALL -0.2219
-4.4790    SMART -0.2219
-4.1779    SMELL -0.2219
-4.1779    SMILE -0.2219
-4.1779    SMOKE -0.2219
-4.4790    SMOOTH -0.2219
-4.4790    SNAKE -0.2219
-4.4790    SNAP -0.2219
-4.4790    SNEAK -0.2219
-4.4790    SNOW -0.2219
-4.1779    SO -0.2219
-4.4790    SO-CALLED -0.2219
-4.4790    SOAK -0.2219
-4.4790    SOAP -0.2219
-4.4790    SOAR -0.2219
-4.4790    SOCCER -0.2219
-4.4790    SOCIAL -0.2219
-4.4790    SOCIALLY -0.2219
-4.4790    SOCIETY -0.2219
-4.4790    SOCK -0.2219
-4.4790    SODIUM -0.2219
-4.4790    SOFA -0.2219
-4.4790    SOFT -0.2219
-4.4790    SOFTEN -0.2219
-4.4790    SOFTLY -0.2219
-4.4790    SOFTWARE -0.2219
-4.4790    SOIL -0.2219
-4.4790    SOLAR -0.2219
-4.4790    SOLDIER -0.2219
-4.4790    SOLE -0.2219
-4.4790    SOLELY -0.2219
-4.4790    SOLID -0.2219
-4.4790    SOLUTION -0.2219
-4.4790    SOLVE -0.2219
-4.4790    SOME -0.2219
-4.4790    SOMEBODY -0.2219
-4.4790    SOMEDAY -0.2219
-4.4790    SOMEHOW -0.2219
-4.4790    SOMEONE -0.2219
-4.4790    SOMETHING -0.2219
-4.4790    SOMETIME -0.2219
-4.4790    SOMETIMES -0.2219
-4.4790    SOMEWHAT -0.2219
-4.4790    SOMEWHERE -0.2219
-4.4790    SON -0.2219
-4.4790    SONG -0.2219
-4.1779    SOON -0.2219
-4.4790    SOPHISTICATED -0.2219
-4.4790    SORRY -0.2219
-4.1779    SORT -0.2219
-4.4790    SOUL -0.2219
-4.1779    SOUND -0.2219
-4.4790    SOUP -0.2219
-4.4790    SOURCE -0.2219
-4.4790    SOUTH -0.2219
-4.4790    SOUTHEAST -0.2219
-4.4790    SOUTHERN -0.2219
-4.4790    SOUTHWEST -0.2219
-4.4790    SOVEREIGNTY -0.2219
-4.4790    SOVIET -0.2219
-4.4790    SPACE -0.2219
-4.4790    SPANISH -0.2219
-4.4790    SPARE -0.2219
-4.4790    SPARK -0.2219
-4.4790    SPEAK -0.2219
-4.4790    SPEAKER -0.2219
-4.4790    SPECIAL -0.2219
-4.4790    SPECIALIST -0.2219
-4.4790    SPECIALIZE -0.2219
-4.4790    SPECIALTY -0.2219
-4.4790    SPECIES -0.2219
-4.4790    SPECIFIC -0.2219
-4.4790    SPECIFICALLY -0.2219
-4.4790    SPECIFY -0.2219
-4.4790    SPECTACULAR -0.2219
-4.4790    SPECTRUM -0.2219
-4.4790    SPECULATE -0.2219
-4.4790    SPECULATION -0.2219
-4.4790    SPEECH -0.2219
-4.1779    SPEED -0.2219
-4.4790    SPELL -0.2219
-4.4790    SPEND -0.2219
-4.4790    SPENDING -0.2219
-4.4790    SPHERE -0.2219
-4.4790    SPILL -0.2219
-4.4790    SPIN -0.2219
-4.4790    SPINE -0.2219
-4.4790    SPIRIT -0.2219
-4.4790    SPIRITUAL -0.2219
-4.4790    SPIT -0.2219
-4.4790    SPITE -0.2219
-4.4790    SPLIT -0.2219
-4.4790    SPOKESMAN -0.2219
-4.1779    SPONSOR -0.2219
-4.4790    SPOON -0.2219
-4.4790    SPORT -0.2219
-4.1779    SPOT -0.2219
-4.4790    SPOUSE -0.2219
-4.4790    SPRAY -0.2219
-4.1779    SPREAD -0.2219
-4.1779    SPRING -0.2219
-4.4790    SPRINKLE -0.2219
-4.4790    SPY -0.2219
-4.4790    SQUAD -0.2219
-4.1779    SQUARE -0.2219
-4.4790    SQUEEZE -0.2219
-4.4790    STABILITY -0.2219
-4.4790    STABLE -0.2219
-4.4790    STACK -0.2219
-4.4790    STADIUM -0.2219
-4.4790    STAFF -0.2219
-4.4790    STAGE -0.2219
-4.4790    STAIR -0.2219
-4.4790    STAKE -0.2219
-4.4790    STANCE -0.2219
-4.1779    STAND -0.2219
-4.1779    STANDARD -0.2219
-4.4790    STANDING -0.2219
-4.1779    STAR -0.2219
-4.4790    STARE -0.2219
-4.1779    START -0.2219
-4.4790    STARTER -0.2219
-4.4790    STARTING -0.2219
-4.1779    STATE -0.2219
-4.4790    STATEMENT -0.2219
-4.4790    STATION -0.2219
-4.4790    STATISTICAL -0.2219
-4.4790    STATISTICS -0.2219
-4.4790    STATUE -0.2219
-4.4790    STATUS -0.2219
-4.4790    STATUTE -0.2219
-4.1779    STAY -0.2219
-4.4790    STEADILY -0.2219
-4.4790    STEADY -0.2219
-4.4790    STEAK -0.2219
-4.4790    STEAL -0.2219
-4.4790    STEAM -0.2219
-4.4790    STEEL -0.2219
-4.4790    STEEP -0.2219
-4.4790    STEER -0.2219
-4.1779    STEM -0.2219
-4.1779    STEP -0.2219
-4.4790    STEREOTYPE -0.2219
-4.1779    STICK -0.2219
-4.4790    STIFF -0.2219
-4.1779    STILL -0.2219
-4.4790    STIMULATE -0.2219
-4.4790    STIMULUS -0.2219
-4.4790    STIR -0.2219
-4.4790    STOCK -0.2219
-4.4790    STOMACH -0.2219
-4.4790    STONE -0.2219
-4.1779    STOP -0.2219
-4.4790    STORAGE -0.2219
-4.1779    STORE -0.2219
-4.4790    STORM -0.2219
-4.4790    STORY -0.2219
-4.4790    STOVE -0.2219
-4.1779    STRAIGHT -0.2219
-4.4790    STRAIGHTEN -0.2219
-4.1779    STRAIN -0.2219
-4.4790    STRANGE -0.2219
-4.4790    STRANGER -0.2219
-4.4790    STRATEGIC -0.2219
-4.4790    STRATEGY -0.2219
-4.4790    STRAW -0.2219
-4.4790    STREAK -0.2219
-4.4790    STREAM -0.2219
