Language model created by QuickLM on Tue Aug 13 20:53:31 EDT 2019
Copyright (c) 1996-2010 Carnegie Mellon University and Alexander I. Rudnicky

The model is in standard ARPA format, designed by Doug Paul while he was at MITRE.

The code that was used to produce this language model is available in Open Source.
Please visit http://www.speech.cs.cmu.edu/tools/ for more information

The (fixed) discount mass is 0.5. The backoffs are computed using the ratio method.
This model based on a corpus of 734 sentences and 734 words

\data\
ngram 1=734
ngram 2=1464
ngram 3=732

\1-grams:
-0.7782 </s> -0.3010
-0.7782 <s> -0.2218
-3.6438 A -0.2218
-3.6438 ABANDON -0.2218
-3.6438 ABILITY -0.2218
-3.6438 ABLE -0.2218
-3.6438 ABORTION -0.2218
-3.6438 ABOUT -0.2218
-3.6438 ABOVE -0.2218
-3.6438 ABROAD -0.2218
-3.6438 ABSENCE -0.2218
-3.6438 ABSOLUTE -0.2218
-3.6438 ABSOLUTELY -0.2218
-3.6438 ABSORB -0.2218
-3.6438 ABUSE -0.2218
-3.6438 ACADEMIC -0.2218
-3.6438 ACCEPT -0.2218
-3.6438 ACCESS -0.2218
-3.6438 ACCIDENT -0.2218
-3.6438 ACCOMPANY -0.2218
-3.6438 ACCOMPLISH -0.2218
-3.6438 ACCORDING -0.2218
-3.6438 ACCOUNT -0.2218
-3.6438 ACCURATE -0.2218
-3.6438 ACCUSE -0.2218
-3.6438 ACHIEVE -0.2218
-3.6438 ACHIEVEMENT -0.2218
-3.6438 ACID -0.2218
-3.6438 ACKNOWLEDGE -0.2218
-3.6438 ACQUIRE -0.2218
-3.6438 ACROSS -0.2218
-3.6438 ACT -0.2218
-3.6438 ACTION -0.2218
-3.6438 ACTIVE -0.2218
-3.6438 ACTIVIST -0.2218
-3.6438 ACTIVITY -0.2218
-3.6438 ACTOR -0.2218
-3.6438 ACTRESS -0.2218
-3.6438 ACTUAL -0.2218
-3.6438 ACTUALLY -0.2218
-3.6438 AD -0.2218
-3.6438 ADAPT -0.2218
-3.6438 ADD -0.2218
-3.6438 ADDITION -0.2218
-3.6438 ADDITIONAL -0.2218
-3.6438 ADDRESS -0.2218
-3.6438 ADEQUATE -0.2218
-3.6438 ADJUST -0.2218
-3.6438 ADJUSTMENT -0.2218
-3.6438 ADMINISTRATION -0.2218
-3.6438 ADMINISTRATOR -0.2218
-3.6438 ADMIRE -0.2218
-3.6438 ADMISSION -0.2218
-3.6438 ADMIT -0.2218
-3.6438 ADOLESCENT -0.2218
-3.6438 ADOPT -0.2218
-3.6438 ADULT -0.2218
-3.6438 ADVANCE -0.2218
-3.6438 ADVANCED -0.2218
-3.6438 ADVANTAGE -0.2218
-3.6438 ADVENTURE -0.2218
-3.6438 ADVERTISING -0.2218
-3.6438 ADVICE -0.2218
-3.6438 ADVISE -0.2218
-3.6438 ADVISER -0.2218
-3.6438 ADVOCATE -0.2218
-3.6438 AFFAIR -0.2218
-3.6438 AFFECT -0.2218
-3.6438 AFFORD -0.2218
-3.6438 AFRAID -0.2218
-3.6438 AFRICAN -0.2218
-3.6438 AFRICAN-AMERICAN -0.2218
-3.6438 AFTER -0.2218
-3.6438 AFTERNOON -0.2218
-3.6438 AGAIN -0.2218
-3.6438 AGAINST -0.2218
-3.6438 AGE -0.2218
-3.6438 AGENCY -0.2218
-3.6438 AGENDA -0.2218
-3.6438 AGENT -0.2218
-3.6438 AGGRESSIVE -0.2218
-3.6438 AGO -0.2218
-3.6438 AGREE -0.2218
-3.6438 AGREEMENT -0.2218
-3.6438 AGRICULTURAL -0.2218
-3.6438 AH -0.2218
-3.6438 AHEAD -0.2218
-3.6438 AID -0.2218
-3.6438 AIDE -0.2218
-3.6438 AIDS -0.2218
-3.6438 AIM -0.2218
-3.6438 AIR -0.2218
-3.6438 AIRCRAFT -0.2218
-3.6438 AIRLINE -0.2218
-3.6438 AIRPORT -0.2218
-3.6438 ALBUM -0.2218
-3.6438 ALCOHOL -0.2218
-3.6438 ALIVE -0.2218
-3.6438 ALL -0.2218
-3.6438 ALLIANCE -0.2218
-3.6438 ALLOW -0.2218
-3.6438 ALLY -0.2218
-3.6438 ALMOST -0.2218
-3.6438 ALONE -0.2218
-3.6438 ALONG -0.2218
-3.6438 ALREADY -0.2218
-3.6438 ALSO -0.2218
-3.6438 ALTER -0.2218
-3.6438 ALTERNATIVE -0.2218
-3.6438 ALTHOUGH -0.2218
-3.6438 ALWAYS -0.2218
-3.6438 AM -0.2218
-3.6438 AMAZING -0.2218
-3.6438 AMERICAN -0.2218
-3.6438 AMONG -0.2218
-3.6438 AMOUNT -0.2218
-3.6438 ANALYSIS -0.2218
-3.6438 ANALYST -0.2218
-3.6438 ANALYZE -0.2218
-3.6438 ANCIENT -0.2218
-3.6438 AND -0.2218
-3.6438 ANGER -0.2218
-3.6438 ANGLE -0.2218
-3.6438 ANGRY -0.2218
-3.6438 ANIMAL -0.2218
-3.6438 ANNIVERSARY -0.2218
-3.6438 ANNOUNCE -0.2218
-3.6438 ANNUAL -0.2218
-3.6438 ANOTHER -0.2218
-3.6438 ANSWER -0.2218
-3.6438 ANTICIPATE -0.2218
-3.6438 ANXIETY -0.2218
-3.6438 ANY -0.2218
-3.6438 ANYBODY -0.2218
-3.6438 ANYMORE -0.2218
-3.6438 ANYONE -0.2218
-3.6438 ANYTHING -0.2218
-3.6438 ANYWAY -0.2218
-3.6438 ANYWHERE -0.2218
-3.6438 APART -0.2218
-3.6438 APARTMENT -0.2218
-3.6438 APPARENT -0.2218
-3.6438 APPARENTLY -0.2218
-3.6438 APPEAL -0.2218
-3.6438 APPEAR -0.2218
-3.6438 APPEARANCE -0.2218
-3.6438 APPLE -0.2218
-3.6438 APPLICATION -0.2218
-3.6438 APPLY -0.2218
-3.6438 APPOINT -0.2218
-3.6438 APPOINTMENT -0.2218
-3.6438 APPRECIATE -0.2218
-3.6438 APPROACH -0.2218
-3.6438 APPROPRIATE -0.2218
-3.6438 APPROVAL -0.2218
-3.6438 APPROVE -0.2218
-3.6438 APPROXIMATELY -0.2218
-3.6438 ARAB -0.2218
-3.6438 ARCHITECT -0.2218
-3.6438 AREA -0.2218
-3.6438 ARGUE -0.2218
-3.6438 ARGUMENT -0.2218
-3.6438 ARISE -0.2218
-3.6438 ARM -0.2218
-3.6438 ARMED -0.2218
-3.6438 ARMY -0.2218
-3.6438 AROUND -0.2218
-3.6438 ARRANGE -0.2218
-3.6438 ARRANGEMENT -0.2218
-3.6438 ARREST -0.2218
-3.6438 ARRIVAL -0.2218
-3.6438 ARRIVE -0.2218
-3.6438 ART -0.2218
-3.6438 ARTICLE -0.2218
-3.6438 ARTIST -0.2218
-3.6438 ARTISTIC -0.2218
-3.6438 AS -0.2218
-3.6438 ASIAN -0.2218
-3.6438 ASIDE -0.2218
-3.6438 ASK -0.2218
-3.6438 ASLEEP -0.2218
-3.6438 ASPECT -0.2218
-3.6438 ASSAULT -0.2218
-3.6438 ASSERT -0.2218
-3.6438 ASSESS -0.2218
-3.6438 ASSESSMENT -0.2218
-3.6438 ASSET -0.2218
-3.6438 ASSIGN -0.2218
-3.6438 ASSIGNMENT -0.2218
-3.6438 ASSIST -0.2218
-3.6438 ASSISTANCE -0.2218
-3.6438 ASSISTANT -0.2218
-3.6438 ASSOCIATE -0.2218
-3.6438 ASSOCIATION -0.2218
-3.6438 ASSUME -0.2218
-3.6438 ASSUMPTION -0.2218
-3.6438 ASSURE -0.2218
-3.6438 AT -0.2218
-3.6438 ATHLETE -0.2218
-3.6438 ATHLETIC -0.2218
-3.6438 ATMOSPHERE -0.2218
-3.6438 ATTACH -0.2218
-3.6438 ATTACK -0.2218
-3.6438 ATTEMPT -0.2218
-3.6438 ATTEND -0.2218
-3.6438 ATTENTION -0.2218
-3.6438 ATTITUDE -0.2218
-3.6438 ATTORNEY -0.2218
-3.6438 ATTRACT -0.2218
-3.6438 ATTRACTIVE -0.2218
-3.6438 ATTRIBUTE -0.2218
-3.6438 AUDIENCE -0.2218
-3.6438 AUTHOR -0.2218
-3.6438 AUTHORITY -0.2218
-3.6438 AUTO -0.2218
-3.6438 AVAILABLE -0.2218
-3.6438 AVERAGE -0.2218
-3.6438 AVOID -0.2218
-3.6438 AWARD -0.2218
-3.6438 AWARE -0.2218
-3.6438 AWARENESS -0.2218
-3.6438 AWAY -0.2218
-3.6438 AWFUL -0.2218
-3.6438 BABY -0.2218
-3.6438 BACK -0.2218
-3.6438 BACKGROUND -0.2218
-3.6438 BAD -0.2218
-3.6438 BADLY -0.2218
-3.6438 BAG -0.2218
-3.6438 BAKE -0.2218
-3.6438 BALANCE -0.2218
-3.6438 BALL -0.2218
-3.6438 BAN -0.2218
-3.6438 BAND -0.2218
-3.6438 BANK -0.2218
-3.6438 BAR -0.2218
-3.6438 BARELY -0.2218
-3.6438 BARREL -0.2218
-3.6438 BARRIER -0.2218
-3.6438 BASE -0.2218
-3.6438 BASEBALL -0.2218
-3.6438 BASIC -0.2218
-3.6438 BASICALLY -0.2218
-3.6438 BASIS -0.2218
-3.6438 BASKET -0.2218
-3.6438 BASKETBALL -0.2218
-3.6438 BATHROOM -0.2218
-3.6438 BATTERY -0.2218
-3.6438 BATTLE -0.2218
-3.6438 BE -0.2218
-3.6438 BEACH -0.2218
-3.6438 BEAN -0.2218
-3.6438 BEAR -0.2218
-3.6438 BEAT -0.2218
-3.6438 BEAUTIFUL -0.2218
-3.6438 BEAUTY -0.2218
-3.6438 BECAUSE -0.2218
-3.6438 BECOME -0.2218
-3.6438 BED -0.2218
-3.6438 BEDROOM -0.2218
-3.6438 BEER -0.2218
-3.6438 BEFORE -0.2218
-3.6438 BEGIN -0.2218
-3.6438 BEGINNING -0.2218
-3.6438 BEHAVIOR -0.2218
-3.6438 BEHIND -0.2218
-3.6438 BEING -0.2218
-3.6438 BELIEF -0.2218
-3.6438 BELIEVE -0.2218
-3.6438 BELL -0.2218
-3.6438 BELONG -0.2218
-3.6438 BELOW -0.2218
-3.6438 BELT -0.2218
-3.6438 BENCH -0.2218
-3.6438 BEND -0.2218
-3.6438 BENEATH -0.2218
-3.6438 BENEFIT -0.2218
-3.6438 BESIDE -0.2218
-3.6438 BESIDES -0.2218
-3.6438 BEST -0.2218
-3.6438 BET -0.2218
-3.6438 BETTER -0.2218
-3.6438 BETWEEN -0.2218
-3.6438 BEYOND -0.2218
-3.6438 BIBLE -0.2218
-3.6438 BIG -0.2218
-3.6438 BIKE -0.2218
-3.6438 BILL -0.2218
-3.6438 BILLION -0.2218
-3.6438 BIND -0.2218
-3.6438 BIOLOGICAL -0.2218
-3.6438 BIRD -0.2218
-3.6438 BIRTH -0.2218
-3.6438 BIRTHDAY -0.2218
-3.6438 BIT -0.2218
-3.6438 BITE -0.2218
-3.6438 BLACK -0.2218
-3.6438 BLADE -0.2218
-3.6438 BLAME -0.2218
-3.6438 BLANKET -0.2218
-3.6438 BLIND -0.2218
-3.6438 BLOCK -0.2218
-3.6438 BLOOD -0.2218
-3.6438 BLOW -0.2218
-3.6438 BLUE -0.2218
-3.6438 BOARD -0.2218
-3.6438 BOAT -0.2218
-3.6438 BODY -0.2218
-3.6438 BOMB -0.2218
-3.6438 BOMBING -0.2218
-3.6438 BOND -0.2218
-3.6438 BONE -0.2218
-3.6438 BOOK -0.2218
-3.6438 BOOM -0.2218
-3.6438 BOOT -0.2218
-3.6438 BORDER -0.2218
-3.6438 BORN -0.2218
-3.6438 BORROW -0.2218
-3.6438 BOSS -0.2218
-3.6438 BOTH -0.2218
-3.6438 BOTHER -0.2218
-3.6438 BOTTLE -0.2218
-3.6438 BOTTOM -0.2218
-3.6438 BOUNDARY -0.2218
-3.6438 BOWL -0.2218
-3.6438 BOX -0.2218
-3.6438 BOY -0.2218
-3.6438 BOYFRIEND -0.2218
-3.6438 BRAIN -0.2218
-3.6438 BRANCH -0.2218
-3.6438 BRAND -0.2218
-3.6438 BREAD -0.2218
-3.6438 BREAK -0.2218
-3.6438 BREAKFAST -0.2218
-3.6438 BREAST -0.2218
-3.6438 BREATH -0.2218
-3.6438 BREATHE -0.2218
-3.6438 BRICK -0.2218
-3.6438 BRIDGE -0.2218
-3.6438 BRIEF -0.2218
-3.6438 BRIEFLY -0.2218
-3.6438 BRIGHT -0.2218
-3.6438 BRILLIANT -0.2218
-3.6438 BRING -0.2218
-3.6438 BRITISH -0.2218
-3.6438 BROAD -0.2218
-3.6438 BROKEN -0.2218
-3.6438 BROTHER -0.2218
-3.6438 BROWN -0.2218
-3.6438 BRUSH -0.2218
-3.6438 BUCK -0.2218
-3.6438 BUDGET -0.2218
-3.6438 BUILD -0.2218
-3.6438 BUILDING -0.2218
-3.6438 BULLET -0.2218
-3.6438 BUNCH -0.2218
-3.6438 BURDEN -0.2218
-3.6438 BURN -0.2218
-3.6438 BURY -0.2218
-3.6438 BUS -0.2218
-3.6438 BUSINESS -0.2218
-3.6438 BUSY -0.2218
-3.6438 BUT -0.2218
-3.6438 BUTTER -0.2218
-3.6438 BUTTON -0.2218
-3.6438 BUY -0.2218
-3.6438 BUYER -0.2218
-3.6438 BY -0.2218
-3.6438 CABIN -0.2218
-3.6438 CABINET -0.2218
-3.6438 CABLE -0.2218
-3.6438 CAKE -0.2218
-3.6438 CALCULATE -0.2218
-3.6438 CALCULATOR -0.2218
-3.6438 CALL -0.2218
-3.6438 CAMERA -0.2218
-3.6438 CAMP -0.2218
-3.6438 CAMPAIGN -0.2218
-3.6438 CAMPUS -0.2218
-3.6438 CAN -0.2218
-3.6438 CANADIAN -0.2218
-3.6438 CANCER -0.2218
-3.6438 CANDIDATE -0.2218
-3.6438 CAP -0.2218
-3.6438 CAPABILITY -0.2218
-3.6438 CAPABLE -0.2218
-3.6438 CAPACITY -0.2218
-3.6438 CAPITAL -0.2218
-3.6438 CAPTAIN -0.2218
-3.6438 CAPTURE -0.2218
-3.6438 CAR -0.2218
-3.6438 CARBON -0.2218
-3.6438 CARD -0.2218
-3.6438 CARE -0.2218
-3.6438 CAREER -0.2218
-3.6438 CAREFUL -0.2218
-3.6438 CAREFULLY -0.2218
-3.6438 CARRIER -0.2218
-3.6438 CARRY -0.2218
-3.6438 CASE -0.2218
-3.6438 CASH -0.2218
-3.6438 CAST -0.2218
-3.6438 CAT -0.2218
-3.6438 CATCH -0.2218
-3.6438 CATEGORY -0.2218
-3.6438 CATHOLIC -0.2218
-3.6438 CAUSE -0.2218
-3.6438 CEILING -0.2218
-3.6438 CELEBRATE -0.2218
-3.6438 CELEBRATION -0.2218
-3.6438 CELEBRITY -0.2218
-3.6438 CELL -0.2218
-3.6438 CENTER -0.2218
-3.6438 CENTRAL -0.2218
-3.6438 CENTURY -0.2218
-3.6438 CEO -0.2218
-3.6438 CEREMONY -0.2218
-3.6438 CERTAIN -0.2218
-3.6438 CERTAINLY -0.2218
-3.6438 CHAIN -0.2218
-3.6438 CHAIR -0.2218
-3.6438 CHAIRMAN -0.2218
-3.6438 CHALLENGE -0.2218
-3.6438 CHAMBER -0.2218
-3.6438 CHAMPION -0.2218
-3.6438 CHAMPIONSHIP -0.2218
-3.6438 CHANCE -0.2218
-3.6438 CHANGE -0.2218
-3.6438 CHANGING -0.2218
-3.6438 CHANNEL -0.2218
-3.6438 CHAPTER -0.2218
-3.6438 CHARACTER -0.2218
-3.6438 CHARACTERISTIC -0.2218
-3.6438 CHARACTERIZE -0.2218
-3.6438 CHARGE -0.2218
-3.6438 CHARITY -0.2218
-3.6438 CHART -0.2218
-3.6438 CHASE -0.2218
-3.6438 CHEAP -0.2218
-3.6438 CHECK -0.2218
-3.6438 CHEEK -0.2218
-3.6438 CHEESE -0.2218
-3.6438 CHEF -0.2218
-3.6438 CHEMICAL -0.2218
-3.6438 CHEST -0.2218
-3.6438 CHICKEN -0.2218
-3.6438 CHIEF -0.2218
-3.6438 CHILD -0.2218
-3.6438 CHILDHOOD -0.2218
-3.6438 CHINESE -0.2218
-3.6438 CHIP -0.2218
-3.6438 CHOCOLATE -0.2218
-3.6438 CHOICE -0.2218
-3.6438 CHOLESTEROL -0.2218
-3.6438 CHOOSE -0.2218
-3.6438 CHRISTIAN -0.2218
-3.6438 CHRISTMAS -0.2218
-3.6438 CHROME -0.2218
-3.6438 CHURCH -0.2218
-3.6438 CIGARETTE -0.2218
-3.6438 CIRCLE -0.2218
-3.6438 CIRCUMSTANCE -0.2218
-3.6438 CITE -0.2218
-3.6438 CITIZEN -0.2218
-3.6438 CITY -0.2218
-3.6438 CIVIL -0.2218
-3.6438 CIVILIAN -0.2218
-3.6438 CLAIM -0.2218
-3.6438 CLASS -0.2218
-3.6438 CLASSIC -0.2218
-3.6438 CLASSROOM -0.2218
-3.6438 CLEAN -0.2218
-3.6438 CLEAR -0.2218
-3.6438 CLEARLY -0.2218
-3.6438 CLIENT -0.2218
-3.6438 CLIMATE -0.2218
-3.6438 CLIMB -0.2218
-3.6438 CLINIC -0.2218
-3.6438 CLINICAL -0.2218
-3.6438 CLOCK -0.2218
-3.3428 CLOSE -0.2218
-3.6438 CLOSELY -0.2218
-3.6438 CLOSER -0.2218
-3.6438 CLOTHES -0.2218
-3.6438 CLOTHING -0.2218
-3.6438 CLOUD -0.2218
-3.6438 CLUB -0.2218
-3.6438 CLUE -0.2218
-3.6438 CLUSTER -0.2218
-3.6438 COACH -0.2218
-3.6438 COAL -0.2218
-3.6438 COALITION -0.2218
-3.6438 COAST -0.2218
-3.6438 COAT -0.2218
-3.6438 CODE -0.2218
-3.6438 COFFEE -0.2218
-3.6438 COGNITIVE -0.2218
-3.6438 COLD -0.2218
-3.6438 COLLAPSE -0.2218
-3.6438 COLLEAGUE -0.2218
-3.6438 COLLECT -0.2218
-3.6438 COLLECTION -0.2218
-3.6438 COLLECTIVE -0.2218
-3.6438 COLLEGE -0.2218
-3.6438 COLONIAL -0.2218
-3.6438 COLOR -0.2218
-3.6438 COLUMN -0.2218
-3.6438 COMBINATION -0.2218
-3.6438 COMBINE -0.2218
-3.6438 COME -0.2218
-3.6438 COMEDY -0.2218
-3.6438 COMFORT -0.2218
-3.6438 COMFORTABLE -0.2218
-3.6438 COMMAND -0.2218
-3.6438 COMMANDER -0.2218
-3.6438 COMMENT -0.2218
-3.6438 COMMERCIAL -0.2218
-3.6438 COMMISSION -0.2218
-3.6438 COMMIT -0.2218
-3.6438 COMMITMENT -0.2218
-3.6438 COMMITTEE -0.2218
-3.6438 COMMON -0.2218
-3.6438 COMMUNICATE -0.2218
-3.6438 COMMUNICATION -0.2218
-3.6438 COMMUNITY -0.2218
-3.6438 COMPANY -0.2218
-3.6438 COMPARE -0.2218
-3.6438 COMPARISON -0.2218
-3.6438 COMPETE -0.2218
-3.6438 COMPETITION -0.2218
-3.6438 COMPETITIVE -0.2218
-3.6438 COMPETITOR -0.2218
-3.6438 COMPLAIN -0.2218
-3.6438 COMPLAINT -0.2218
-3.6438 COMPLETE -0.2218
-3.6438 COMPLETELY -0.2218
-3.6438 COMPLEX -0.2218
-3.6438 COMPLICATED -0.2218
-3.6438 COMPONENT -0.2218
-3.6438 COMPOSE -0.2218
-3.6438 COMPOSITION -0.2218
-3.6438 COMPREHENSIVE -0.2218
-3.6438 COMPUTER -0.2218
-3.6438 CONCENTRATE -0.2218
-3.6438 CONCENTRATION -0.2218
-3.6438 CONCEPT -0.2218
-3.6438 CONCERN -0.2218
-3.6438 CONCERNED -0.2218
-3.6438 CONCERT -0.2218
-3.6438 CONCLUDE -0.2218
-3.6438 CONCLUSION -0.2218
-3.6438 CONCRETE -0.2218
-3.6438 CONDITION -0.2218
-3.6438 CONDUCT -0.2218
-3.6438 CONFERENCE -0.2218
-3.6438 CONFIDENCE -0.2218
-3.6438 CONFIDENT -0.2218
-3.6438 CONFIRM -0.2218
-3.6438 CONFLICT -0.2218
-3.6438 CONFRONT -0.2218
-3.6438 CONFUSION -0.2218
-3.6438 CONGRESS -0.2218
-3.6438 CONGRESSIONAL -0.2218
-3.6438 CONNECT -0.2218
-3.6438 CONNECTION -0.2218
-3.6438 CONSCIOUSNESS -0.2218
-3.6438 CONSENSUS -0.2218
-3.6438 CONSEQUENCE -0.2218
-3.6438 CONSERVATIVE -0.2218
-3.6438 CONSIDER -0.2218
-3.6438 CONSIDERABLE -0.2218
-3.6438 CONSIDERATION -0.2218
-3.6438 CONSIST -0.2218
-3.6438 CONSISTENT -0.2218
-3.6438 CONSTANT -0.2218
-3.6438 CONSTANTLY -0.2218
-3.6438 CONSTITUTE -0.2218
-3.6438 CONSTITUTIONAL -0.2218
-3.6438 CONSTRUCT -0.2218
-3.6438 CONSTRUCTION -0.2218
-3.6438 CONSULTANT -0.2218
-3.6438 CONSUME -0.2218
-3.6438 CONSUMER -0.2218
-3.6438 CONSUMPTION -0.2218
-3.6438 CONTACT -0.2218
-3.6438 CONTAIN -0.2218
-3.6438 CONTAINER -0.2218
-3.6438 CONTEMPORARY -0.2218
-3.6438 CONTENT -0.2218
-3.6438 CONTEST -0.2218
-3.6438 CONTEXT -0.2218
-3.6438 CONTINUE -0.2218
-3.6438 CONTINUED -0.2218
-3.6438 CONTRACT -0.2218
-3.6438 CONTRAST -0.2218
-3.6438 CONTRIBUTE -0.2218
-3.6438 CONTRIBUTION -0.2218
-3.3428 CONTROL -0.2218
-3.6438 CONTROVERSIAL -0.2218
-3.6438 CONTROVERSY -0.2218
-3.6438 CONVENTION -0.2218
-3.6438 CONVENTIONAL -0.2218
-3.6438 CONVERSATION -0.2218
-3.6438 CONVERT -0.2218
-3.6438 CONVICTION -0.2218
-3.6438 CONVINCE -0.2218
-3.6438 COOK -0.2218
-3.6438 COOKIE -0.2218
-3.6438 COOKING -0.2218
-3.6438 COOL -0.2218
-3.6438 COOPERATION -0.2218
-3.6438 COP -0.2218
-3.6438 COPE -0.2218
-3.6438 COPY -0.2218
-3.6438 CORE -0.2218
-3.6438 CORN -0.2218
-3.6438 CORNER -0.2218
-3.6438 CORPORATE -0.2218
-3.6438 CORPORATION -0.2218
-3.6438 CORRECT -0.2218
-3.6438 CORRESPONDENT -0.2218
-3.6438 COST -0.2218
-3.6438 COTTON -0.2218
-3.6438 COUCH -0.2218
-3.6438 COULD -0.2218
-3.6438 COUNCIL -0.2218
-3.6438 COUNSELOR -0.2218
-3.6438 COUNT -0.2218
-3.6438 COUNTER -0.2218
-3.6438 COUNTRY -0.2218
-3.6438 COUNTY -0.2218
-3.6438 COUPLE -0.2218
-3.6438 COURAGE -0.2218
-3.6438 COURSE -0.2218
-3.6438 COURT -0.2218
-3.6438 COUSIN -0.2218
-3.6438 COVER -0.2218
-3.6438 COVERAGE -0.2218
-3.6438 COW -0.2218
-3.6438 CRACK -0.2218
-3.6438 CRAFT -0.2218
-3.6438 CRASH -0.2218
-3.6438 CRAZY -0.2218
-3.6438 CREAM -0.2218
-3.6438 CREATE -0.2218
-3.6438 CREATION -0.2218
-3.6438 CREATIVE -0.2218
-3.6438 CREATURE -0.2218
-3.6438 CREDIT -0.2218
-3.6438 CREW -0.2218
-3.6438 CRIME -0.2218
-3.6438 CRIMINAL -0.2218
-3.6438 CRISIS -0.2218
-3.6438 CRITERIA -0.2218
-3.6438 CRITIC -0.2218
-3.6438 CRITICAL -0.2218
-3.6438 CRITICISM -0.2218
-3.6438 CRITICIZE -0.2218
-3.6438 CROP -0.2218
-3.6438 CROSS -0.2218
-3.6438 CROWD -0.2218
-3.6438 CRUCIAL -0.2218
-3.6438 CRY -0.2218
-3.6438 CULTURAL -0.2218
-3.6438 CULTURE -0.2218
-3.6438 CUP -0.2218
-3.6438 CURIOUS -0.2218
-3.6438 CURRENT -0.2218
-3.6438 CURRENTLY -0.2218
-3.6438 CURRICULUM -0.2218
-3.6438 CUSTOM -0.2218
-3.6438 CUSTOMER -0.2218
-3.6438 CUT -0.2218
-3.6438 CYCLE -0.2218
-3.6438 DAD -0.2218
-3.6438 DAILY -0.2218
-3.6438 DAMAGE -0.2218
-3.6438 DANCE -0.2218
-3.6438 DANGER -0.2218
-3.6438 DANGEROUS -0.2218
-3.6438 DARE -0.2218
-3.6438 DARK -0.2218
-3.6438 DARKNESS -0.2218
-3.6438 DATA -0.2218
-3.6438 DATE -0.2218
-3.6438 DAUGHTER -0.2218
-3.6438 DAY -0.2218
-3.6438 DEAD -0.2218
-3.6438 DEAL -0.2218
-3.6438 DEALER -0.2218
-3.6438 DEAR -0.2218
-3.6438 DEATH -0.2218
-3.6438 DEBATE -0.2218
-3.6438 DEBT -0.2218
-3.6438 DECADE -0.2218
-3.6438 DECIDE -0.2218
-3.6438 DECISION -0.2218
-3.6438 DECK -0.2218
-3.6438 DECLARE -0.2218
-3.6438 DECLINE -0.2218
-3.6438 DECREASE -0.2218
-3.6438 DEEP -0.2218
-3.6438 DEEPLY -0.2218
-3.6438 DEER -0.2218
-3.6438 DEFEAT -0.2218
-3.6438 DEFEND -0.2218
-3.6438 DEFENDANT -0.2218
-3.6438 DEFENSE -0.2218
-3.6438 DEFENSIVE -0.2218
-3.6438 DEFICIT -0.2218
-3.6438 DEFINE -0.2218
-3.6438 DEFINITELY -0.2218
-3.6438 DEFINITION -0.2218
-3.6438 DEGREE -0.2218
-3.6438 DELAY -0.2218
-3.6438 DELIVER -0.2218
-3.6438 DELIVERY -0.2218
-3.6438 DEMAND -0.2218
-3.6438 DEMOCRACY -0.2218
-3.6438 DEMOCRAT -0.2218
-3.6438 DEMOCRATIC -0.2218
-3.6438 DEMONSTRATE -0.2218
-3.6438 DEMONSTRATION -0.2218
-3.6438 DENY -0.2218
-3.6438 EXCEL -0.2218
-3.6438 FILE -0.2218
-3.6438 MANAGER -0.2218
-3.6438 MUSIC -0.2218
-3.6438 NOTEPAD -0.2218
-3.6438 OPEN -0.2218
-3.6438 PANEL -0.2218
-3.6438 POINT -0.2218
-3.6438 POWER -0.2218
-3.6438 WORD -0.2218

\2-grams:
-3.1667 <s> A 0.0000
-3.1667 <s> ABANDON 0.0000
-3.1667 <s> ABILITY 0.0000
-3.1667 <s> ABLE 0.0000
-3.1667 <s> ABORTION 0.0000
-3.1667 <s> ABOUT 0.0000
-3.1667 <s> ABOVE 0.0000
-3.1667 <s> ABROAD 0.0000
-3.1667 <s> ABSENCE 0.0000
-3.1667 <s> ABSOLUTE 0.0000
-3.1667 <s> ABSOLUTELY 0.0000
-3.1667 <s> ABSORB 0.0000
-3.1667 <s> ABUSE 0.0000
-3.1667 <s> ACADEMIC 0.0000
-3.1667 <s> ACCEPT 0.0000
-3.1667 <s> ACCESS 0.0000
-3.1667 <s> ACCIDENT 0.0000
-3.1667 <s> ACCOMPANY 0.0000
-3.1667 <s> ACCOMPLISH 0.0000
-3.1667 <s> ACCORDING 0.0000
-3.1667 <s> ACCOUNT 0.0000
-3.1667 <s> ACCURATE 0.0000
-3.1667 <s> ACCUSE 0.0000
-3.1667 <s> ACHIEVE 0.0000
-3.1667 <s> ACHIEVEMENT 0.0000
-3.1667 <s> ACID 0.0000
-3.1667 <s> ACKNOWLEDGE 0.0000
-3.1667 <s> ACQUIRE 0.0000
-3.1667 <s> ACROSS 0.0000
-3.1667 <s> ACT 0.0000
-3.1667 <s> ACTION 0.0000
-3.1667 <s> ACTIVE 0.0000
-3.1667 <s> ACTIVIST 0.0000
-3.1667 <s> ACTIVITY 0.0000
-3.1667 <s> ACTOR 0.0000
-3.1667 <s> ACTRESS 0.0000
-3.1667 <s> ACTUAL 0.0000
-3.1667 <s> ACTUALLY 0.0000
-3.1667 <s> AD 0.0000
-3.1667 <s> ADAPT 0.0000
-3.1667 <s> ADD 0.0000
-3.1667 <s> ADDITION 0.0000
-3.1667 <s> ADDITIONAL 0.0000
-3.1667 <s> ADDRESS 0.0000
-3.1667 <s> ADEQUATE 0.0000
-3.1667 <s> ADJUST 0.0000
-3.1667 <s> ADJUSTMENT 0.0000
-3.1667 <s> ADMINISTRATION 0.0000
-3.1667 <s> ADMINISTRATOR 0.0000
-3.1667 <s> ADMIRE 0.0000
-3.1667 <s> ADMISSION 0.0000
-3.1667 <s> ADMIT 0.0000
-3.1667 <s> ADOLESCENT 0.0000
-3.1667 <s> ADOPT 0.0000
-3.1667 <s> ADULT 0.0000
-3.1667 <s> ADVANCE 0.0000
-3.1667 <s> ADVANCED 0.0000
-3.1667 <s> ADVANTAGE 0.0000
-3.1667 <s> ADVENTURE 0.0000
-3.1667 <s> ADVERTISING 0.0000
-3.1667 <s> ADVICE 0.0000
-3.1667 <s> ADVISE 0.0000
-3.1667 <s> ADVISER 0.0000
-3.1667 <s> ADVOCATE 0.0000
-3.1667 <s> AFFAIR 0.0000
-3.1667 <s> AFFECT 0.0000
-3.1667 <s> AFFORD 0.0000
-3.1667 <s> AFRAID 0.0000
-3.1667 <s> AFRICAN 0.0000
-3.1667 <s> AFRICAN-AMERICAN 0.0000
-3.1667 <s> AFTER 0.0000
-3.1667 <s> AFTERNOON 0.0000
-3.1667 <s> AGAIN 0.0000
-3.1667 <s> AGAINST 0.0000
-3.1667 <s> AGE 0.0000
-3.1667 <s> AGENCY 0.0000
-3.1667 <s> AGENDA 0.0000
-3.1667 <s> AGENT 0.0000
-3.1667 <s> AGGRESSIVE 0.0000
-3.1667 <s> AGO 0.0000
-3.1667 <s> AGREE 0.0000
-3.1667 <s> AGREEMENT 0.0000
-3.1667 <s> AGRICULTURAL 0.0000
-3.1667 <s> AH 0.0000
-3.1667 <s> AHEAD 0.0000
-3.1667 <s> AID 0.0000
-3.1667 <s> AIDE 0.0000
-3.1667 <s> AIDS 0.0000
-3.1667 <s> AIM 0.0000
-3.1667 <s> AIR 0.0000
-3.1667 <s> AIRCRAFT 0.0000
-3.1667 <s> AIRLINE 0.0000
-3.1667 <s> AIRPORT 0.0000
-3.1667 <s> ALBUM 0.0000
-3.1667 <s> ALCOHOL 0.0000
-3.1667 <s> ALIVE 0.0000
-3.1667 <s> ALL 0.0000
-3.1667 <s> ALLIANCE 0.0000
-3.1667 <s> ALLOW 0.0000
-3.1667 <s> ALLY 0.0000
-3.1667 <s> ALMOST 0.0000
-3.1667 <s> ALONE 0.0000
-3.1667 <s> ALONG 0.0000
-3.1667 <s> ALREADY 0.0000
-3.1667 <s> ALSO 0.0000
-3.1667 <s> ALTER 0.0000
-3.1667 <s> ALTERNATIVE 0.0000
-3.1667 <s> ALTHOUGH 0.0000
-3.1667 <s> ALWAYS 0.0000
-3.1667 <s> AM 0.0000
-3.1667 <s> AMAZING 0.0000
-3.1667 <s> AMERICAN 0.0000
-3.1667 <s> AMONG 0.0000
-3.1667 <s> AMOUNT 0.0000
-3.1667 <s> ANALYSIS 0.0000
-3.1667 <s> ANALYST 0.0000
-3.1667 <s> ANALYZE 0.0000
-3.1667 <s> ANCIENT 0.0000
-3.1667 <s> AND 0.0000
-3.1667 <s> ANGER 0.0000
-3.1667 <s> ANGLE 0.0000
-3.1667 <s> ANGRY 0.0000
-3.1667 <s> ANIMAL 0.0000
-3.1667 <s> ANNIVERSARY 0.0000
-3.1667 <s> ANNOUNCE 0.0000
-3.1667 <s> ANNUAL 0.0000
-3.1667 <s> ANOTHER 0.0000
-3.1667 <s> ANSWER 0.0000
-3.1667 <s> ANTICIPATE 0.0000
-3.1667 <s> ANXIETY 0.0000
-3.1667 <s> ANY 0.0000
-3.1667 <s> ANYBODY 0.0000
-3.1667 <s> ANYMORE 0.0000
-3.1667 <s> ANYONE 0.0000
-3.1667 <s> ANYTHING 0.0000
-3.1667 <s> ANYWAY 0.0000
-3.1667 <s> ANYWHERE 0.0000
-3.1667 <s> APART 0.0000
-3.1667 <s> APARTMENT 0.0000
-3.1667 <s> APPARENT 0.0000
-3.1667 <s> APPARENTLY 0.0000
-3.1667 <s> APPEAL 0.0000
-3.1667 <s> APPEAR 0.0000
-3.1667 <s> APPEARANCE 0.0000
-3.1667 <s> APPLE 0.0000
-3.1667 <s> APPLICATION 0.0000
-3.1667 <s> APPLY 0.0000
-3.1667 <s> APPOINT 0.0000
-3.1667 <s> APPOINTMENT 0.0000
-3.1667 <s> APPRECIATE 0.0000
-3.1667 <s> APPROACH 0.0000
-3.1667 <s> APPROPRIATE 0.0000
-3.1667 <s> APPROVAL 0.0000
-3.1667 <s> APPROVE 0.0000
-3.1667 <s> APPROXIMATELY 0.0000
-3.1667 <s> ARAB 0.0000
-3.1667 <s> ARCHITECT 0.0000
-3.1667 <s> AREA 0.0000
-3.1667 <s> ARGUE 0.0000
-3.1667 <s> ARGUMENT 0.0000
-3.1667 <s> ARISE 0.0000
-3.1667 <s> ARM 0.0000
-3.1667 <s> ARMED 0.0000
-3.1667 <s> ARMY 0.0000
-3.1667 <s> AROUND 0.0000
-3.1667 <s> ARRANGE 0.0000
-3.1667 <s> ARRANGEMENT 0.0000
-3.1667 <s> ARREST 0.0000
-3.1667 <s> ARRIVAL 0.0000
-3.1667 <s> ARRIVE 0.0000
-3.1667 <s> ART 0.0000
-3.1667 <s> ARTICLE 0.0000
-3.1667 <s> ARTIST 0.0000
-3.1667 <s> ARTISTIC 0.0000
-3.1667 <s> AS 0.0000
-3.1667 <s> ASIAN 0.0000
-3.1667 <s> ASIDE 0.0000
-3.1667 <s> ASK 0.0000
-3.1667 <s> ASLEEP 0.0000
-3.1667 <s> ASPECT 0.0000
-3.1667 <s> ASSAULT 0.0000
-3.1667 <s> ASSERT 0.0000
-3.1667 <s> ASSESS 0.0000
-3.1667 <s> ASSESSMENT 0.0000
-3.1667 <s> ASSET 0.0000
-3.1667 <s> ASSIGN 0.0000
-3.1667 <s> ASSIGNMENT 0.0000
-3.1667 <s> ASSIST 0.0000
-3.1667 <s> ASSISTANCE 0.0000
-3.1667 <s> ASSISTANT 0.0000
-3.1667 <s> ASSOCIATE 0.0000
-3.1667 <s> ASSOCIATION 0.0000
-3.1667 <s> ASSUME 0.0000
-3.1667 <s> ASSUMPTION 0.0000
-3.1667 <s> ASSURE 0.0000
-3.1667 <s> AT 0.0000
-3.1667 <s> ATHLETE 0.0000
-3.1667 <s> ATHLETIC 0.0000
-3.1667 <s> ATMOSPHERE 0.0000
-3.1667 <s> ATTACH 0.0000
-3.1667 <s> ATTACK 0.0000
-3.1667 <s> ATTEMPT 0.0000
-3.1667 <s> ATTEND 0.0000
-3.1667 <s> ATTENTION 0.0000
-3.1667 <s> ATTITUDE 0.0000
-3.1667 <s> ATTORNEY 0.0000
-3.1667 <s> ATTRACT 0.0000
-3.1667 <s> ATTRACTIVE 0.0000
-3.1667 <s> ATTRIBUTE 0.0000
-3.1667 <s> AUDIENCE 0.0000
-3.1667 <s> AUTHOR 0.0000
-3.1667 <s> AUTHORITY 0.0000
-3.1667 <s> AUTO 0.0000
-3.1667 <s> AVAILABLE 0.0000
-3.1667 <s> AVERAGE 0.0000
-3.1667 <s> AVOID 0.0000
-3.1667 <s> AWARD 0.0000
-3.1667 <s> AWARE 0.0000
-3.1667 <s> AWARENESS 0.0000
-3.1667 <s> AWAY 0.0000
-3.1667 <s> AWFUL 0.0000
-3.1667 <s> BABY 0.0000
-3.1667 <s> BACK 0.0000
-3.1667 <s> BACKGROUND 0.0000
-3.1667 <s> BAD 0.0000
-3.1667 <s> BADLY 0.0000
-3.1667 <s> BAG 0.0000
-3.1667 <s> BAKE 0.0000
-3.1667 <s> BALANCE 0.0000
-3.1667 <s> BALL 0.0000
-3.1667 <s> BAN 0.0000
-3.1667 <s> BAND 0.0000
-3.1667 <s> BANK 0.0000
-3.1667 <s> BAR 0.0000
-3.1667 <s> BARELY 0.0000
-3.1667 <s> BARREL 0.0000
-3.1667 <s> BARRIER 0.0000
-3.1667 <s> BASE 0.0000
-3.1667 <s> BASEBALL 0.0000
-3.1667 <s> BASIC 0.0000
-3.1667 <s> BASICALLY 0.0000
-3.1667 <s> BASIS 0.0000
-3.1667 <s> BASKET 0.0000
-3.1667 <s> BASKETBALL 0.0000
-3.1667 <s> BATHROOM 0.0000
-3.1667 <s> BATTERY 0.0000
-3.1667 <s> BATTLE 0.0000
-3.1667 <s> BE 0.0000
-3.1667 <s> BEACH 0.0000
-3.1667 <s> BEAN 0.0000
-3.1667 <s> BEAR 0.0000
-3.1667 <s> BEAT 0.0000
-3.1667 <s> BEAUTIFUL 0.0000
-3.1667 <s> BEAUTY 0.0000
-3.1667 <s> BECAUSE 0.0000
-3.1667 <s> BECOME 0.0000
-3.1667 <s> BED 0.0000
-3.1667 <s> BEDROOM 0.0000
-3.1667 <s> BEER 0.0000
-3.1667 <s> BEFORE 0.0000
-3.1667 <s> BEGIN 0.0000
-3.1667 <s> BEGINNING 0.0000
-3.1667 <s> BEHAVIOR 0.0000
-3.1667 <s> BEHIND 0.0000
-3.1667 <s> BEING 0.0000
-3.1667 <s> BELIEF 0.0000
-3.1667 <s> BELIEVE 0.0000
-3.1667 <s> BELL 0.0000
-3.1667 <s> BELONG 0.0000
-3.1667 <s> BELOW 0.0000
-3.1667 <s> BELT 0.0000
-3.1667 <s> BENCH 0.0000
-3.1667 <s> BEND 0.0000
-3.1667 <s> BENEATH 0.0000
-3.1667 <s> BENEFIT 0.0000
-3.1667 <s> BESIDE 0.0000
-3.1667 <s> BESIDES 0.0000
-3.1667 <s> BEST 0.0000
-3.1667 <s> BET 0.0000
-3.1667 <s> BETTER 0.0000
-3.1667 <s> BETWEEN 0.0000
-3.1667 <s> BEYOND 0.0000
-3.1667 <s> BIBLE 0.0000
-3.1667 <s> BIG 0.0000
-3.1667 <s> BIKE 0.0000
-3.1667 <s> BILL 0.0000
-3.1667 <s> BILLION 0.0000
-3.1667 <s> BIND 0.0000
-3.1667 <s> BIOLOGICAL 0.0000
-3.1667 <s> BIRD 0.0000
-3.1667 <s> BIRTH 0.0000
-3.1667 <s> BIRTHDAY 0.0000
-3.1667 <s> BIT 0.0000
-3.1667 <s> BITE 0.0000
-3.1667 <s> BLACK 0.0000
-3.1667 <s> BLADE 0.0000
-3.1667 <s> BLAME 0.0000
-3.1667 <s> BLANKET 0.0000
-3.1667 <s> BLIND 0.0000
-3.1667 <s> BLOCK 0.0000
-3.1667 <s> BLOOD 0.0000
-3.1667 <s> BLOW 0.0000
-3.1667 <s> BLUE 0.0000
-3.1667 <s> BOARD 0.0000
-3.1667 <s> BOAT 0.0000
-3.1667 <s> BODY 0.0000
-3.1667 <s> BOMB 0.0000
-3.1667 <s> BOMBING 0.0000
-3.1667 <s> BOND 0.0000
-3.1667 <s> BONE 0.0000
-3.1667 <s> BOOK 0.0000
-3.1667 <s> BOOM 0.0000
-3.1667 <s> BOOT 0.0000
-3.1667 <s> BORDER 0.0000
-3.1667 <s> BORN 0.0000
-3.1667 <s> BORROW 0.0000
-3.1667 <s> BOSS 0.0000
-3.1667 <s> BOTH 0.0000
-3.1667 <s> BOTHER 0.0000
-3.1667 <s> BOTTLE 0.0000
-3.1667 <s> BOTTOM 0.0000
-3.1667 <s> BOUNDARY 0.0000
-3.1667 <s> BOWL 0.0000
-3.1667 <s> BOX 0.0000
-3.1667 <s> BOY 0.0000
-3.1667 <s> BOYFRIEND 0.0000
-3.1667 <s> BRAIN 0.0000
-3.1667 <s> BRANCH 0.0000
-3.1667 <s> BRAND 0.0000
-3.1667 <s> BREAD 0.0000
-3.1667 <s> BREAK 0.0000
-3.1667 <s> BREAKFAST 0.0000
-3.1667 <s> BREAST 0.0000
-3.1667 <s> BREATH 0.0000
-3.1667 <s> BREATHE 0.0000
-3.1667 <s> BRICK 0.0000
-3.1667 <s> BRIDGE 0.0000
-3.1667 <s> BRIEF 0.0000
-3.1667 <s> BRIEFLY 0.0000
-3.1667 <s> BRIGHT 0.0000
-3.1667 <s> BRILLIANT 0.0000
-3.1667 <s> BRING 0.0000
-3.1667 <s> BRITISH 0.0000
-3.1667 <s> BROAD 0.0000
-3.1667 <s> BROKEN 0.0000
-3.1667 <s> BROTHER 0.0000
-3.1667 <s> BROWN 0.0000
-3.1667 <s> BRUSH 0.0000
-3.1667 <s> BUCK 0.0000
-3.1667 <s> BUDGET 0.0000
-3.1667 <s> BUILD 0.0000
-3.1667 <s> BUILDING 0.0000
-3.1667 <s> BULLET 0.0000
-3.1667 <s> BUNCH 0.0000
-3.1667 <s> BURDEN 0.0000
-3.1667 <s> BURN 0.0000
-3.1667 <s> BURY 0.0000
-3.1667 <s> BUS 0.0000
-3.1667 <s> BUSINESS 0.0000
-3.1667 <s> BUSY 0.0000
-3.1667 <s> BUT 0.0000
-3.1667 <s> BUTTER 0.0000
-3.1667 <s> BUTTON 0.0000
-3.1667 <s> BUY 0.0000
-3.1667 <s> BUYER 0.0000
-3.1667 <s> BY 0.0000
-3.1667 <s> CABIN 0.0000
-3.1667 <s> CABINET 0.0000
-3.1667 <s> CABLE 0.0000
-3.1667 <s> CAKE 0.0000
-3.1667 <s> CALCULATE 0.0000
-3.1667 <s> CALCULATOR 0.0000
-3.1667 <s> CALL 0.0000
-3.1667 <s> CAMERA 0.0000
-3.1667 <s> CAMP 0.0000
-3.1667 <s> CAMPAIGN 0.0000
-3.1667 <s> CAMPUS 0.0000
-3.1667 <s> CAN 0.0000
-3.1667 <s> CANADIAN 0.0000
-3.1667 <s> CANCER 0.0000
-3.1667 <s> CANDIDATE 0.0000
-3.1667 <s> CAP 0.0000
-3.1667 <s> CAPABILITY 0.0000
-3.1667 <s> CAPABLE 0.0000
-3.1667 <s> CAPACITY 0.0000
-3.1667 <s> CAPITAL 0.0000
-3.1667 <s> CAPTAIN 0.0000
-3.1667 <s> CAPTURE 0.0000
-3.1667 <s> CAR 0.0000
-3.1667 <s> CARBON 0.0000
-3.1667 <s> CARD 0.0000
-3.1667 <s> CARE 0.0000
-3.1667 <s> CAREER 0.0000
-3.1667 <s> CAREFUL 0.0000
-3.1667 <s> CAREFULLY 0.0000
-3.1667 <s> CARRIER 0.0000
-3.1667 <s> CARRY 0.0000
-3.1667 <s> CASE 0.0000
-3.1667 <s> CASH 0.0000
-3.1667 <s> CAST 0.0000
-3.1667 <s> CAT 0.0000
-3.1667 <s> CATCH 0.0000
-3.1667 <s> CATEGORY 0.0000
-3.1667 <s> CATHOLIC 0.0000
-3.1667 <s> CAUSE 0.0000
-3.1667 <s> CEILING 0.0000
-3.1667 <s> CELEBRATE 0.0000
-3.1667 <s> CELEBRATION 0.0000
-3.1667 <s> CELEBRITY 0.0000
-3.1667 <s> CELL 0.0000
-3.1667 <s> CENTER 0.0000
-3.1667 <s> CENTRAL 0.0000
-3.1667 <s> CENTURY 0.0000
-3.1667 <s> CEO 0.0000
-3.1667 <s> CEREMONY 0.0000
-3.1667 <s> CERTAIN 0.0000
-3.1667 <s> CERTAINLY 0.0000
-3.1667 <s> CHAIN 0.0000
-3.1667 <s> CHAIR 0.0000
-3.1667 <s> CHAIRMAN 0.0000
-3.1667 <s> CHALLENGE 0.0000
-3.1667 <s> CHAMBER 0.0000
-3.1667 <s> CHAMPION 0.0000
-3.1667 <s> CHAMPIONSHIP 0.0000
-3.1667 <s> CHANCE 0.0000
-3.1667 <s> CHANGE 0.0000
-3.1667 <s> CHANGING 0.0000
-3.1667 <s> CHANNEL 0.0000
-3.1667 <s> CHAPTER 0.0000
-3.1667 <s> CHARACTER 0.0000
-3.1667 <s> CHARACTERISTIC 0.0000
-3.1667 <s> CHARACTERIZE 0.0000
-3.1667 <s> CHARGE 0.0000
-3.1667 <s> CHARITY 0.0000
-3.1667 <s> CHART 0.0000
-3.1667 <s> CHASE 0.0000
-3.1667 <s> CHEAP 0.0000
-3.1667 <s> CHECK 0.0000
-3.1667 <s> CHEEK 0.0000
-3.1667 <s> CHEESE 0.0000
-3.1667 <s> CHEF 0.0000
-3.1667 <s> CHEMICAL 0.0000
-3.1667 <s> CHEST 0.0000
-3.1667 <s> CHICKEN 0.0000
-3.1667 <s> CHIEF 0.0000
-3.1667 <s> CHILD 0.0000
-3.1667 <s> CHILDHOOD 0.0000
-3.1667 <s> CHINESE 0.0000
-3.1667 <s> CHIP 0.0000
-3.1667 <s> CHOCOLATE 0.0000
-3.1667 <s> CHOICE 0.0000
-3.1667 <s> CHOLESTEROL 0.0000
-3.1667 <s> CHOOSE 0.0000
-3.1667 <s> CHRISTIAN 0.0000
-3.1667 <s> CHRISTMAS 0.0000
-3.1667 <s> CHROME 0.0000
-3.1667 <s> CHURCH 0.0000
-3.1667 <s> CIGARETTE 0.0000
-3.1667 <s> CIRCLE 0.0000
-3.1667 <s> CIRCUMSTANCE 0.0000
-3.1667 <s> CITE 0.0000
-3.1667 <s> CITIZEN 0.0000
-3.1667 <s> CITY 0.0000
-3.1667 <s> CIVIL 0.0000
-3.1667 <s> CIVILIAN 0.0000
-3.1667 <s> CLAIM 0.0000
-3.1667 <s> CLASS 0.0000
-3.1667 <s> CLASSIC 0.0000
-3.1667 <s> CLASSROOM 0.0000
-3.1667 <s> CLEAN 0.0000
-3.1667 <s> CLEAR 0.0000
-3.1667 <s> CLEARLY 0.0000
-3.1667 <s> CLIENT 0.0000
-3.1667 <s> CLIMATE 0.0000
-3.1667 <s> CLIMB 0.0000
-3.1667 <s> CLINIC 0.0000
-3.1667 <s> CLINICAL 0.0000
-3.1667 <s> CLOCK 0.0000
-2.8657 <s> CLOSE 0.0000
-3.1667 <s> CLOSELY 0.0000
-3.1667 <s> CLOSER 0.0000
-3.1667 <s> CLOTHES 0.0000
-3.1667 <s> CLOTHING 0.0000
-3.1667 <s> CLOUD 0.0000
-3.1667 <s> CLUB 0.0000
-3.1667 <s> CLUE 0.0000
-3.1667 <s> CLUSTER 0.0000
-3.1667 <s> COACH 0.0000
-3.1667 <s> COAL 0.0000
-3.1667 <s> COALITION 0.0000
-3.1667 <s> COAST 0.0000
-3.1667 <s> COAT 0.0000
-3.1667 <s> CODE 0.0000
-3.1667 <s> COFFEE 0.0000
-3.1667 <s> COGNITIVE 0.0000
-3.1667 <s> COLD 0.0000
-3.1667 <s> COLLAPSE 0.0000
-3.1667 <s> COLLEAGUE 0.0000
-3.1667 <s> COLLECT 0.0000
-3.1667 <s> COLLECTION 0.0000
-3.1667 <s> COLLECTIVE 0.0000
-3.1667 <s> COLLEGE 0.0000
-3.1667 <s> COLONIAL 0.0000
-3.1667 <s> COLOR 0.0000
-3.1667 <s> COLUMN 0.0000
-3.1667 <s> COMBINATION 0.0000
-3.1667 <s> COMBINE 0.0000
-3.1667 <s> COME 0.0000
-3.1667 <s> COMEDY 0.0000
-3.1667 <s> COMFORT 0.0000
-3.1667 <s> COMFORTABLE 0.0000
-3.1667 <s> COMMAND 0.0000
-3.1667 <s> COMMANDER 0.0000
-3.1667 <s> COMMENT 0.0000
-3.1667 <s> COMMERCIAL 0.0000
-3.1667 <s> COMMISSION 0.0000
-3.1667 <s> COMMIT 0.0000
-3.1667 <s> COMMITMENT 0.0000
-3.1667 <s> COMMITTEE 0.0000
-3.1667 <s> COMMON 0.0000
-3.1667 <s> COMMUNICATE 0.0000
-3.1667 <s> COMMUNICATION 0.0000
-3.1667 <s> COMMUNITY 0.0000
-3.1667 <s> COMPANY 0.0000
-3.1667 <s> COMPARE 0.0000
-3.1667 <s> COMPARISON 0.0000
-3.1667 <s> COMPETE 0.0000
-3.1667 <s> COMPETITION 0.0000
-3.1667 <s> COMPETITIVE 0.0000
-3.1667 <s> COMPETITOR 0.0000
-3.1667 <s> COMPLAIN 0.0000
-3.1667 <s> COMPLAINT 0.0000
-3.1667 <s> COMPLETE 0.0000
-3.1667 <s> COMPLETELY 0.0000
-3.1667 <s> COMPLEX 0.0000
-3.1667 <s> COMPLICATED 0.0000
-3.1667 <s> COMPONENT 0.0000
-3.1667 <s> COMPOSE 0.0000
-3.1667 <s> COMPOSITION 0.0000
-3.1667 <s> COMPREHENSIVE 0.0000
-3.1667 <s> COMPUTER 0.0000
-3.1667 <s> CONCENTRATE 0.0000
-3.1667 <s> CONCENTRATION 0.0000
-3.1667 <s> CONCEPT 0.0000
-3.1667 <s> CONCERN 0.0000
-3.1667 <s> CONCERNED 0.0000
-3.1667 <s> CONCERT 0.0000
-3.1667 <s> CONCLUDE 0.0000
-3.1667 <s> CONCLUSION 0.0000
-3.1667 <s> CONCRETE 0.0000
-3.1667 <s> CONDITION 0.0000
-3.1667 <s> CONDUCT 0.0000
-3.1667 <s> CONFERENCE 0.0000
-3.1667 <s> CONFIDENCE 0.0000
-3.1667 <s> CONFIDENT 0.0000
-3.1667 <s> CONFIRM 0.0000
-3.1667 <s> CONFLICT 0.0000
-3.1667 <s> CONFRONT 0.0000
-3.1667 <s> CONFUSION 0.0000
-3.1667 <s> CONGRESS 0.0000
-3.1667 <s> CONGRESSIONAL 0.0000
-3.1667 <s> CONNECT 0.0000
-3.1667 <s> CONNECTION 0.0000
-3.1667 <s> CONSCIOUSNESS 0.0000
-3.1667 <s> CONSENSUS 0.0000
-3.1667 <s> CONSEQUENCE 0.0000
-3.1667 <s> CONSERVATIVE 0.0000
-3.1667 <s> CONSIDER 0.0000
-3.1667 <s> CONSIDERABLE 0.0000
-3.1667 <s> CONSIDERATION 0.0000
-3.1667 <s> CONSIST 0.0000
-3.1667 <s> CONSISTENT 0.0000
-3.1667 <s> CONSTANT 0.0000
-3.1667 <s> CONSTANTLY 0.0000
-3.1667 <s> CONSTITUTE 0.0000
-3.1667 <s> CONSTITUTIONAL 0.0000
-3.1667 <s> CONSTRUCT 0.0000
-3.1667 <s> CONSTRUCTION 0.0000
-3.1667 <s> CONSULTANT 0.0000
-3.1667 <s> CONSUME 0.0000
-3.1667 <s> CONSUMER 0.0000
-3.1667 <s> CONSUMPTION 0.0000
-3.1667 <s> CONTACT 0.0000
-3.1667 <s> CONTAIN 0.0000
-3.1667 <s> CONTAINER 0.0000
-3.1667 <s> CONTEMPORARY 0.0000
-3.1667 <s> CONTENT 0.0000
-3.1667 <s> CONTEST 0.0000
-3.1667 <s> CONTEXT 0.0000
-3.1667 <s> CONTINUE 0.0000
-3.1667 <s> CONTINUED 0.0000
-3.1667 <s> CONTRACT 0.0000
-3.1667 <s> CONTRAST 0.0000
-3.1667 <s> CONTRIBUTE 0.0000
-3.1667 <s> CONTRIBUTION 0.0000
-2.8657 <s> CONTROL 0.0000
-3.1667 <s> CONTROVERSIAL 0.0000
-3.1667 <s> CONTROVERSY 0.0000
-3.1667 <s> CONVENTION 0.0000
-3.1667 <s> CONVENTIONAL 0.0000
-3.1667 <s> CONVERSATION 0.0000
-3.1667 <s> CONVERT 0.0000
-3.1667 <s> CONVICTION 0.0000
-3.1667 <s> CONVINCE 0.0000
-3.1667 <s> COOK 0.0000
-3.1667 <s> COOKIE 0.0000
-3.1667 <s> COOKING 0.0000
-3.1667 <s> COOL 0.0000
-3.1667 <s> COOPERATION 0.0000
-3.1667 <s> COP 0.0000
-3.1667 <s> COPE 0.0000
-3.1667 <s> COPY 0.0000
-3.1667 <s> CORE 0.0000
-3.1667 <s> CORN 0.0000
-3.1667 <s> CORNER 0.0000
-3.1667 <s> CORPORATE 0.0000
-3.1667 <s> CORPORATION 0.0000
-3.1667 <s> CORRECT 0.0000
-3.1667 <s> CORRESPONDENT 0.0000
-3.1667 <s> COST 0.0000
-3.1667 <s> COTTON 0.0000
-3.1667 <s> COUCH 0.0000
-3.1667 <s> COULD 0.0000
-3.1667 <s> COUNCIL 0.0000
-3.1667 <s> COUNSELOR 0.0000
-3.1667 <s> COUNT 0.0000
-3.1667 <s> COUNTER 0.0000
-3.1667 <s> COUNTRY 0.0000
-3.1667 <s> COUNTY 0.0000
-3.1667 <s> COUPLE 0.0000
-3.1667 <s> COURAGE 0.0000
-3.1667 <s> COURSE 0.0000
-3.1667 <s> COURT 0.0000
-3.1667 <s> COUSIN 0.0000
-3.1667 <s> COVER 0.0000
-3.1667 <s> COVERAGE 0.0000
-3.1667 <s> COW 0.0000
-3.1667 <s> CRACK 0.0000
-3.1667 <s> CRAFT 0.0000
-3.1667 <s> CRASH 0.0000
-3.1667 <s> CRAZY 0.0000
-3.1667 <s> CREAM 0.0000
-3.1667 <s> CREATE 0.0000
-3.1667 <s> CREATION 0.0000
-3.1667 <s> CREATIVE 0.0000
-3.1667 <s> CREATURE 0.0000
-3.1667 <s> CREDIT 0.0000
-3.1667 <s> CREW 0.0000
-3.1667 <s> CRIME 0.0000
-3.1667 <s> CRIMINAL 0.0000
-3.1667 <s> CRISIS 0.0000
-3.1667 <s> CRITERIA 0.0000
-3.1667 <s> CRITIC 0.0000
-3.1667 <s> CRITICAL 0.0000
-3.1667 <s> CRITICISM 0.0000
-3.1667 <s> CRITICIZE 0.0000
-3.1667 <s> CROP 0.0000
-3.1667 <s> CROSS 0.0000
-3.1667 <s> CROWD 0.0000
-3.1667 <s> CRUCIAL 0.0000
-3.1667 <s> CRY 0.0000
-3.1667 <s> CULTURAL 0.0000
-3.1667 <s> CULTURE 0.0000
-3.1667 <s> CUP 0.0000
-3.1667 <s> CURIOUS 0.0000
-3.1667 <s> CURRENT 0.0000
-3.1667 <s> CURRENTLY 0.0000
-3.1667 <s> CURRICULUM 0.0000
-3.1667 <s> CUSTOM 0.0000
-3.1667 <s> CUSTOMER 0.0000
-3.1667 <s> CUT 0.0000
-3.1667 <s> CYCLE 0.0000
-3.1667 <s> DAD 0.0000
-3.1667 <s> DAILY 0.0000
-3.1667 <s> DAMAGE 0.0000
-3.1667 <s> DANCE 0.0000
-3.1667 <s> DANGER 0.0000
-3.1667 <s> DANGEROUS 0.0000
-3.1667 <s> DARE 0.0000
-3.1667 <s> DARK 0.0000
-3.1667 <s> DARKNESS 0.0000
-3.1667 <s> DATA 0.0000
-3.1667 <s> DATE 0.0000
-3.1667 <s> DAUGHTER 0.0000
-3.1667 <s> DAY 0.0000
-3.1667 <s> DEAD 0.0000
-3.1667 <s> DEAL 0.0000
-3.1667 <s> DEALER 0.0000
-3.1667 <s> DEAR 0.0000
-3.1667 <s> DEATH 0.0000
-3.1667 <s> DEBATE 0.0000
-3.1667 <s> DEBT 0.0000
-3.1667 <s> DECADE 0.0000
-3.1667 <s> DECIDE 0.0000
-3.1667 <s> DECISION 0.0000
-3.1667 <s> DECK 0.0000
-3.1667 <s> DECLARE 0.0000
-3.1667 <s> DECLINE 0.0000
-3.1667 <s> DECREASE 0.0000
-3.1667 <s> DEEP 0.0000
-3.1667 <s> DEEPLY 0.0000
-3.1667 <s> DEER 0.0000
-3.1667 <s> DEFEAT 0.0000
-3.1667 <s> DEFEND 0.0000
-3.1667 <s> DEFENDANT 0.0000
-3.1667 <s> DEFENSE 0.0000
-3.1667 <s> DEFENSIVE 0.0000
-3.1667 <s> DEFICIT 0.0000
-3.1667 <s> DEFINE 0.0000
-3.1667 <s> DEFINITELY 0.0000
-3.1667 <s> DEFINITION 0.0000
-3.1667 <s> DEGREE 0.0000
-3.1667 <s> DELAY 0.0000
-3.1667 <s> DELIVER 0.0000
-3.1667 <s> DELIVERY 0.0000
-3.1667 <s> DEMAND 0.0000
-3.1667 <s> DEMOCRACY 0.0000
-3.1667 <s> DEMOCRAT 0.0000
-3.1667 <s> DEMOCRATIC 0.0000
-3.1667 <s> DEMONSTRATE 0.0000
-3.1667 <s> DEMONSTRATION 0.0000
-3.1667 <s> DENY 0.0000
-3.1667 <s> EXCEL 0.0000
-3.1667 <s> FILE 0.0000
-3.1667 <s> MANAGER 0.0000
-3.1667 <s> MUSIC 0.0000
-3.1667 <s> NOTEPAD 0.0000
-3.1667 <s> OPEN 0.0000
-3.1667 <s> PANEL 0.0000
-3.1667 <s> POINT 0.0000
-3.1667 <s> POWER 0.0000
-3.1667 <s> WORD 0.0000
-0.3010 A </s> -0.3010
-0.3010 ABANDON </s> -0.3010
-0.3010 ABILITY </s> -0.3010
-0.3010 ABLE </s> -0.3010
-0.3010 ABORTION </s> -0.3010
-0.3010 ABOUT </s> -0.3010
-0.3010 ABOVE </s> -0.3010
-0.3010 ABROAD </s> -0.3010
-0.3010 ABSENCE </s> -0.3010
-0.3010 ABSOLUTE </s> -0.3010
-0.3010 ABSOLUTELY </s> -0.3010
-0.3010 ABSORB </s> -0.3010
-0.3010 ABUSE </s> -0.3010
-0.3010 ACADEMIC </s> -0.3010
-0.3010 ACCEPT </s> -0.3010
-0.3010 ACCESS </s> -0.3010
-0.3010 ACCIDENT </s> -0.3010
-0.3010 ACCOMPANY </s> -0.3010
-0.3010 ACCOMPLISH </s> -0.3010
-0.3010 ACCORDING </s> -0.3010
-0.3010 ACCOUNT </s> -0.3010
-0.3010 ACCURATE </s> -0.3010
-0.3010 ACCUSE </s> -0.3010
-0.3010 ACHIEVE </s> -0.3010
-0.3010 ACHIEVEMENT </s> -0.3010
-0.3010 ACID </s> -0.3010
-0.3010 ACKNOWLEDGE </s> -0.3010
-0.3010 ACQUIRE </s> -0.3010
-0.3010 ACROSS </s> -0.3010
-0.3010 ACT </s> -0.3010
-0.3010 ACTION </s> -0.3010
-0.3010 ACTIVE </s> -0.3010
-0.3010 ACTIVIST </s> -0.3010
-0.3010 ACTIVITY </s> -0.3010
-0.3010 ACTOR </s> -0.3010
-0.3010 ACTRESS </s> -0.3010
-0.3010 ACTUAL </s> -0.3010
-0.3010 ACTUALLY </s> -0.3010
-0.3010 AD </s> -0.3010
-0.3010 ADAPT </s> -0.3010
-0.3010 ADD </s> -0.3010
-0.3010 ADDITION </s> -0.3010
-0.3010 ADDITIONAL </s> -0.3010
-0.3010 ADDRESS </s> -0.3010
-0.3010 ADEQUATE </s> -0.3010
-0.3010 ADJUST </s> -0.3010
-0.3010 ADJUSTMENT </s> -0.3010
-0.3010 ADMINISTRATION </s> -0.3010
-0.3010 ADMINISTRATOR </s> -0.3010
-0.3010 ADMIRE </s> -0.3010
-0.3010 ADMISSION </s> -0.3010
-0.3010 ADMIT </s> -0.3010
-0.3010 ADOLESCENT </s> -0.3010
-0.3010 ADOPT </s> -0.3010
-0.3010 ADULT </s> -0.3010
-0.3010 ADVANCE </s> -0.3010
-0.3010 ADVANCED </s> -0.3010
-0.3010 ADVANTAGE </s> -0.3010
-0.3010 ADVENTURE </s> -0.3010
-0.3010 ADVERTISING </s> -0.3010
-0.3010 ADVICE </s> -0.3010
-0.3010 ADVISE </s> -0.3010
-0.3010 ADVISER </s> -0.3010
-0.3010 ADVOCATE </s> -0.3010
-0.3010 AFFAIR </s> -0.3010
-0.3010 AFFECT </s> -0.3010
-0.3010 AFFORD </s> -0.3010
-0.3010 AFRAID </s> -0.3010
-0.3010 AFRICAN </s> -0.3010
-0.3010 AFRICAN-AMERICAN </s> -0.3010
-0.3010 AFTER </s> -0.3010
-0.3010 AFTERNOON </s> -0.3010
-0.3010 AGAIN </s> -0.3010
-0.3010 AGAINST </s> -0.3010
-0.3010 AGE </s> -0.3010
-0.3010 AGENCY </s> -0.3010
-0.3010 AGENDA </s> -0.3010
-0.3010 AGENT </s> -0.3010
-0.3010 AGGRESSIVE </s> -0.3010
-0.3010 AGO </s> -0.3010
-0.3010 AGREE </s> -0.3010
-0.3010 AGREEMENT </s> -0.3010
-0.3010 AGRICULTURAL </s> -0.3010
-0.3010 AH </s> -0.3010
-0.3010 AHEAD </s> -0.3010
-0.3010 AID </s> -0.3010
-0.3010 AIDE </s> -0.3010
-0.3010 AIDS </s> -0.3010
-0.3010 AIM </s> -0.3010
-0.3010 AIR </s> -0.3010
-0.3010 AIRCRAFT </s> -0.3010
-0.3010 AIRLINE </s> -0.3010
-0.3010 AIRPORT </s> -0.3010
-0.3010 ALBUM </s> -0.3010
-0.3010 ALCOHOL </s> -0.3010
-0.3010 ALIVE </s> -0.3010
-0.3010 ALL </s> -0.3010
-0.3010 ALLIANCE </s> -0.3010
-0.3010 ALLOW </s> -0.3010
-0.3010 ALLY </s> -0.3010
-0.3010 ALMOST </s> -0.3010
-0.3010 ALONE </s> -0.3010
-0.3010 ALONG </s> -0.3010
-0.3010 ALREADY </s> -0.3010
-0.3010 ALSO </s> -0.3010
-0.3010 ALTER </s> -0.3010
-0.3010 ALTERNATIVE </s> -0.3010
-0.3010 ALTHOUGH </s> -0.3010
-0.3010 ALWAYS </s> -0.3010
-0.3010 AM </s> -0.3010
-0.3010 AMAZING </s> -0.3010
-0.3010 AMERICAN </s> -0.3010
-0.3010 AMONG </s> -0.3010
-0.3010 AMOUNT </s> -0.3010
-0.3010 ANALYSIS </s> -0.3010
-0.3010 ANALYST </s> -0.3010
-0.3010 ANALYZE </s> -0.3010
-0.3010 ANCIENT </s> -0.3010
-0.3010 AND </s> -0.3010
-0.3010 ANGER </s> -0.3010
-0.3010 ANGLE </s> -0.3010
-0.3010 ANGRY </s> -0.3010
-0.3010 ANIMAL </s> -0.3010
-0.3010 ANNIVERSARY </s> -0.3010
-0.3010 ANNOUNCE </s> -0.3010
-0.3010 ANNUAL </s> -0.3010
-0.3010 ANOTHER </s> -0.3010
-0.3010 ANSWER </s> -0.3010
-0.3010 ANTICIPATE </s> -0.3010
-0.3010 ANXIETY </s> -0.3010
-0.3010 ANY </s> -0.3010
-0.3010 ANYBODY </s> -0.3010
-0.3010 ANYMORE </s> -0.3010
-0.3010 ANYONE </s> -0.3010
-0.3010 ANYTHING </s> -0.3010
-0.3010 ANYWAY </s> -0.3010
-0.3010 ANYWHERE </s> -0.3010
-0.3010 APART </s> -0.3010
-0.3010 APARTMENT </s> -0.3010
-0.3010 APPARENT </s> -0.3010
-0.3010 APPARENTLY </s> -0.3010
-0.3010 APPEAL </s> -0.3010
-0.3010 APPEAR </s> -0.3010
-0.3010 APPEARANCE </s> -0.3010
-0.3010 APPLE </s> -0.3010
-0.3010 APPLICATION </s> -0.3010
-0.3010 APPLY </s> -0.3010
-0.3010 APPOINT </s> -0.3010
-0.3010 APPOINTMENT </s> -0.3010
-0.3010 APPRECIATE </s> -0.3010
-0.3010 APPROACH </s> -0.3010
-0.3010 APPROPRIATE </s> -0.3010
-0.3010 APPROVAL </s> -0.3010
-0.3010 APPROVE </s> -0.3010
-0.3010 APPROXIMATELY </s> -0.3010
-0.3010 ARAB </s> -0.3010
-0.3010 ARCHITECT </s> -0.3010
-0.3010 AREA </s> -0.3010
-0.3010 ARGUE </s> -0.3010
-0.3010 ARGUMENT </s> -0.3010
-0.3010 ARISE </s> -0.3010
-0.3010 ARM </s> -0.3010
-0.3010 ARMED </s> -0.3010
-0.3010 ARMY </s> -0.3010
-0.3010 AROUND </s> -0.3010
-0.3010 ARRANGE </s> -0.3010
-0.3010 ARRANGEMENT </s> -0.3010
-0.3010 ARREST </s> -0.3010
-0.3010 ARRIVAL </s> -0.3010
-0.3010 ARRIVE </s> -0.3010
-0.3010 ART </s> -0.3010
-0.3010 ARTICLE </s> -0.3010
-0.3010 ARTIST </s> -0.3010
-0.3010 ARTISTIC </s> -0.3010
-0.3010 AS </s> -0.3010
-0.3010 ASIAN </s> -0.3010
-0.3010 ASIDE </s> -0.3010
-0.3010 ASK </s> -0.3010
-0.3010 ASLEEP </s> -0.3010
-0.3010 ASPECT </s> -0.3010
-0.3010 ASSAULT </s> -0.3010
-0.3010 ASSERT </s> -0.3010
-0.3010 ASSESS </s> -0.3010
-0.3010 ASSESSMENT </s> -0.3010
-0.3010 ASSET </s> -0.3010
-0.3010 ASSIGN </s> -0.3010
-0.3010 ASSIGNMENT </s> -0.3010
-0.3010 ASSIST </s> -0.3010
-0.3010 ASSISTANCE </s> -0.3010
-0.3010 ASSISTANT </s> -0.3010
-0.3010 ASSOCIATE </s> -0.3010
-0.3010 ASSOCIATION </s> -0.3010
-0.3010 ASSUME </s> -0.3010
-0.3010 ASSUMPTION </s> -0.3010
-0.3010 ASSURE </s> -0.3010
-0.3010 AT </s> -0.3010
-0.3010 ATHLETE </s> -0.3010
-0.3010 ATHLETIC </s> -0.3010
-0.3010 ATMOSPHERE </s> -0.3010
-0.3010 ATTACH </s> -0.3010
-0.3010 ATTACK </s> -0.3010
-0.3010 ATTEMPT </s> -0.3010
-0.3010 ATTEND </s> -0.3010
-0.3010 ATTENTION </s> -0.3010
-0.3010 ATTITUDE </s> -0.3010
-0.3010 ATTORNEY </s> -0.3010
-0.3010 ATTRACT </s> -0.3010
-0.3010 ATTRACTIVE </s> -0.3010
-0.3010 ATTRIBUTE </s> -0.3010
-0.3010 AUDIENCE </s> -0.3010
-0.3010 AUTHOR </s> -0.3010
-0.3010 AUTHORITY </s> -0.3010
-0.3010 AUTO </s> -0.3010
-0.3010 AVAILABLE </s> -0.3010
-0.3010 AVERAGE </s> -0.3010
-0.3010 AVOID </s> -0.3010
-0.3010 AWARD </s> -0.3010
-0.3010 AWARE </s> -0.3010
-0.3010 AWARENESS </s> -0.3010
-0.3010 AWAY </s> -0.3010
-0.3010 AWFUL </s> -0.3010
-0.3010 BABY </s> -0.3010
-0.3010 BACK </s> -0.3010
-0.3010 BACKGROUND </s> -0.3010
-0.3010 BAD </s> -0.3010
-0.3010 BADLY </s> -0.3010
-0.3010 BAG </s> -0.3010
-0.3010 BAKE </s> -0.3010
-0.3010 BALANCE </s> -0.3010
-0.3010 BALL </s> -0.3010
-0.3010 BAN </s> -0.3010
-0.3010 BAND </s> -0.3010
-0.3010 BANK </s> -0.3010
-0.3010 BAR </s> -0.3010
-0.3010 BARELY </s> -0.3010
-0.3010 BARREL </s> -0.3010
-0.3010 BARRIER </s> -0.3010
-0.3010 BASE </s> -0.3010
-0.3010 BASEBALL </s> -0.3010
-0.3010 BASIC </s> -0.3010
-0.3010 BASICALLY </s> -0.3010
-0.3010 BASIS </s> -0.3010
-0.3010 BASKET </s> -0.3010
-0.3010 BASKETBALL </s> -0.3010
-0.3010 BATHROOM </s> -0.3010
-0.3010 BATTERY </s> -0.3010
-0.3010 BATTLE </s> -0.3010
-0.3010 BE </s> -0.3010
-0.3010 BEACH </s> -0.3010
-0.3010 BEAN </s> -0.3010
-0.3010 BEAR </s> -0.3010
-0.3010 BEAT </s> -0.3010
-0.3010 BEAUTIFUL </s> -0.3010
-0.3010 BEAUTY </s> -0.3010
-0.3010 BECAUSE </s> -0.3010
-0.3010 BECOME </s> -0.3010
-0.3010 BED </s> -0.3010
-0.3010 BEDROOM </s> -0.3010
-0.3010 BEER </s> -0.3010
-0.3010 BEFORE </s> -0.3010
-0.3010 BEGIN </s> -0.3010
-0.3010 BEGINNING </s> -0.3010
-0.3010 BEHAVIOR </s> -0.3010
-0.3010 BEHIND </s> -0.3010
-0.3010 BEING </s> -0.3010
-0.3010 BELIEF </s> -0.3010
-0.3010 BELIEVE </s> -0.3010
-0.3010 BELL </s> -0.3010
-0.3010 BELONG </s> -0.3010
-0.3010 BELOW </s> -0.3010
-0.3010 BELT </s> -0.3010
-0.3010 BENCH </s> -0.3010
-0.3010 BEND </s> -0.3010
-0.3010 BENEATH </s> -0.3010
-0.3010 BENEFIT </s> -0.3010
-0.3010 BESIDE </s> -0.3010
-0.3010 BESIDES </s> -0.3010
-0.3010 BEST </s> -0.3010
-0.3010 BET </s> -0.3010
-0.3010 BETTER </s> -0.3010
-0.3010 BETWEEN </s> -0.3010
-0.3010 BEYOND </s> -0.3010
-0.3010 BIBLE </s> -0.3010
-0.3010 BIG </s> -0.3010
-0.3010 BIKE </s> -0.3010
-0.3010 BILL </s> -0.3010
-0.3010 BILLION </s> -0.3010
-0.3010 BIND </s> -0.3010
-0.3010 BIOLOGICAL </s> -0.3010
-0.3010 BIRD </s> -0.3010
-0.3010 BIRTH </s> -0.3010
-0.3010 BIRTHDAY </s> -0.3010
-0.3010 BIT </s> -0.3010
-0.3010 BITE </s> -0.3010
-0.3010 BLACK </s> -0.3010
-0.3010 BLADE </s> -0.3010
-0.3010 BLAME </s> -0.3010
-0.3010 BLANKET </s> -0.3010
-0.3010 BLIND </s> -0.3010
-0.3010 BLOCK </s> -0.3010
-0.3010 BLOOD </s> -0.3010
-0.3010 BLOW </s> -0.3010
-0.3010 BLUE </s> -0.3010
-0.3010 BOARD </s> -0.3010
-0.3010 BOAT </s> -0.3010
-0.3010 BODY </s> -0.3010
-0.3010 BOMB </s> -0.3010
-0.3010 BOMBING </s> -0.3010
-0.3010 BOND </s> -0.3010
-0.3010 BONE </s> -0.3010
-0.3010 BOOK </s> -0.3010
-0.3010 BOOM </s> -0.3010
-0.3010 BOOT </s> -0.3010
-0.3010 BORDER </s> -0.3010
-0.3010 BORN </s> -0.3010
-0.3010 BORROW </s> -0.3010
-0.3010 BOSS </s> -0.3010
-0.3010 BOTH </s> -0.3010
-0.3010 BOTHER </s> -0.3010
-0.3010 BOTTLE </s> -0.3010
-0.3010 BOTTOM </s> -0.3010
-0.3010 BOUNDARY </s> -0.3010
-0.3010 BOWL </s> -0.3010
-0.3010 BOX </s> -0.3010
-0.3010 BOY </s> -0.3010
-0.3010 BOYFRIEND </s> -0.3010
-0.3010 BRAIN </s> -0.3010
-0.3010 BRANCH </s> -0.3010
-0.3010 BRAND </s> -0.3010
-0.3010 BREAD </s> -0.3010
-0.3010 BREAK </s> -0.3010
-0.3010 BREAKFAST </s> -0.3010
-0.3010 BREAST </s> -0.3010
-0.3010 BREATH </s> -0.3010
-0.3010 BREATHE </s> -0.3010
-0.3010 BRICK </s> -0.3010
-0.3010 BRIDGE </s> -0.3010
-0.3010 BRIEF </s> -0.3010
-0.3010 BRIEFLY </s> -0.3010
-0.3010 BRIGHT </s> -0.3010
-0.3010 BRILLIANT </s> -0.3010
-0.3010 BRING </s> -0.3010
-0.3010 BRITISH </s> -0.3010
-0.3010 BROAD </s> -0.3010
-0.3010 BROKEN </s> -0.3010
-0.3010 BROTHER </s> -0.3010
-0.3010 BROWN </s> -0.3010
-0.3010 BRUSH </s> -0.3010
-0.3010 BUCK </s> -0.3010
-0.3010 BUDGET </s> -0.3010
-0.3010 BUILD </s> -0.3010
-0.3010 BUILDING </s> -0.3010
-0.3010 BULLET </s> -0.3010
-0.3010 BUNCH </s> -0.3010
-0.3010 BURDEN </s> -0.3010
-0.3010 BURN </s> -0.3010
-0.3010 BURY </s> -0.3010
-0.3010 BUS </s> -0.3010
-0.3010 BUSINESS </s> -0.3010
-0.3010 BUSY </s> -0.3010
-0.3010 BUT </s> -0.3010
-0.3010 BUTTER </s> -0.3010
-0.3010 BUTTON </s> -0.3010
-0.3010 BUY </s> -0.3010
-0.3010 BUYER </s> -0.3010
-0.3010 BY </s> -0.3010
-0.3010 CABIN </s> -0.3010
-0.3010 CABINET </s> -0.3010
-0.3010 CABLE </s> -0.3010
-0.3010 CAKE </s> -0.3010
-0.3010 CALCULATE </s> -0.3010
-0.3010 CALCULATOR </s> -0.3010
-0.3010 CALL </s> -0.3010
-0.3010 CAMERA </s> -0.3010
-0.3010 CAMP </s> -0.3010
-0.3010 CAMPAIGN </s> -0.3010
-0.3010 CAMPUS </s> -0.3010
-0.3010 CAN </s> -0.3010
-0.3010 CANADIAN </s> -0.3010
-0.3010 CANCER </s> -0.3010
-0.3010 CANDIDATE </s> -0.3010
-0.3010 CAP </s> -0.3010
-0.3010 CAPABILITY </s> -0.3010
-0.3010 CAPABLE </s> -0.3010
-0.3010 CAPACITY </s> -0.3010
-0.3010 CAPITAL </s> -0.3010
-0.3010 CAPTAIN </s> -0.3010
-0.3010 CAPTURE </s> -0.3010
-0.3010 CAR </s> -0.3010
-0.3010 CARBON </s> -0.3010
-0.3010 CARD </s> -0.3010
-0.3010 CARE </s> -0.3010
-0.3010 CAREER </s> -0.3010
-0.3010 CAREFUL </s> -0.3010
-0.3010 CAREFULLY </s> -0.3010
-0.3010 CARRIER </s> -0.3010
-0.3010 CARRY </s> -0.3010
-0.3010 CASE </s> -0.3010
-0.3010 CASH </s> -0.3010
-0.3010 CAST </s> -0.3010
-0.3010 CAT </s> -0.3010
-0.3010 CATCH </s> -0.3010
-0.3010 CATEGORY </s> -0.3010
-0.3010 CATHOLIC </s> -0.3010
-0.3010 CAUSE </s> -0.3010
-0.3010 CEILING </s> -0.3010
-0.3010 CELEBRATE </s> -0.3010
-0.3010 CELEBRATION </s> -0.3010
-0.3010 CELEBRITY </s> -0.3010
-0.3010 CELL </s> -0.3010
-0.3010 CENTER </s> -0.3010
-0.3010 CENTRAL </s> -0.3010
-0.3010 CENTURY </s> -0.3010
-0.3010 CEO </s> -0.3010
-0.3010 CEREMONY </s> -0.3010
-0.3010 CERTAIN </s> -0.3010
-0.3010 CERTAINLY </s> -0.3010
-0.3010 CHAIN </s> -0.3010
-0.3010 CHAIR </s> -0.3010
-0.3010 CHAIRMAN </s> -0.3010
-0.3010 CHALLENGE </s> -0.3010
-0.3010 CHAMBER </s> -0.3010
-0.3010 CHAMPION </s> -0.3010
-0.3010 CHAMPIONSHIP </s> -0.3010
-0.3010 CHANCE </s> -0.3010
-0.3010 CHANGE </s> -0.3010
-0.3010 CHANGING </s> -0.3010
-0.3010 CHANNEL </s> -0.3010
-0.3010 CHAPTER </s> -0.3010
-0.3010 CHARACTER </s> -0.3010
-0.3010 CHARACTERISTIC </s> -0.3010
-0.3010 CHARACTERIZE </s> -0.3010
-0.3010 CHARGE </s> -0.3010
-0.3010 CHARITY </s> -0.3010
-0.3010 CHART </s> -0.3010
-0.3010 CHASE </s> -0.3010
-0.3010 CHEAP </s> -0.3010
-0.3010 CHECK </s> -0.3010
-0.3010 CHEEK </s> -0.3010
-0.3010 CHEESE </s> -0.3010
-0.3010 CHEF </s> -0.3010
-0.3010 CHEMICAL </s> -0.3010
-0.3010 CHEST </s> -0.3010
-0.3010 CHICKEN </s> -0.3010
-0.3010 CHIEF </s> -0.3010
-0.3010 CHILD </s> -0.3010
-0.3010 CHILDHOOD </s> -0.3010
-0.3010 CHINESE </s> -0.3010
-0.3010 CHIP </s> -0.3010
-0.3010 CHOCOLATE </s> -0.3010
-0.3010 CHOICE </s> -0.3010
-0.3010 CHOLESTEROL </s> -0.3010
-0.3010 CHOOSE </s> -0.3010
-0.3010 CHRISTIAN </s> -0.3010
-0.3010 CHRISTMAS </s> -0.3010
-0.3010 CHROME </s> -0.3010
-0.3010 CHURCH </s> -0.3010
-0.3010 CIGARETTE </s> -0.3010
-0.3010 CIRCLE </s> -0.3010
-0.3010 CIRCUMSTANCE </s> -0.3010
-0.3010 CITE </s> -0.3010
-0.3010 CITIZEN </s> -0.3010
-0.3010 CITY </s> -0.3010
-0.3010 CIVIL </s> -0.3010
-0.3010 CIVILIAN </s> -0.3010
-0.3010 CLAIM </s> -0.3010
-0.3010 CLASS </s> -0.3010
-0.3010 CLASSIC </s> -0.3010
-0.3010 CLASSROOM </s> -0.3010
-0.3010 CLEAN </s> -0.3010
-0.3010 CLEAR </s> -0.3010
-0.3010 CLEARLY </s> -0.3010
-0.3010 CLIENT </s> -0.3010
-0.3010 CLIMATE </s> -0.3010
-0.3010 CLIMB </s> -0.3010
-0.3010 CLINIC </s> -0.3010
-0.3010 CLINICAL </s> -0.3010
-0.3010 CLOCK </s> -0.3010
-0.3010 CLOSE </s> -0.3010
-0.3010 CLOSELY </s> -0.3010
-0.3010 CLOSER </s> -0.3010
-0.3010 CLOTHES </s> -0.3010
-0.3010 CLOTHING </s> -0.3010
-0.3010 CLOUD </s> -0.3010
-0.3010 CLUB </s> -0.3010
-0.3010 CLUE </s> -0.3010
-0.3010 CLUSTER </s> -0.3010
-0.3010 COACH </s> -0.3010
-0.3010 COAL </s> -0.3010
-0.3010 COALITION </s> -0.3010
-0.3010 COAST </s> -0.3010
-0.3010 COAT </s> -0.3010
-0.3010 CODE </s> -0.3010
-0.3010 COFFEE </s> -0.3010
-0.3010 COGNITIVE </s> -0.3010
-0.3010 COLD </s> -0.3010
-0.3010 COLLAPSE </s> -0.3010
-0.3010 COLLEAGUE </s> -0.3010
-0.3010 COLLECT </s> -0.3010
-0.3010 COLLECTION </s> -0.3010
-0.3010 COLLECTIVE </s> -0.3010
-0.3010 COLLEGE </s> -0.3010
-0.3010 COLONIAL </s> -0.3010
-0.3010 COLOR </s> -0.3010
-0.3010 COLUMN </s> -0.3010
-0.3010 COMBINATION </s> -0.3010
-0.3010 COMBINE </s> -0.3010
-0.3010 COME </s> -0.3010
-0.3010 COMEDY </s> -0.3010
-0.3010 COMFORT </s> -0.3010
-0.3010 COMFORTABLE </s> -0.3010
-0.3010 COMMAND </s> -0.3010
-0.3010 COMMANDER </s> -0.3010
-0.3010 COMMENT </s> -0.3010
-0.3010 COMMERCIAL </s> -0.3010
-0.3010 COMMISSION </s> -0.3010
-0.3010 COMMIT </s> -0.3010
-0.3010 COMMITMENT </s> -0.3010
-0.3010 COMMITTEE </s> -0.3010
-0.3010 COMMON </s> -0.3010
-0.3010 COMMUNICATE </s> -0.3010
-0.3010 COMMUNICATION </s> -0.3010
-0.3010 COMMUNITY </s> -0.3010
-0.3010 COMPANY </s> -0.3010
-0.3010 COMPARE </s> -0.3010
-0.3010 COMPARISON </s> -0.3010
-0.3010 COMPETE </s> -0.3010
-0.3010 COMPETITION </s> -0.3010
-0.3010 COMPETITIVE </s> -0.3010
-0.3010 COMPETITOR </s> -0.3010
-0.3010 COMPLAIN </s> -0.3010
-0.3010 COMPLAINT </s> -0.3010
-0.3010 COMPLETE </s> -0.3010
-0.3010 COMPLETELY </s> -0.3010
-0.3010 COMPLEX </s> -0.3010
-0.3010 COMPLICATED </s> -0.3010
-0.3010 COMPONENT </s> -0.3010
-0.3010 COMPOSE </s> -0.3010
-0.3010 COMPOSITION </s> -0.3010
-0.3010 COMPREHENSIVE </s> -0.3010
-0.3010 COMPUTER </s> -0.3010
-0.3010 CONCENTRATE </s> -0.3010
-0.3010 CONCENTRATION </s> -0.3010
-0.3010 CONCEPT </s> -0.3010
-0.3010 CONCERN </s> -0.3010
-0.3010 CONCERNED </s> -0.3010
-0.3010 CONCERT </s> -0.3010
-0.3010 CONCLUDE </s> -0.3010
-0.3010 CONCLUSION </s> -0.3010
-0.3010 CONCRETE </s> -0.3010
-0.3010 CONDITION </s> -0.3010
-0.3010 CONDUCT </s> -0.3010
-0.3010 CONFERENCE </s> -0.3010
-0.3010 CONFIDENCE </s> -0.3010
-0.3010 CONFIDENT </s> -0.3010
-0.3010 CONFIRM </s> -0.3010
-0.3010 CONFLICT </s> -0.3010
-0.3010 CONFRONT </s> -0.3010
-0.3010 CONFUSION </s> -0.3010
-0.3010 CONGRESS </s> -0.3010
-0.3010 CONGRESSIONAL </s> -0.3010
-0.3010 CONNECT </s> -0.3010
-0.3010 CONNECTION </s> -0.3010
-0.3010 CONSCIOUSNESS </s> -0.3010
-0.3010 CONSENSUS </s> -0.3010
-0.3010 CONSEQUENCE </s> -0.3010
-0.3010 CONSERVATIVE </s> -0.3010
-0.3010 CONSIDER </s> -0.3010
-0.3010 CONSIDERABLE </s> -0.3010
-0.3010 CONSIDERATION </s> -0.3010
-0.3010 CONSIST </s> -0.3010
-0.3010 CONSISTENT </s> -0.3010
-0.3010 CONSTANT </s> -0.3010
-0.3010 CONSTANTLY </s> -0.3010
-0.3010 CONSTITUTE </s> -0.3010
-0.3010 CONSTITUTIONAL </s> -0.3010
-0.3010 CONSTRUCT </s> -0.3010
-0.3010 CONSTRUCTION </s> -0.3010
-0.3010 CONSULTANT </s> -0.3010
-0.3010 CONSUME </s> -0.3010
-0.3010 CONSUMER </s> -0.3010
-0.3010 CONSUMPTION </s> -0.3010
-0.3010 CONTACT </s> -0.3010
-0.3010 CONTAIN </s> -0.3010
-0.3010 CONTAINER </s> -0.3010
-0.3010 CONTEMPORARY </s> -0.3010
-0.3010 CONTENT </s> -0.3010
-0.3010 CONTEST </s> -0.3010
-0.3010 CONTEXT </s> -0.3010
-0.3010 CONTINUE </s> -0.3010
-0.3010 CONTINUED </s> -0.3010
-0.3010 CONTRACT </s> -0.3010
-0.3010 CONTRAST </s> -0.3010
-0.3010 CONTRIBUTE </s> -0.3010
-0.3010 CONTRIBUTION </s> -0.3010
-0.3010 CONTROL </s> -0.3010
-0.3010 CONTROVERSIAL </s> -0.3010
-0.3010 CONTROVERSY </s> -0.3010
-0.3010 CONVENTION </s> -0.3010
-0.3010 CONVENTIONAL </s> -0.3010
-0.3010 CONVERSATION </s> -0.3010
-0.3010 CONVERT </s> -0.3010
-0.3010 CONVICTION </s> -0.3010
-0.3010 CONVINCE </s> -0.3010
-0.3010 COOK </s> -0.3010
-0.3010 COOKIE </s> -0.3010
-0.3010 COOKING </s> -0.3010
-0.3010 COOL </s> -0.3010
-0.3010 COOPERATION </s> -0.3010
-0.3010 COP </s> -0.3010
-0.3010 COPE </s> -0.3010
-0.3010 COPY </s> -0.3010
-0.3010 CORE </s> -0.3010
-0.3010 CORN </s> -0.3010
-0.3010 CORNER </s> -0.3010
-0.3010 CORPORATE </s> -0.3010
-0.3010 CORPORATION </s> -0.3010
-0.3010 CORRECT </s> -0.3010
-0.3010 CORRESPONDENT </s> -0.3010
-0.3010 COST </s> -0.3010
-0.3010 COTTON </s> -0.3010
-0.3010 COUCH </s> -0.3010
-0.3010 COULD </s> -0.3010
-0.3010 COUNCIL </s> -0.3010
-0.3010 COUNSELOR </s> -0.3010
-0.3010 COUNT </s> -0.3010
-0.3010 COUNTER </s> -0.3010
-0.3010 COUNTRY </s> -0.3010
-0.3010 COUNTY </s> -0.3010
-0.3010 COUPLE </s> -0.3010
-0.3010 COURAGE </s> -0.3010
-0.3010 COURSE </s> -0.3010
-0.3010 COURT </s> -0.3010
-0.3010 COUSIN </s> -0.3010
-0.3010 COVER </s> -0.3010
-0.3010 COVERAGE </s> -0.3010
-0.3010 COW </s> -0.3010
-0.3010 CRACK </s> -0.3010
-0.3010 CRAFT </s> -0.3010
-0.3010 CRASH </s> -0.3010
-0.3010 CRAZY </s> -0.3010
-0.3010 CREAM </s> -0.3010
-0.3010 CREATE </s> -0.3010
-0.3010 CREATION </s> -0.3010
-0.3010 CREATIVE </s> -0.3010
-0.3010 CREATURE </s> -0.3010
-0.3010 CREDIT </s> -0.3010
-0.3010 CREW </s> -0.3010
-0.3010 CRIME </s> -0.3010
-0.3010 CRIMINAL </s> -0.3010
-0.3010 CRISIS </s> -0.3010
-0.3010 CRITERIA </s> -0.3010
-0.3010 CRITIC </s> -0.3010
-0.3010 CRITICAL </s> -0.3010
-0.3010 CRITICISM </s> -0.3010
-0.3010 CRITICIZE </s> -0.3010
-0.3010 CROP </s> -0.3010
-0.3010 CROSS </s> -0.3010
-0.3010 CROWD </s> -0.3010
-0.3010 CRUCIAL </s> -0.3010
-0.3010 CRY </s> -0.3010
-0.3010 CULTURAL </s> -0.3010
-0.3010 CULTURE </s> -0.3010
-0.3010 CUP </s> -0.3010
-0.3010 CURIOUS </s> -0.3010
-0.3010 CURRENT </s> -0.3010
-0.3010 CURRENTLY </s> -0.3010
-0.3010 CURRICULUM </s> -0.3010
-0.3010 CUSTOM </s> -0.3010
-0.3010 CUSTOMER </s> -0.3010
-0.3010 CUT </s> -0.3010
-0.3010 CYCLE </s> -0.3010
-0.3010 DAD </s> -0.3010
-0.3010 DAILY </s> -0.3010
-0.3010 DAMAGE </s> -0.3010
-0.3010 DANCE </s> -0.3010
-0.3010 DANGER </s> -0.3010
-0.3010 DANGEROUS </s> -0.3010
-0.3010 DARE </s> -0.3010
-0.3010 DARK </s> -0.3010
-0.3010 DARKNESS </s> -0.3010
-0.3010 DATA </s> -0.3010
-0.3010 DATE </s> -0.3010
-0.3010 DAUGHTER </s> -0.3010
-0.3010 DAY </s> -0.3010
-0.3010 DEAD </s> -0.3010
-0.3010 DEAL </s> -0.3010
-0.3010 DEALER </s> -0.3010
-0.3010 DEAR </s> -0.3010
-0.3010 DEATH </s> -0.3010
-0.3010 DEBATE </s> -0.3010
-0.3010 DEBT </s> -0.3010
-0.3010 DECADE </s> -0.3010
-0.3010 DECIDE </s> -0.3010
-0.3010 DECISION </s> -0.3010
-0.3010 DECK </s> -0.3010
-0.3010 DECLARE </s> -0.3010
-0.3010 DECLINE </s> -0.3010
-0.3010 DECREASE </s> -0.3010
-0.3010 DEEP </s> -0.3010
-0.3010 DEEPLY </s> -0.3010
-0.3010 DEER </s> -0.3010
-0.3010 DEFEAT </s> -0.3010
-0.3010 DEFEND </s> -0.3010
-0.3010 DEFENDANT </s> -0.3010
-0.3010 DEFENSE </s> -0.3010
-0.3010 DEFENSIVE </s> -0.3010
-0.3010 DEFICIT </s> -0.3010
-0.3010 DEFINE </s> -0.3010
-0.3010 DEFINITELY </s> -0.3010
-0.3010 DEFINITION </s> -0.3010
-0.3010 DEGREE </s> -0.3010
-0.3010 DELAY </s> -0.3010
-0.3010 DELIVER </s> -0.3010
-0.3010 DELIVERY </s> -0.3010
-0.3010 DEMAND </s> -0.3010
-0.3010 DEMOCRACY </s> -0.3010
-0.3010 DEMOCRAT </s> -0.3010
-0.3010 DEMOCRATIC </s> -0.3010
-0.3010 DEMONSTRATE </s> -0.3010
-0.3010 DEMONSTRATION </s> -0.3010
-0.3010 DENY </s> -0.3010
-0.3010 EXCEL </s> -0.3010
-0.3010 FILE </s> -0.3010
-0.3010 MANAGER </s> -0.3010
-0.3010 MUSIC </s> -0.3010
-0.3010 NOTEPAD </s> -0.3010
-0.3010 OPEN </s> -0.3010
-0.3010 PANEL </s> -0.3010
-0.3010 POINT </s> -0.3010
-0.3010 POWER </s> -0.3010
-0.3010 WORD </s> -0.3010

\3-grams:
-0.3010 <s> A </s>
-0.3010 <s> ABANDON </s>
-0.3010 <s> ABILITY </s>
-0.3010 <s> ABLE </s>
-0.3010 <s> ABORTION </s>
-0.3010 <s> ABOUT </s>
-0.3010 <s> ABOVE </s>
-0.3010 <s> ABROAD </s>
-0.3010 <s> ABSENCE </s>
-0.3010 <s> ABSOLUTE </s>
-0.3010 <s> ABSOLUTELY </s>
-0.3010 <s> ABSORB </s>
-0.3010 <s> ABUSE </s>
-0.3010 <s> ACADEMIC </s>
-0.3010 <s> ACCEPT </s>
-0.3010 <s> ACCESS </s>
-0.3010 <s> ACCIDENT </s>
-0.3010 <s> ACCOMPANY </s>
-0.3010 <s> ACCOMPLISH </s>
-0.3010 <s> ACCORDING </s>
-0.3010 <s> ACCOUNT </s>
-0.3010 <s> ACCURATE </s>
-0.3010 <s> ACCUSE </s>
-0.3010 <s> ACHIEVE </s>
-0.3010 <s> ACHIEVEMENT </s>
-0.3010 <s> ACID </s>
-0.3010 <s> ACKNOWLEDGE </s>
-0.3010 <s> ACQUIRE </s>
-0.3010 <s> ACROSS </s>
-0.3010 <s> ACT </s>
-0.3010 <s> ACTION </s>
-0.3010 <s> ACTIVE </s>
-0.3010 <s> ACTIVIST </s>
-0.3010 <s> ACTIVITY </s>
-0.3010 <s> ACTOR </s>
-0.3010 <s> ACTRESS </s>
-0.3010 <s> ACTUAL </s>
-0.3010 <s> ACTUALLY </s>
-0.3010 <s> AD </s>
-0.3010 <s> ADAPT </s>
-0.3010 <s> ADD </s>
-0.3010 <s> ADDITION </s>
-0.3010 <s> ADDITIONAL </s>
-0.3010 <s> ADDRESS </s>
-0.3010 <s> ADEQUATE </s>
-0.3010 <s> ADJUST </s>
-0.3010 <s> ADJUSTMENT </s>
-0.3010 <s> ADMINISTRATION </s>
-0.3010 <s> ADMINISTRATOR </s>
-0.3010 <s> ADMIRE </s>
-0.3010 <s> ADMISSION </s>
-0.3010 <s> ADMIT </s>
-0.3010 <s> ADOLESCENT </s>
-0.3010 <s> ADOPT </s>
-0.3010 <s> ADULT </s>
-0.3010 <s> ADVANCE </s>
-0.3010 <s> ADVANCED </s>
-0.3010 <s> ADVANTAGE </s>
-0.3010 <s> ADVENTURE </s>
-0.3010 <s> ADVERTISING </s>
-0.3010 <s> ADVICE </s>
-0.3010 <s> ADVISE </s>
-0.3010 <s> ADVISER </s>
-0.3010 <s> ADVOCATE </s>
-0.3010 <s> AFFAIR </s>
-0.3010 <s> AFFECT </s>
-0.3010 <s> AFFORD </s>
-0.3010 <s> AFRAID </s>
-0.3010 <s> AFRICAN </s>
-0.3010 <s> AFRICAN-AMERICAN </s>
-0.3010 <s> AFTER </s>
-0.3010 <s> AFTERNOON </s>
-0.3010 <s> AGAIN </s>
-0.3010 <s> AGAINST </s>
-0.3010 <s> AGE </s>
-0.3010 <s> AGENCY </s>
-0.3010 <s> AGENDA </s>
-0.3010 <s> AGENT </s>
-0.3010 <s> AGGRESSIVE </s>
-0.3010 <s> AGO </s>
-0.3010 <s> AGREE </s>
-0.3010 <s> AGREEMENT </s>
-0.3010 <s> AGRICULTURAL </s>
-0.3010 <s> AH </s>
-0.3010 <s> AHEAD </s>
-0.3010 <s> AID </s>
-0.3010 <s> AIDE </s>
-0.3010 <s> AIDS </s>
-0.3010 <s> AIM </s>
-0.3010 <s> AIR </s>
-0.3010 <s> AIRCRAFT </s>
-0.3010 <s> AIRLINE </s>
-0.3010 <s> AIRPORT </s>
-0.3010 <s> ALBUM </s>
-0.3010 <s> ALCOHOL </s>
-0.3010 <s> ALIVE </s>
-0.3010 <s> ALL </s>
-0.3010 <s> ALLIANCE </s>
-0.3010 <s> ALLOW </s>
-0.3010 <s> ALLY </s>
-0.3010 <s> ALMOST </s>
-0.3010 <s> ALONE </s>
-0.3010 <s> ALONG </s>
-0.3010 <s> ALREADY </s>
-0.3010 <s> ALSO </s>
-0.3010 <s> ALTER </s>
-0.3010 <s> ALTERNATIVE </s>
-0.3010 <s> ALTHOUGH </s>
-0.3010 <s> ALWAYS </s>
-0.3010 <s> AM </s>
-0.3010 <s> AMAZING </s>
-0.3010 <s> AMERICAN </s>
-0.3010 <s> AMONG </s>
-0.3010 <s> AMOUNT </s>
-0.3010 <s> ANALYSIS </s>
-0.3010 <s> ANALYST </s>
-0.3010 <s> ANALYZE </s>
-0.3010 <s> ANCIENT </s>
-0.3010 <s> AND </s>
-0.3010 <s> ANGER </s>
-0.3010 <s> ANGLE </s>
-0.3010 <s> ANGRY </s>
-0.3010 <s> ANIMAL </s>
-0.3010 <s> ANNIVERSARY </s>
-0.3010 <s> ANNOUNCE </s>
-0.3010 <s> ANNUAL </s>
-0.3010 <s> ANOTHER </s>
-0.3010 <s> ANSWER </s>
-0.3010 <s> ANTICIPATE </s>
-0.3010 <s> ANXIETY </s>
-0.3010 <s> ANY </s>
-0.3010 <s> ANYBODY </s>
-0.3010 <s> ANYMORE </s>
-0.3010 <s> ANYONE </s>
-0.3010 <s> ANYTHING </s>
-0.3010 <s> ANYWAY </s>
-0.3010 <s> ANYWHERE </s>
-0.3010 <s> APART </s>
-0.3010 <s> APARTMENT </s>
-0.3010 <s> APPARENT </s>
-0.3010 <s> APPARENTLY </s>
-0.3010 <s> APPEAL </s>
-0.3010 <s> APPEAR </s>
-0.3010 <s> APPEARANCE </s>
-0.3010 <s> APPLE </s>
-0.3010 <s> APPLICATION </s>
-0.3010 <s> APPLY </s>
-0.3010 <s> APPOINT </s>
-0.3010 <s> APPOINTMENT </s>
-0.3010 <s> APPRECIATE </s>
-0.3010 <s> APPROACH </s>
-0.3010 <s> APPROPRIATE </s>
-0.3010 <s> APPROVAL </s>
-0.3010 <s> APPROVE </s>
-0.3010 <s> APPROXIMATELY </s>
-0.3010 <s> ARAB </s>
-0.3010 <s> ARCHITECT </s>
-0.3010 <s> AREA </s>
-0.3010 <s> ARGUE </s>
-0.3010 <s> ARGUMENT </s>
-0.3010 <s> ARISE </s>
-0.3010 <s> ARM </s>
-0.3010 <s> ARMED </s>
-0.3010 <s> ARMY </s>
-0.3010 <s> AROUND </s>
-0.3010 <s> ARRANGE </s>
-0.3010 <s> ARRANGEMENT </s>
-0.3010 <s> ARREST </s>
-0.3010 <s> ARRIVAL </s>
-0.3010 <s> ARRIVE </s>
-0.3010 <s> ART </s>
-0.3010 <s> ARTICLE </s>
-0.3010 <s> ARTIST </s>
-0.3010 <s> ARTISTIC </s>
-0.3010 <s> AS </s>
-0.3010 <s> ASIAN </s>
-0.3010 <s> ASIDE </s>
-0.3010 <s> ASK </s>
-0.3010 <s> ASLEEP </s>
-0.3010 <s> ASPECT </s>
-0.3010 <s> ASSAULT </s>
-0.3010 <s> ASSERT </s>
-0.3010 <s> ASSESS </s>
-0.3010 <s> ASSESSMENT </s>
-0.3010 <s> ASSET </s>
-0.3010 <s> ASSIGN </s>
-0.3010 <s> ASSIGNMENT </s>
-0.3010 <s> ASSIST </s>
-0.3010 <s> ASSISTANCE </s>
-0.3010 <s> ASSISTANT </s>
-0.3010 <s> ASSOCIATE </s>
-0.3010 <s> ASSOCIATION </s>
-0.3010 <s> ASSUME </s>
-0.3010 <s> ASSUMPTION </s>
-0.3010 <s> ASSURE </s>
-0.3010 <s> AT </s>
-0.3010 <s> ATHLETE </s>
-0.3010 <s> ATHLETIC </s>
-0.3010 <s> ATMOSPHERE </s>
-0.3010 <s> ATTACH </s>
-0.3010 <s> ATTACK </s>
-0.3010 <s> ATTEMPT </s>
-0.3010 <s> ATTEND </s>
-0.3010 <s> ATTENTION </s>
-0.3010 <s> ATTITUDE </s>
-0.3010 <s> ATTORNEY </s>
-0.3010 <s> ATTRACT </s>
-0.3010 <s> ATTRACTIVE </s>
-0.3010 <s> ATTRIBUTE </s>
-0.3010 <s> AUDIENCE </s>
-0.3010 <s> AUTHOR </s>
-0.3010 <s> AUTHORITY </s>
-0.3010 <s> AUTO </s>
-0.3010 <s> AVAILABLE </s>
-0.3010 <s> AVERAGE </s>
-0.3010 <s> AVOID </s>
-0.3010 <s> AWARD </s>
-0.3010 <s> AWARE </s>
-0.3010 <s> AWARENESS </s>
-0.3010 <s> AWAY </s>
-0.3010 <s> AWFUL </s>
-0.3010 <s> BABY </s>
-0.3010 <s> BACK </s>
-0.3010 <s> BACKGROUND </s>
-0.3010 <s> BAD </s>
-0.3010 <s> BADLY </s>
-0.3010 <s> BAG </s>
-0.3010 <s> BAKE </s>
-0.3010 <s> BALANCE </s>
-0.3010 <s> BALL </s>
-0.3010 <s> BAN </s>
-0.3010 <s> BAND </s>
-0.3010 <s> BANK </s>
-0.3010 <s> BAR </s>
-0.3010 <s> BARELY </s>
-0.3010 <s> BARREL </s>
-0.3010 <s> BARRIER </s>
-0.3010 <s> BASE </s>
-0.3010 <s> BASEBALL </s>
-0.3010 <s> BASIC </s>
-0.3010 <s> BASICALLY </s>
-0.3010 <s> BASIS </s>
-0.3010 <s> BASKET </s>
-0.3010 <s> BASKETBALL </s>
-0.3010 <s> BATHROOM </s>
-0.3010 <s> BATTERY </s>
-0.3010 <s> BATTLE </s>
-0.3010 <s> BE </s>
-0.3010 <s> BEACH </s>
-0.3010 <s> BEAN </s>
-0.3010 <s> BEAR </s>
-0.3010 <s> BEAT </s>
-0.3010 <s> BEAUTIFUL </s>
-0.3010 <s> BEAUTY </s>
-0.3010 <s> BECAUSE </s>
-0.3010 <s> BECOME </s>
-0.3010 <s> BED </s>
-0.3010 <s> BEDROOM </s>
-0.3010 <s> BEER </s>
-0.3010 <s> BEFORE </s>
-0.3010 <s> BEGIN </s>
-0.3010 <s> BEGINNING </s>
-0.3010 <s> BEHAVIOR </s>
-0.3010 <s> BEHIND </s>
-0.3010 <s> BEING </s>
-0.3010 <s> BELIEF </s>
-0.3010 <s> BELIEVE </s>
-0.3010 <s> BELL </s>
-0.3010 <s> BELONG </s>
-0.3010 <s> BELOW </s>
-0.3010 <s> BELT </s>
-0.3010 <s> BENCH </s>
-0.3010 <s> BEND </s>
-0.3010 <s> BENEATH </s>
-0.3010 <s> BENEFIT </s>
-0.3010 <s> BESIDE </s>
-0.3010 <s> BESIDES </s>
-0.3010 <s> BEST </s>
-0.3010 <s> BET </s>
-0.3010 <s> BETTER </s>
-0.3010 <s> BETWEEN </s>
-0.3010 <s> BEYOND </s>
-0.3010 <s> BIBLE </s>
-0.3010 <s> BIG </s>
-0.3010 <s> BIKE </s>
-0.3010 <s> BILL </s>
-0.3010 <s> BILLION </s>
-0.3010 <s> BIND </s>
-0.3010 <s> BIOLOGICAL </s>
-0.3010 <s> BIRD </s>
-0.3010 <s> BIRTH </s>
-0.3010 <s> BIRTHDAY </s>
-0.3010 <s> BIT </s>
-0.3010 <s> BITE </s>
-0.3010 <s> BLACK </s>
-0.3010 <s> BLADE </s>
-0.3010 <s> BLAME </s>
-0.3010 <s> BLANKET </s>
-0.3010 <s> BLIND </s>
-0.3010 <s> BLOCK </s>
-0.3010 <s> BLOOD </s>
-0.3010 <s> BLOW </s>
-0.3010 <s> BLUE </s>
-0.3010 <s> BOARD </s>
-0.3010 <s> BOAT </s>
-0.3010 <s> BODY </s>
-0.3010 <s> BOMB </s>
-0.3010 <s> BOMBING </s>
-0.3010 <s> BOND </s>
-0.3010 <s> BONE </s>
-0.3010 <s> BOOK </s>
-0.3010 <s> BOOM </s>
-0.3010 <s> BOOT </s>
-0.3010 <s> BORDER </s>
-0.3010 <s> BORN </s>
-0.3010 <s> BORROW </s>
-0.3010 <s> BOSS </s>
-0.3010 <s> BOTH </s>
-0.3010 <s> BOTHER </s>
-0.3010 <s> BOTTLE </s>
-0.3010 <s> BOTTOM </s>
-0.3010 <s> BOUNDARY </s>
-0.3010 <s> BOWL </s>
-0.3010 <s> BOX </s>
-0.3010 <s> BOY </s>
-0.3010 <s> BOYFRIEND </s>
-0.3010 <s> BRAIN </s>
-0.3010 <s> BRANCH </s>
-0.3010 <s> BRAND </s>
-0.3010 <s> BREAD </s>
-0.3010 <s> BREAK </s>
-0.3010 <s> BREAKFAST </s>
-0.3010 <s> BREAST </s>
-0.3010 <s> BREATH </s>
-0.3010 <s> BREATHE </s>
-0.3010 <s> BRICK </s>
-0.3010 <s> BRIDGE </s>
-0.3010 <s> BRIEF </s>
-0.3010 <s> BRIEFLY </s>
-0.3010 <s> BRIGHT </s>
-0.3010 <s> BRILLIANT </s>
-0.3010 <s> BRING </s>
-0.3010 <s> BRITISH </s>
-0.3010 <s> BROAD </s>
-0.3010 <s> BROKEN </s>
-0.3010 <s> BROTHER </s>
-0.3010 <s> BROWN </s>
-0.3010 <s> BRUSH </s>
-0.3010 <s> BUCK </s>
-0.3010 <s> BUDGET </s>
-0.3010 <s> BUILD </s>
-0.3010 <s> BUILDING </s>
-0.3010 <s> BULLET </s>
-0.3010 <s> BUNCH </s>
-0.3010 <s> BURDEN </s>
-0.3010 <s> BURN </s>
-0.3010 <s> BURY </s>
-0.3010 <s> BUS </s>
-0.3010 <s> BUSINESS </s>
-0.3010 <s> BUSY </s>
-0.3010 <s> BUT </s>
-0.3010 <s> BUTTER </s>
-0.3010 <s> BUTTON </s>
-0.3010 <s> BUY </s>
-0.3010 <s> BUYER </s>
-0.3010 <s> BY </s>
-0.3010 <s> CABIN </s>
-0.3010 <s> CABINET </s>
-0.3010 <s> CABLE </s>
-0.3010 <s> CAKE </s>
-0.3010 <s> CALCULATE </s>
-0.3010 <s> CALCULATOR </s>
-0.3010 <s> CALL </s>
-0.3010 <s> CAMERA </s>
-0.3010 <s> CAMP </s>
-0.3010 <s> CAMPAIGN </s>
-0.3010 <s> CAMPUS </s>
-0.3010 <s> CAN </s>
-0.3010 <s> CANADIAN </s>
-0.3010 <s> CANCER </s>
-0.3010 <s> CANDIDATE </s>
-0.3010 <s> CAP </s>
-0.3010 <s> CAPABILITY </s>
-0.3010 <s> CAPABLE </s>
-0.3010 <s> CAPACITY </s>
-0.3010 <s> CAPITAL </s>
-0.3010 <s> CAPTAIN </s>
-0.3010 <s> CAPTURE </s>
-0.3010 <s> CAR </s>
-0.3010 <s> CARBON </s>
-0.3010 <s> CARD </s>
-0.3010 <s> CARE </s>
-0.3010 <s> CAREER </s>
-0.3010 <s> CAREFUL </s>
-0.3010 <s> CAREFULLY </s>
-0.3010 <s> CARRIER </s>
-0.3010 <s> CARRY </s>
-0.3010 <s> CASE </s>
-0.3010 <s> CASH </s>
-0.3010 <s> CAST </s>
-0.3010 <s> CAT </s>
-0.3010 <s> CATCH </s>
-0.3010 <s> CATEGORY </s>
-0.3010 <s> CATHOLIC </s>
-0.3010 <s> CAUSE </s>
-0.3010 <s> CEILING </s>
-0.3010 <s> CELEBRATE </s>
-0.3010 <s> CELEBRATION </s>
-0.3010 <s> CELEBRITY </s>
-0.3010 <s> CELL </s>
-0.3010 <s> CENTER </s>
-0.3010 <s> CENTRAL </s>
-0.3010 <s> CENTURY </s>
-0.3010 <s> CEO </s>
-0.3010 <s> CEREMONY </s>
-0.3010 <s> CERTAIN </s>
-0.3010 <s> CERTAINLY </s>
-0.3010 <s> CHAIN </s>
-0.3010 <s> CHAIR </s>
-0.3010 <s> CHAIRMAN </s>
-0.3010 <s> CHALLENGE </s>
-0.3010 <s> CHAMBER </s>
-0.3010 <s> CHAMPION </s>
-0.3010 <s> CHAMPIONSHIP </s>
-0.3010 <s> CHANCE </s>
-0.3010 <s> CHANGE </s>
-0.3010 <s> CHANGING </s>
-0.3010 <s> CHANNEL </s>
-0.3010 <s> CHAPTER </s>
-0.3010 <s> CHARACTER </s>
-0.3010 <s> CHARACTERISTIC </s>
-0.3010 <s> CHARACTERIZE </s>
-0.3010 <s> CHARGE </s>
-0.3010 <s> CHARITY </s>
-0.3010 <s> CHART </s>
-0.3010 <s> CHASE </s>
-0.3010 <s> CHEAP </s>
-0.3010 <s> CHECK </s>
-0.3010 <s> CHEEK </s>
-0.3010 <s> CHEESE </s>
-0.3010 <s> CHEF </s>
-0.3010 <s> CHEMICAL </s>
-0.3010 <s> CHEST </s>
-0.3010 <s> CHICKEN </s>
-0.3010 <s> CHIEF </s>
-0.3010 <s> CHILD </s>
-0.3010 <s> CHILDHOOD </s>
-0.3010 <s> CHINESE </s>
-0.3010 <s> CHIP </s>
-0.3010 <s> CHOCOLATE </s>
-0.3010 <s> CHOICE </s>
-0.3010 <s> CHOLESTEROL </s>
-0.3010 <s> CHOOSE </s>
-0.3010 <s> CHRISTIAN </s>
-0.3010 <s> CHRISTMAS </s>
-0.3010 <s> CHROME </s>
-0.3010 <s> CHURCH </s>
-0.3010 <s> CIGARETTE </s>
-0.3010 <s> CIRCLE </s>
-0.3010 <s> CIRCUMSTANCE </s>
-0.3010 <s> CITE </s>
-0.3010 <s> CITIZEN </s>
-0.3010 <s> CITY </s>
-0.3010 <s> CIVIL </s>
-0.3010 <s> CIVILIAN </s>
-0.3010 <s> CLAIM </s>
-0.3010 <s> CLASS </s>
-0.3010 <s> CLASSIC </s>
-0.3010 <s> CLASSROOM </s>
-0.3010 <s> CLEAN </s>
-0.3010 <s> CLEAR </s>
-0.3010 <s> CLEARLY </s>
-0.3010 <s> CLIENT </s>
-0.3010 <s> CLIMATE </s>
-0.3010 <s> CLIMB </s>
-0.3010 <s> CLINIC </s>
-0.3010 <s> CLINICAL </s>
-0.3010 <s> CLOCK </s>
-0.3010 <s> CLOSE </s>
-0.3010 <s> CLOSELY </s>
-0.3010 <s> CLOSER </s>
-0.3010 <s> CLOTHES </s>
-0.3010 <s> CLOTHING </s>
-0.3010 <s> CLOUD </s>
-0.3010 <s> CLUB </s>
-0.3010 <s> CLUE </s>
-0.3010 <s> CLUSTER </s>
-0.3010 <s> COACH </s>
-0.3010 <s> COAL </s>
-0.3010 <s> COALITION </s>
-0.3010 <s> COAST </s>
-0.3010 <s> COAT </s>
-0.3010 <s> CODE </s>
-0.3010 <s> COFFEE </s>
-0.3010 <s> COGNITIVE </s>
-0.3010 <s> COLD </s>
-0.3010 <s> COLLAPSE </s>
-0.3010 <s> COLLEAGUE </s>
-0.3010 <s> COLLECT </s>
-0.3010 <s> COLLECTION </s>
-0.3010 <s> COLLECTIVE </s>
-0.3010 <s> COLLEGE </s>
-0.3010 <s> COLONIAL </s>
-0.3010 <s> COLOR </s>
-0.3010 <s> COLUMN </s>
-0.3010 <s> COMBINATION </s>
-0.3010 <s> COMBINE </s>
-0.3010 <s> COME </s>
-0.3010 <s> COMEDY </s>
-0.3010 <s> COMFORT </s>
-0.3010 <s> COMFORTABLE </s>
-0.3010 <s> COMMAND </s>
-0.3010 <s> COMMANDER </s>
-0.3010 <s> COMMENT </s>
-0.3010 <s> COMMERCIAL </s>
-0.3010 <s> COMMISSION </s>
-0.3010 <s> COMMIT </s>
-0.3010 <s> COMMITMENT </s>
-0.3010 <s> COMMITTEE </s>
-0.3010 <s> COMMON </s>
-0.3010 <s> COMMUNICATE </s>
-0.3010 <s> COMMUNICATION </s>
-0.3010 <s> COMMUNITY </s>
-0.3010 <s> COMPANY </s>
-0.3010 <s> COMPARE </s>
-0.3010 <s> COMPARISON </s>
-0.3010 <s> COMPETE </s>
-0.3010 <s> COMPETITION </s>
-0.3010 <s> COMPETITIVE </s>
-0.3010 <s> COMPETITOR </s>
-0.3010 <s> COMPLAIN </s>
-0.3010 <s> COMPLAINT </s>
-0.3010 <s> COMPLETE </s>
-0.3010 <s> COMPLETELY </s>
-0.3010 <s> COMPLEX </s>
-0.3010 <s> COMPLICATED </s>
-0.3010 <s> COMPONENT </s>
-0.3010 <s> COMPOSE </s>
-0.3010 <s> COMPOSITION </s>
-0.3010 <s> COMPREHENSIVE </s>
-0.3010 <s> COMPUTER </s>
-0.3010 <s> CONCENTRATE </s>
-0.3010 <s> CONCENTRATION </s>
-0.3010 <s> CONCEPT </s>
-0.3010 <s> CONCERN </s>
-0.3010 <s> CONCERNED </s>
-0.3010 <s> CONCERT </s>
-0.3010 <s> CONCLUDE </s>
-0.3010 <s> CONCLUSION </s>
-0.3010 <s> CONCRETE </s>
-0.3010 <s> CONDITION </s>
-0.3010 <s> CONDUCT </s>
-0.3010 <s> CONFERENCE </s>
-0.3010 <s> CONFIDENCE </s>
-0.3010 <s> CONFIDENT </s>
-0.3010 <s> CONFIRM </s>
-0.3010 <s> CONFLICT </s>
-0.3010 <s> CONFRONT </s>
-0.3010 <s> CONFUSION </s>
-0.3010 <s> CONGRESS </s>
-0.3010 <s> CONGRESSIONAL </s>
-0.3010 <s> CONNECT </s>
-0.3010 <s> CONNECTION </s>
-0.3010 <s> CONSCIOUSNESS </s>
-0.3010 <s> CONSENSUS </s>
-0.3010 <s> CONSEQUENCE </s>
-0.3010 <s> CONSERVATIVE </s>
-0.3010 <s> CONSIDER </s>
-0.3010 <s> CONSIDERABLE </s>
-0.3010 <s> CONSIDERATION </s>
-0.3010 <s> CONSIST </s>
-0.3010 <s> CONSISTENT </s>
-0.3010 <s> CONSTANT </s>
-0.3010 <s> CONSTANTLY </s>
-0.3010 <s> CONSTITUTE </s>
-0.3010 <s> CONSTITUTIONAL </s>
-0.3010 <s> CONSTRUCT </s>
-0.3010 <s> CONSTRUCTION </s>
-0.3010 <s> CONSULTANT </s>
-0.3010 <s> CONSUME </s>
-0.3010 <s> CONSUMER </s>
-0.3010 <s> CONSUMPTION </s>
-0.3010 <s> CONTACT </s>
-0.3010 <s> CONTAIN </s>
-0.3010 <s> CONTAINER </s>
-0.3010 <s> CONTEMPORARY </s>
-0.3010 <s> CONTENT </s>
-0.3010 <s> CONTEST </s>
-0.3010 <s> CONTEXT </s>
-0.3010 <s> CONTINUE </s>
-0.3010 <s> CONTINUED </s>
-0.3010 <s> CONTRACT </s>
-0.3010 <s> CONTRAST </s>
-0.3010 <s> CONTRIBUTE </s>
-0.3010 <s> CONTRIBUTION </s>
-0.3010 <s> CONTROL </s>
-0.3010 <s> CONTROVERSIAL </s>
-0.3010 <s> CONTROVERSY </s>
-0.3010 <s> CONVENTION </s>
-0.3010 <s> CONVENTIONAL </s>
-0.3010 <s> CONVERSATION </s>
-0.3010 <s> CONVERT </s>
-0.3010 <s> CONVICTION </s>
-0.3010 <s> CONVINCE </s>
-0.3010 <s> COOK </s>
-0.3010 <s> COOKIE </s>
-0.3010 <s> COOKING </s>
-0.3010 <s> COOL </s>
-0.3010 <s> COOPERATION </s>
-0.3010 <s> COP </s>
-0.3010 <s> COPE </s>
-0.3010 <s> COPY </s>
-0.3010 <s> CORE </s>
-0.3010 <s> CORN </s>
-0.3010 <s> CORNER </s>
-0.3010 <s> CORPORATE </s>
-0.3010 <s> CORPORATION </s>
-0.3010 <s> CORRECT </s>
-0.3010 <s> CORRESPONDENT </s>
-0.3010 <s> COST </s>
-0.3010 <s> COTTON </s>
-0.3010 <s> COUCH </s>
-0.3010 <s> COULD </s>
-0.3010 <s> COUNCIL </s>
-0.3010 <s> COUNSELOR </s>
-0.3010 <s> COUNT </s>
-0.3010 <s> COUNTER </s>
-0.3010 <s> COUNTRY </s>
-0.3010 <s> COUNTY </s>
-0.3010 <s> COUPLE </s>
-0.3010 <s> COURAGE </s>
-0.3010 <s> COURSE </s>
-0.3010 <s> COURT </s>
-0.3010 <s> COUSIN </s>
-0.3010 <s> COVER </s>
-0.3010 <s> COVERAGE </s>
-0.3010 <s> COW </s>
-0.3010 <s> CRACK </s>
-0.3010 <s> CRAFT </s>
-0.3010 <s> CRASH </s>
-0.3010 <s> CRAZY </s>
-0.3010 <s> CREAM </s>
-0.3010 <s> CREATE </s>
-0.3010 <s> CREATION </s>
-0.3010 <s> CREATIVE </s>
-0.3010 <s> CREATURE </s>
-0.3010 <s> CREDIT </s>
-0.3010 <s> CREW </s>
-0.3010 <s> CRIME </s>
-0.3010 <s> CRIMINAL </s>
-0.3010 <s> CRISIS </s>
-0.3010 <s> CRITERIA </s>
-0.3010 <s> CRITIC </s>
-0.3010 <s> CRITICAL </s>
-0.3010 <s> CRITICISM </s>
-0.3010 <s> CRITICIZE </s>
-0.3010 <s> CROP </s>
-0.3010 <s> CROSS </s>
-0.3010 <s> CROWD </s>
-0.3010 <s> CRUCIAL </s>
-0.3010 <s> CRY </s>
-0.3010 <s> CULTURAL </s>
-0.3010 <s> CULTURE </s>
-0.3010 <s> CUP </s>
-0.3010 <s> CURIOUS </s>
-0.3010 <s> CURRENT </s>
-0.3010 <s> CURRENTLY </s>
-0.3010 <s> CURRICULUM </s>
-0.3010 <s> CUSTOM </s>
-0.3010 <s> CUSTOMER </s>
-0.3010 <s> CUT </s>
-0.3010 <s> CYCLE </s>
-0.3010 <s> DAD </s>
-0.3010 <s> DAILY </s>
-0.3010 <s> DAMAGE </s>
-0.3010 <s> DANCE </s>
-0.3010 <s> DANGER </s>
-0.3010 <s> DANGEROUS </s>
-0.3010 <s> DARE </s>
-0.3010 <s> DARK </s>
-0.3010 <s> DARKNESS </s>
-0.3010 <s> DATA </s>
-0.3010 <s> DATE </s>
-0.3010 <s> DAUGHTER </s>
-0.3010 <s> DAY </s>
-0.3010 <s> DEAD </s>
-0.3010 <s> DEAL </s>
-0.3010 <s> DEALER </s>
-0.3010 <s> DEAR </s>
-0.3010 <s> DEATH </s>
-0.3010 <s> DEBATE </s>
-0.3010 <s> DEBT </s>
-0.3010 <s> DECADE </s>
-0.3010 <s> DECIDE </s>
-0.3010 <s> DECISION </s>
-0.3010 <s> DECK </s>
-0.3010 <s> DECLARE </s>
-0.3010 <s> DECLINE </s>
-0.3010 <s> DECREASE </s>
-0.3010 <s> DEEP </s>
-0.3010 <s> DEEPLY </s>
-0.3010 <s> DEER </s>
-0.3010 <s> DEFEAT </s>
-0.3010 <s> DEFEND </s>
-0.3010 <s> DEFENDANT </s>
-0.3010 <s> DEFENSE </s>
-0.3010 <s> DEFENSIVE </s>
-0.3010 <s> DEFICIT </s>
-0.3010 <s> DEFINE </s>
-0.3010 <s> DEFINITELY </s>
-0.3010 <s> DEFINITION </s>
-0.3010 <s> DEGREE </s>
-0.3010 <s> DELAY </s>
-0.3010 <s> DELIVER </s>
-0.3010 <s> DELIVERY </s>
-0.3010 <s> DEMAND </s>
-0.3010 <s> DEMOCRACY </s>
-0.3010 <s> DEMOCRAT </s>
-0.3010 <s> DEMOCRATIC </s>
-0.3010 <s> DEMONSTRATE </s>
-0.3010 <s> DEMONSTRATION </s>
-0.3010 <s> DENY </s>
-0.3010 <s> EXCEL </s>
-0.3010 <s> FILE </s>
-0.3010 <s> MANAGER </s>
-0.3010 <s> MUSIC </s>
-0.3010 <s> NOTEPAD </s>
-0.3010 <s> OPEN </s>
-0.3010 <s> PANEL </s>
-0.3010 <s> POINT </s>
-0.3010 <s> POWER </s>
-0.3010 <s> WORD </s>

\end\
